{
    "layer_1_bias": [
        [
            -1.7572351759490363
        ], 
        [
            1.0771434054431592
        ], 
        [
            -0.9005557479709979
        ], 
        [
            -0.9039162666416625
        ], 
        [
            0.17005645423099117
        ], 
        [
            0.524630389943515
        ], 
        [
            1.4436022368735746
        ], 
        [
            -0.23539062463898566
        ], 
        [
            1.2330502760448536
        ], 
        [
            0.13325979551912173
        ], 
        [
            -0.17458951289177727
        ], 
        [
            -0.4301530890181734
        ], 
        [
            -0.2552576751447986
        ], 
        [
            1.6456606893337138
        ], 
        [
            -1.3049962436535185
        ], 
        [
            1.9550062473214627
        ], 
        [
            0.11782351118489554
        ], 
        [
            0.5635312194195046
        ], 
        [
            -1.5181173254931297
        ], 
        [
            -0.6802559910600589
        ]
    ], 
    "layer_1_weight": [
        [
            -1.4737893966872477, 
            -0.44478825700919294, 
            -1.2944617119988646, 
            0.3482884751202264, 
            0.5668436063784741, 
            -0.6763127563184664, 
            0.2649519646340925, 
            -0.44936075551820526, 
            0.1219677508121393, 
            -0.5023282000201807, 
            -0.32020497258933794, 
            -0.025069263996681204, 
            0.31562787315580104, 
            -0.8915009101501943, 
            -0.9237231542067329, 
            -1.1194743574518808, 
            1.1795183878613735, 
            0.2219039663377945, 
            0.8603605856195036, 
            2.722965583461953, 
            0.7633243080649437, 
            -1.7569151842642654, 
            0.9538678546290453, 
            0.2047614490506391, 
            -0.30126250103548596, 
            1.418112467074486, 
            -0.7505807009900765, 
            0.4301582992634245, 
            1.408861996118528, 
            -1.2951227974353614, 
            -0.1983679122323421, 
            0.9142043321861394, 
            -1.841130679732365, 
            -1.4400827114191685, 
            0.1251150506725126, 
            0.4584379367903709, 
            0.9489398471044199, 
            0.583172786147417, 
            0.7617367506949669, 
            -1.1332737908220767, 
            0.8451737176827937, 
            -2.6154377521870504, 
            -2.3400953435132132, 
            0.01650808110963144, 
            0.642165247628236, 
            0.24006855186664663, 
            0.8133394084322371, 
            0.3760843924839385, 
            -0.40625759144353474, 
            -0.13553191263343434, 
            1.112576594634682, 
            -0.6180600615928062, 
            -1.3612699423334054, 
            2.1979637561797007, 
            -1.2676143439447778, 
            0.6099215111449465, 
            -1.3151628918467673, 
            -0.5940840469989177, 
            -0.7600315054518818, 
            -0.1550755621073022, 
            0.7525052395657089, 
            0.19420921250914874, 
            0.7202602195443346, 
            0.1537269079462919, 
            1.7282909339696795, 
            0.06359032156520575, 
            -0.46617557516199953, 
            -0.4409438992809138, 
            0.017412549628958544, 
            0.27081376154554304, 
            -0.8660830120820132, 
            -1.04456614185217, 
            -0.16141252990293614, 
            -0.8631857351787527, 
            1.7200986839629204, 
            1.476936918712443, 
            0.7684885552318825, 
            -0.2829935035857414, 
            -1.081010806032005, 
            1.1090482328468099, 
            -0.8726773091531118, 
            0.5915257799678271, 
            0.7519931826632101, 
            -1.8463537056594812, 
            -0.8114147304196203, 
            1.0737192231337847, 
            1.8507949198706293, 
            -0.2053663827607955, 
            1.429493680246964, 
            -0.7971305443990726, 
            0.07798378548416715, 
            -0.8655609885896574, 
            0.7469668809049786, 
            1.0770514675821756, 
            0.6137349611764922, 
            0.8167284174309025, 
            0.43633705948771406, 
            -0.902158793502882, 
            -0.3730558933872415, 
            -0.6181516273073244, 
            0.8362950866147701, 
            -0.1109932282603293, 
            0.24964461426749773, 
            0.12234472169886237, 
            -0.5063113344732207, 
            -1.4060829061886746, 
            0.07039972842142934, 
            0.6928624761024982, 
            0.37772473685777297, 
            0.783573587122864, 
            0.3073004922409763, 
            -0.1803811737620642, 
            -0.3660999308057367, 
            -0.07318472518317799, 
            -1.8017714852321156, 
            1.796216918798533, 
            0.006079369056951129, 
            -0.7938979131306603, 
            1.124343114788935, 
            0.35341689833898476, 
            -2.097765507732914, 
            0.6426363793194906, 
            -0.060646796613884044, 
            0.9480028662871308, 
            1.2662821568278626, 
            1.608914982799055, 
            0.09998197084200852, 
            0.20081642721067058, 
            -0.5169026095823746, 
            -0.469814431709733, 
            -0.2905697551885241, 
            -1.0022546808334591, 
            -1.8974999032575868, 
            -0.743415799476076, 
            2.028237784786058, 
            2.0134926817492853, 
            -0.15449811929208024, 
            -3.358712297921863, 
            -1.3006869783518646, 
            -0.48930666911308845, 
            -0.8074540801683125, 
            1.8078441785680766, 
            1.7627494063635019, 
            1.4157471084556725, 
            0.19220990250092396, 
            -0.2546021725245112, 
            -0.5408456246905996, 
            -0.6142183168282566, 
            -1.8574609304671998, 
            -0.4236764676672936, 
            0.6359186119261948, 
            0.04874119752410187, 
            -0.5050982489957754, 
            1.3761038610157177, 
            -0.12341532520518349, 
            -0.4781500689913552, 
            -1.0199280828376522, 
            -0.008248086246150246, 
            0.3053709821119812, 
            0.5541502674666215, 
            -1.2159927315552932, 
            -2.254732052861693, 
            0.8560931276697845, 
            1.1236837327838491, 
            -1.9834220248649537, 
            1.7753100060291929, 
            -0.13415865102644944, 
            -0.15601780571213777, 
            -1.4486235475891083, 
            0.7902984233162501, 
            -0.12625449085617219, 
            -0.5462942117918752, 
            -0.3830521924537635, 
            -0.3541395945401113, 
            1.5207842540145855, 
            -0.1384333983472676, 
            -1.1350612550560042, 
            -0.009277826810386105, 
            -0.11097652014816844, 
            -1.426012811171945, 
            -0.20401468584090104, 
            -1.0517970146714677, 
            -0.2747502153916088, 
            -0.7540269335472066, 
            1.3815272324103276, 
            0.38391523171419845, 
            0.9349201426342333, 
            -1.8983040205375514, 
            0.42116067204168756, 
            -0.831052884538228, 
            0.9043252314401474, 
            -1.052057149243211, 
            -0.2806156507815918, 
            -0.39271078194655623, 
            -0.2974435475921587, 
            0.27398047476114634, 
            -0.1430673956902546, 
            -1.3788575032242614, 
            -0.9826662367944419, 
            0.05306149071938005, 
            1.2364565740810116, 
            0.4069059443099655, 
            -0.527372733270148, 
            -2.0577820253155803, 
            0.07560410761262155, 
            -0.4238267282633698, 
            -0.7468876003547287, 
            0.6326695882038265, 
            -0.5277857581461904, 
            1.0720896923092595, 
            -1.0851097370875185, 
            -0.9536234924396264, 
            -1.2187465177349537, 
            0.24171333341501236, 
            -0.4581470049644831, 
            -0.7517493803965327, 
            -0.5914321207819243, 
            -1.010529381390994, 
            -0.5290914553894603, 
            1.5637126452975527, 
            1.359347923876953, 
            0.683813884640435, 
            1.6147729964371815, 
            -1.6417507697975566, 
            0.15964375545560264, 
            -0.1884328772020874, 
            -0.2744068614490526, 
            -0.07714882331694907, 
            1.0002306463909052, 
            1.2470393691202943, 
            -0.4292016846725601, 
            -1.8521179286367753, 
            1.1836440738130256, 
            1.8180692764113484, 
            -0.6325035344205363, 
            -1.1011315098748862, 
            0.42868218658906504, 
            0.4047153008210073, 
            -0.26688974433146867, 
            -0.47788074234233396, 
            0.4470449867699822, 
            0.5238975437176334, 
            -0.523955624158304, 
            -2.043037564705545, 
            -0.7909112864637818, 
            1.323616634587876, 
            -0.8470058900048049, 
            1.6378278180689019, 
            -1.649596210073288, 
            -0.697873591975884, 
            -1.80977142817808, 
            0.655703599282597, 
            2.739835982955411, 
            0.6478305334110341, 
            -0.015925762905953756, 
            0.3134087287152254
        ], 
        [
            0.08570818083908924, 
            0.3740551532708273, 
            -1.9593218158880348, 
            0.8707208748095481, 
            -1.364487765286709, 
            -0.9052089171288236, 
            0.6877153813835926, 
            -0.5293469985460397, 
            0.5940053103932014, 
            -0.33118004775220977, 
            -0.6074332682008082, 
            -0.046185422921213214, 
            -0.7220910102911728, 
            0.020344291339297767, 
            0.027282459043673674, 
            -0.9645804964017403, 
            -0.7414968739585058, 
            0.5986903404039114, 
            -0.4502217553809004, 
            -1.195163056121393, 
            0.13753484208605432, 
            -0.5881631868010927, 
            0.02809470651433111, 
            0.5521430266826224, 
            0.02716075568305592, 
            -0.6492625957314749, 
            1.2862025287419132, 
            -0.4666797333865618, 
            0.5996361578288938, 
            -0.8910452273405051, 
            1.6986047097623207, 
            0.15394925967946976, 
            -0.5334273705161966, 
            -0.22303948654295908, 
            -0.6394419670235278, 
            -0.46636762101190515, 
            0.49521940501625417, 
            2.0556680163987973, 
            -1.6772191206220488, 
            -0.0812360134143644, 
            -1.067410310155878, 
            2.3978125179447307, 
            -1.0081786459398399, 
            -1.35508058415627, 
            0.41315825515698573, 
            0.4340906454359135, 
            0.3246754376923496, 
            0.8204812134778181, 
            1.9287949858891926, 
            0.34611373521041167, 
            -0.17819605757320375, 
            -1.8630806426426743, 
            -0.5162827436790808, 
            -1.772299985851291, 
            -0.7175268143054632, 
            -0.4217826871094623, 
            1.8470589825751238, 
            0.38485659321354787, 
            -1.1435165272135415, 
            -1.3156157270345397, 
            -0.30779489805340354, 
            0.0012484445321990511, 
            2.364485862221069, 
            0.41821122985214854, 
            -0.1415240815422058, 
            1.2023700113571634, 
            -0.8217185131483403, 
            0.38567809867716357, 
            -0.6478795294939158, 
            0.5888379910730861, 
            -0.9599514052341417, 
            0.786273892468373, 
            -1.9513524354488194, 
            0.6534974667239813, 
            -0.7599739077704307, 
            -1.094471135323485, 
            -0.298417099931624, 
            0.06529072347638408, 
            -0.10014099703881511, 
            1.3603126469883868, 
            -0.09584186600942113, 
            0.17614228146527, 
            1.09283647672735, 
            -0.8935856695468002, 
            -0.24736217756877732, 
            -0.21444703345900254, 
            -1.270355784591428, 
            0.13961816079324452, 
            -0.9696574058572581, 
            0.9188887596765428, 
            -0.1039084353343285, 
            -1.2375286787377413, 
            0.7305433659295409, 
            0.5814452475903874, 
            0.8528581821697808, 
            -0.6130922103798355, 
            1.0030221282137055, 
            -0.5508703326891708, 
            1.4801056221876228, 
            -0.970678044998629, 
            0.7102721507934571, 
            -0.9389137466914289, 
            -0.004427118940036976, 
            -0.5355924342749492, 
            -1.8613580881752716, 
            -1.60973430486989, 
            -0.9351053442955053, 
            0.22406745073893974, 
            1.282394856421818, 
            -0.9611081536380388, 
            -0.9257964541070858, 
            -2.765042610707368, 
            0.653469455106276, 
            -1.2520112659038962, 
            -0.8694733852994095, 
            -0.3389772030070791, 
            -0.13126964775405237, 
            -1.0278088026425622, 
            -1.4605140405750436, 
            1.4961309890022427, 
            -0.5987610830554759, 
            0.9468977312230028, 
            1.4823491694261597, 
            -0.5385809505654598, 
            -0.8374885108635962, 
            0.3402416649016651, 
            -0.36921101828546066, 
            0.891436816995386, 
            -1.343688928086591, 
            -0.566617869280066, 
            1.6296781198777255, 
            0.07681049618180716, 
            -0.01141343017469076, 
            -0.3767371025272193, 
            0.016736259441630638, 
            -0.3562178003432977, 
            -0.9301092308682299, 
            2.5500444271515037, 
            1.0459726067768749, 
            -0.5882252133560764, 
            -2.216361988388549, 
            1.4442439053458949, 
            -0.07064810818631212, 
            -0.99488665409017, 
            -0.4437441361283764, 
            -0.2249591422289925, 
            -1.2311845621465498, 
            -2.4625975794290196, 
            -2.7075366129743026, 
            1.6273628887707803, 
            0.14335849148959598, 
            -0.7697148199129179, 
            -1.1188146479170216, 
            1.4180141799261279, 
            -1.1354153879384339, 
            -2.0190813234406555, 
            -0.6082976224758728, 
            1.1781021954964626, 
            1.1612266548626833, 
            0.3356468747192587, 
            0.9659053041563658, 
            -0.21564671002508054, 
            -0.008235528176880887, 
            -0.26606579524830204, 
            -0.14557721467966986, 
            -1.829475153255458, 
            1.6973883246981287, 
            -1.2886752983593082, 
            0.2471853313115714, 
            -0.43769181071606567, 
            -0.2546285483594782, 
            -0.7934519584090656, 
            -0.16681400566822316, 
            0.7070265711741442, 
            1.727124454813782, 
            -1.053088364404796, 
            -0.4344269458979349, 
            1.167698645442929, 
            0.12387264650658136, 
            -0.9843134933644732, 
            -0.5318338099268867, 
            1.28932656132013, 
            1.144528767844927, 
            -0.03587814462870094, 
            1.0363883168571248, 
            0.11802458555943919, 
            -1.9804602924096397, 
            -2.467758812095892, 
            0.6387838127982873, 
            0.680741679410517, 
            0.13817059527414577, 
            -0.5907308452643646, 
            0.7041636310571009, 
            -0.7762355023090025, 
            0.24727411577990985, 
            -0.44787150109915463, 
            -0.5586432390810833, 
            -0.12318111623260333, 
            -0.6012860577198081, 
            -0.10403388979578228, 
            0.08611698512140419, 
            0.06717545901981463, 
            0.6438777217124667, 
            -0.11786554640330033, 
            -2.05756752774389, 
            1.1517458465363442, 
            0.5900201931396964, 
            -0.6845323301584328, 
            0.6941592042489446, 
            -0.8404498162999746, 
            0.2615324960369396, 
            1.0066935377732216, 
            0.05098644504911966, 
            -0.26892338374986224, 
            -0.38373572598605166, 
            -0.9195269215424593, 
            -0.18448762864886073, 
            1.5985501214577547, 
            -0.8219459100312813, 
            0.12404252573246967, 
            -0.7884998902880079, 
            -0.50674779201617, 
            1.2557407370227662, 
            -0.8340951551424304, 
            -0.6559440956755088, 
            -1.175060132711681, 
            0.13056331943116317, 
            0.7280616967985969, 
            0.20869304918435388, 
            -0.789749725558308, 
            -0.9816375843701722, 
            1.1171758590860863, 
            -1.7480287603123377, 
            -0.5271361452479882, 
            -0.3102317567072128, 
            0.37269146726788666, 
            0.7206765293136727, 
            -0.5968304664463544, 
            0.10303008665249717, 
            -0.10164434114556178, 
            -1.9367581711341681, 
            -0.18598039953067333, 
            -0.776915192102418, 
            -0.06342717549600238, 
            1.61712333440838, 
            1.376078200351981, 
            -0.7030982740805118, 
            -0.6709080916939028, 
            -0.8075932791536292, 
            -2.035949612493671, 
            -0.05851631292491053, 
            -1.687470286835617, 
            -0.060819096393224616, 
            -1.2537781667048622, 
            -1.2660802661541177, 
            -0.7712343287442671
        ], 
        [
            -1.0423732321513044, 
            0.8971863487774244, 
            -1.5673901791889715, 
            0.0053414032731436654, 
            -1.2766281899124408, 
            0.33552803652986807, 
            -0.8577237656455561, 
            -0.23371283161467543, 
            -0.03988995910458383, 
            -1.127074404528519, 
            -0.3704952002139393, 
            0.061026548124458076, 
            0.5038888445824927, 
            1.378916283766649, 
            -1.5119319702195422, 
            0.3733654081286713, 
            -0.7952829352230956, 
            -0.6967103357843626, 
            0.09310032821594164, 
            -0.5265471831880186, 
            -0.9076763281054028, 
            0.5126560532064799, 
            0.5760505081394723, 
            -0.43756862783316336, 
            -0.5751448197899823, 
            2.037873500079484, 
            -1.6713276240734565, 
            -0.9474860695074955, 
            1.0724159960380133, 
            0.27293289499212603, 
            -1.24767519858011, 
            -1.0576268185762974, 
            -1.0391169598539491, 
            0.16816675343615572, 
            -0.24720454788276205, 
            2.4819448531156767, 
            0.2851981936268993, 
            0.5222895596069159, 
            0.24370794641500773, 
            0.17469217082629943, 
            -0.2723229912887783, 
            -1.2628854036627464, 
            -1.6842734681944072, 
            1.5147922829957037, 
            -0.8808213206519667, 
            0.8255729436280098, 
            0.08052777676154063, 
            -0.40289993632607607, 
            -0.43887436909927535, 
            0.3771153576216225, 
            -0.5971473163105715, 
            0.009811683421275407, 
            -0.6454463492686906, 
            -0.7269880022056805, 
            0.17761183014764814, 
            1.6598845877762856, 
            0.13948624261343925, 
            -0.7470312439217212, 
            -0.9044619691164002, 
            -0.7843252872813826, 
            0.6712177675453481, 
            -0.14210723575748407, 
            -0.5573492789904871, 
            0.36340161247204195, 
            0.6836462513434812, 
            1.4114973699242792, 
            -2.3528568251235136, 
            0.7910339186768768, 
            -0.201525685090453, 
            0.6082535274026236, 
            -0.12941490059478328, 
            0.7039268347925087, 
            -0.14189868257925312, 
            1.9104237725603468, 
            -1.0415548250257045, 
            -0.5770623787864021, 
            0.8595256703684812, 
            0.257839746293409, 
            -0.12954537990531467, 
            -0.06959067387992438, 
            -1.1922892726562644, 
            1.1969825929153375, 
            1.3414303929554443, 
            0.9457918470219534, 
            0.8767522063317852, 
            -0.11671628548437746, 
            -1.2982594817721254, 
            1.0590100527283177, 
            0.08569196186958672, 
            -0.49742200116975677, 
            -1.7301592359336646, 
            -2.215651733570916, 
            0.5400377190286171, 
            0.9108645946461272, 
            -0.09753360148677168, 
            2.2675692891206407, 
            -0.4099210806358587, 
            2.0108181738338544, 
            0.6511691290710339, 
            0.892494990511156, 
            -0.018537834182274535, 
            1.9340916621659912, 
            0.28610421205305897, 
            -0.6708308651876679, 
            -2.2787831256908286, 
            0.13753466981846582, 
            -1.500015818486123, 
            -1.093490532503013, 
            -1.2686328252033112, 
            1.5598909726831656, 
            0.16463939504454586, 
            -1.242737927332127, 
            -0.8945833058325956, 
            -0.5199980654104788, 
            -0.09831516366906311, 
            0.4706466268641744, 
            -0.20076255872189563, 
            0.5933261940056282, 
            0.018774859857129057, 
            0.9017690852493495, 
            0.11336720581688338, 
            -1.2433863446270508, 
            -0.8128469524854472, 
            -0.20834089863511798, 
            -1.2254168710949587, 
            1.5788554833600774, 
            -1.3055967329633662, 
            1.7130557711035677, 
            0.21045553517047222, 
            -0.4503605521777366, 
            2.805437610691805, 
            0.41680033380562825, 
            -0.7134278133567259, 
            0.941226052456684, 
            0.2289989484489366, 
            0.5081301229676872, 
            1.6220149894820344, 
            -1.2265037206842895, 
            -0.34898973574452896, 
            -1.7731102502342462, 
            -0.05598722730094993, 
            0.017819282595029885, 
            -0.7947334578531986, 
            -0.7171700333194325, 
            0.2785106197608098, 
            1.2879976079651616, 
            0.5858537727290444, 
            2.5396551905274483, 
            1.4800503161693666, 
            1.7073723810399444, 
            1.0046724828175504, 
            -1.290592505425592, 
            -0.07979726730146712, 
            1.1980051468485597, 
            1.1318779834720503, 
            0.637294083985538, 
            -0.5593414894950309, 
            0.12744471616535663, 
            -0.1327666125529935, 
            0.7634370598377948, 
            0.38589534499149747, 
            0.08727641825368009, 
            1.5692332813463514, 
            2.227356355499651, 
            1.4117937383201546, 
            -0.3636053813459179, 
            -0.002942501684562544, 
            0.17332193659015968, 
            1.23658127565061, 
            -1.352435202351027, 
            0.5884504861247329, 
            0.06407566311980543, 
            0.4930429190944953, 
            2.152129430593294, 
            -1.0425537315745923, 
            0.7382549119042949, 
            0.37887975884966635, 
            -0.4857086465937645, 
            -0.47283286565341925, 
            -0.7506550931396893, 
            -0.2912825643687074, 
            0.15619988200494256, 
            -0.09581925732119427, 
            -2.473476469527943, 
            -1.1898460273878082, 
            -0.9453012389326017, 
            0.7746961293028911, 
            -0.23575378345235598, 
            -0.6804630704647863, 
            -0.5683733910717097, 
            1.4623085776574722, 
            -0.44212360123842437, 
            0.8666886874649105, 
            -0.1379694742551698, 
            0.09997028431344944, 
            0.11048706307303152, 
            1.340919040473512, 
            1.2896945885786288, 
            0.17759992006523287, 
            1.2160797279288709, 
            0.09566036104925403, 
            -0.3043787484334529, 
            -0.5094073196057316, 
            0.939652831897269, 
            0.17828660994700585, 
            0.7281979859631469, 
            0.34953900053900755, 
            0.29193991380018885, 
            0.5134551499772505, 
            0.8164004401097597, 
            -0.6864025953266398, 
            0.6375361011026695, 
            0.913795650001721, 
            -2.928741757178995, 
            0.4179349856552595, 
            0.9620818559927868, 
            0.5127609982952479, 
            -0.619543037654945, 
            -0.8471623550620839, 
            0.8170577231800105, 
            0.2971117921923818, 
            -0.3429661221537042, 
            -0.36301920504585633, 
            -0.28343225953459694, 
            -0.021159587003183555, 
            0.12877881454180115, 
            -0.4854712140843281, 
            -1.6695167290080186, 
            -0.24406155311281016, 
            -0.6398629021151472, 
            -1.0946558501623698, 
            -0.96827179155928, 
            -0.39732634198033373, 
            -0.8794298761594982, 
            1.6770689941173282, 
            -1.1679441154076469, 
            1.0651695476845828, 
            -1.8431809672157382, 
            -0.17086395538869042, 
            -1.118540719062809, 
            0.8828080217860587, 
            -0.2971546508323646, 
            0.06367440346731403, 
            0.4468080043807592, 
            0.06716419332731058, 
            0.6593010703678202, 
            0.6880445273398993, 
            -0.8454313460024638, 
            0.053153201719463784, 
            0.440021413007051, 
            -0.5876429702593208, 
            -1.898363176407907, 
            0.5661256962435249, 
            -1.593343570108003, 
            -0.3266787066699676, 
            0.608858381994155
        ], 
        [
            1.1034420991589917, 
            -2.028319146070544, 
            0.685636808230624, 
            1.5428282036065555, 
            -0.9653684135563594, 
            0.5766932952239623, 
            -0.24009585817656298, 
            -0.8273756923149759, 
            -0.8189021568205784, 
            -0.11833999772662193, 
            -0.2753103926575145, 
            0.2622860716302799, 
            -0.4783008496967309, 
            0.2584151267424798, 
            -0.44241387464633314, 
            0.20420677459927813, 
            -1.5076690282651148, 
            -2.6513179373541287, 
            -1.42848877935902, 
            0.6138687692633378, 
            -0.9963905180032269, 
            1.5125913416515901, 
            0.5764712531438081, 
            0.19957731491702355, 
            1.1053833185594721, 
            2.013237782062414, 
            -1.1531712781679853, 
            0.5515442318895424, 
            -0.5996264904504989, 
            0.08122295318849415, 
            -0.7994923434714714, 
            -0.7518471868097112, 
            -1.7705906302689236, 
            -0.442056567385691, 
            -0.24283638505995397, 
            0.6849203378348281, 
            -0.34231747332488754, 
            -0.3839305920617948, 
            -1.480862190840727, 
            -0.7857900438033661, 
            -1.5848843197394542, 
            0.14615435921244552, 
            -2.0231974807285784, 
            0.9185985774545906, 
            1.1205551954134638, 
            -2.2348095532888492, 
            0.8691056244835244, 
            0.17345552184012544, 
            -2.2084758559430715, 
            -0.777454696268595, 
            0.0134333832349394, 
            -0.8200764764812373, 
            0.1270584058775215, 
            -0.3184777261206457, 
            0.6861580376505951, 
            0.42584484530347927, 
            0.1764890628671261, 
            0.7909430816101025, 
            0.047851515447305724, 
            0.1296846899039901, 
            -0.9671162526415901, 
            0.36126836634027487, 
            0.005464664787834183, 
            -0.7187470377814877, 
            0.9657311456194877, 
            -2.046655739698454, 
            0.33332170666441285, 
            1.2539820511885227, 
            -0.8175488147774238, 
            -0.07035638566242708, 
            0.84643882197747, 
            -0.896721305695838, 
            0.9281306757818087, 
            -0.180436463799055, 
            0.575819405273586, 
            0.5280301952677399, 
            0.05893766288850418, 
            -1.1106145364671534, 
            -0.7068758973035202, 
            -0.4733566918783806, 
            -0.18630158111299486, 
            1.2613356069933648, 
            0.7892301572737319, 
            -0.24664185386882914, 
            -0.6703569939355206, 
            0.556343358949826, 
            -1.166242052348462, 
            -0.9623996324155383, 
            0.7913402392592953, 
            -1.6758993920352703, 
            -0.31899780858619636, 
            2.10597033652213, 
            -0.6360518874683059, 
            0.9431837208766854, 
            0.7657510183111841, 
            0.574566923486096, 
            -1.6055216207196805, 
            -1.0382579604876927, 
            0.9524022550580273, 
            1.3903989777911345, 
            1.5654435671766302, 
            0.3157629241257525, 
            -0.6249159672807519, 
            2.357359614177195, 
            -0.6210392581204052, 
            1.4111963797878486, 
            -1.524132712434957, 
            1.0285862320958772, 
            -0.27539887824939735, 
            -2.5214188928574166, 
            0.6949360951754544, 
            2.1282914368648482, 
            -0.7468100071514547, 
            -0.5220530199708545, 
            0.05345405025309617, 
            -0.9718416863724306, 
            -0.8414483223365816, 
            -1.5783609418853346, 
            1.7357906563218002, 
            -0.19477199773369627, 
            1.4632154188399078, 
            1.0334659914656472, 
            0.3145119060494008, 
            -0.5780557997563638, 
            -0.2183576867921409, 
            -0.28077457759112173, 
            -1.2424505639792456, 
            0.6480503523221881, 
            0.13531040581876605, 
            0.31647227790376664, 
            1.1796419216883491, 
            -1.5446281228453944, 
            -0.7724515988204911, 
            -0.1579725512544282, 
            -2.5592701444253727, 
            -0.6364402092493926, 
            -0.8812272828558702, 
            0.05490025423543174, 
            -1.20442149712476, 
            0.5472844693716797, 
            -0.42102244562987584, 
            -0.2110315257930894, 
            0.16312069557612352, 
            -0.3792372448586724, 
            0.38511477597430827, 
            0.8595579193856676, 
            0.4258708045600064, 
            -0.4616624523692719, 
            0.12227628471726293, 
            0.5828489817945036, 
            -0.9785299141625798, 
            -1.8394047269318692, 
            0.25814574893102, 
            -0.8315185362524788, 
            0.956712469669502, 
            1.4113827956533684, 
            -1.1386141863066261, 
            -0.3685587508872095, 
            0.06751717591404682, 
            -1.682827139787769, 
            0.2846505147675098, 
            0.5842592541022695, 
            -0.9088259198493647, 
            -0.1220015126680128, 
            -2.3981544626583813, 
            -0.6278057014110167, 
            0.27353372145830296, 
            -0.6572989530152828, 
            -0.3107409568969558, 
            2.0062717911201986, 
            0.7697522380118013, 
            -1.0903516739901868, 
            -1.507123752757781, 
            -0.3665619033435657, 
            -0.5019842201626742, 
            -0.322556603689704, 
            0.5113299320949555, 
            0.4754463564705448, 
            -0.1280695929473558, 
            0.7190707155917163, 
            -0.18877023394021944, 
            0.8394147757066912, 
            0.8304780404826008, 
            -0.1674474756980935, 
            -0.3182625523706442, 
            -1.5500715187211942, 
            0.6165505572435618, 
            1.0361567097261846, 
            -0.12128070981941062, 
            1.7729438481538455, 
            2.901354365619758, 
            0.1865499492310248, 
            -0.8777690948729273, 
            0.328440906777289, 
            1.5887967231145776, 
            -0.30409028070384175, 
            -1.525606376790953, 
            0.4837428395540896, 
            -0.6830373547785017, 
            0.047576145774128234, 
            0.7176935952001324, 
            1.9645931511049188, 
            -0.2503221124721826, 
            -0.200812802553758, 
            1.816079780945002, 
            0.9442783970242186, 
            0.3261647941490993, 
            0.2569496310297726, 
            -0.5397086496333022, 
            1.4629363298732019, 
            0.42895600561858604, 
            0.7484069398235191, 
            1.5341642414075007, 
            0.6091892317052514, 
            -0.2817975909804619, 
            0.5682332126118497, 
            -1.7139811792298585, 
            -0.9472352389627904, 
            -0.5152001828366688, 
            0.13458578941052687, 
            0.6410352688345993, 
            -0.06892887966026581, 
            -0.2985084888211855, 
            0.9462948632373178, 
            -0.45475860136112967, 
            -0.8914747735357559, 
            -1.191771194321113, 
            1.9867817448740568, 
            0.1858009784342485, 
            -1.679522721650669, 
            -1.165957905375385, 
            0.4289650432198267, 
            0.7752487996010906, 
            0.2879194811543526, 
            0.7044316485220694, 
            -1.3952258023643005, 
            1.9781273066565428, 
            -0.39690202086630044, 
            1.7675481848022356, 
            -0.3648594677667555, 
            -0.6000397901817989, 
            1.2487315522213187, 
            -0.3154269135167622, 
            -2.601187725825817, 
            1.4220386122562922, 
            -0.9266741064087105, 
            0.9331977619295392, 
            0.11089008586276228, 
            0.25442326447007646, 
            -0.4536435466040574, 
            0.5225293983930477, 
            0.3634847899817333, 
            0.9614461911950867, 
            0.9739668426168112, 
            1.829405633779365, 
            -1.1618427012727033
        ], 
        [
            0.6722959985637429, 
            -1.136926010411148, 
            -0.9912575317191397, 
            -1.2331951993537462, 
            0.7929561697379097, 
            0.8644631952351952, 
            0.6683766130902778, 
            0.0703978466789374, 
            -0.13762176459882994, 
            1.0549283851985873, 
            0.9925185963917511, 
            0.6095236450864203, 
            2.8817377176234626, 
            0.08744359969514781, 
            1.9815757276075154, 
            -0.5585351295845785, 
            -0.5099182830880049, 
            -0.4445205649913852, 
            -0.01850918292017027, 
            1.9900064934482642, 
            0.9550174964734454, 
            0.7355573679025112, 
            0.31610789783947346, 
            0.8166619263929693, 
            0.16294294676941035, 
            -0.08648664158771392, 
            -0.006636083757689844, 
            -1.0338691705274592, 
            -0.3097646101084693, 
            0.6633283132396046, 
            1.5535342828145091, 
            0.9065115619406485, 
            0.7755767595269408, 
            -0.15381900852082336, 
            0.3859506840785116, 
            -0.9383354443305986, 
            -0.20861531624470375, 
            0.40623237785583366, 
            1.0271350599880642, 
            -1.4576764785710834, 
            0.8996235247350077, 
            -0.4496848327832452, 
            0.9713348016583301, 
            2.06130414041852, 
            -0.38634964663325716, 
            -1.3155685537448674, 
            -1.3208520946574271, 
            0.7309968146662665, 
            -0.25509898068834513, 
            -0.4506592386012231, 
            -1.346742412074037, 
            1.7855482623151648, 
            1.4330614381292706, 
            -0.16096966063022977, 
            -2.1858524482369592, 
            0.09009834359706698, 
            -0.2734396951580196, 
            -0.4915782041114021, 
            2.0904500815084877, 
            -0.6438028392944811, 
            1.5340753098136042, 
            0.8055659579729505, 
            -1.3224057955647734, 
            -0.9673669869203662, 
            0.4995561315291572, 
            -0.2567504663958689, 
            0.7096906598083238, 
            -0.3904753003060469, 
            0.766940239497788, 
            0.1035201917998747, 
            -0.9815158121537665, 
            -0.6597250192009165, 
            -2.14561007846653, 
            -0.8079870468059299, 
            0.9016791266165498, 
            1.1748207910622248, 
            -0.06347609667958894, 
            -0.4743404209704887, 
            -0.9095517945719784, 
            1.1290878068718533, 
            3.3934135652648965, 
            -0.6892373507106209, 
            -0.7827639701310732, 
            1.0491436901725164, 
            -0.061021287233213366, 
            2.5155041223544896, 
            -0.7033922263799255, 
            1.2588124314508298, 
            1.1302250355985728, 
            0.9165203121124686, 
            -2.5177572412006333, 
            1.3878308242340547, 
            1.0661556576384372, 
            -0.3397003984301209, 
            -1.5197339698044514, 
            -1.3306769044029891, 
            0.18682727491851983, 
            -0.2955779304353942, 
            -0.9190659567509464, 
            0.7732557206014269, 
            0.960994096159152, 
            0.5797349349555295, 
            -0.6636582784828028, 
            0.6470249203869259, 
            0.5402455462856613, 
            0.048739763247182204, 
            -2.4260960409515127, 
            -0.36192689999833916, 
            0.19933203055791515, 
            -0.09155273936347788, 
            -0.08499069750824735, 
            1.5851755275864745, 
            0.3405065620096338, 
            -0.8962018928290086, 
            0.6013805913126615, 
            0.48883231374032304, 
            -0.8950248410884687, 
            2.2663543275587306, 
            0.6363786895608071, 
            -0.600223419230638, 
            0.20866550496597439, 
            0.6061209343832008, 
            -0.9429557348429591, 
            0.05630676208353278, 
            0.6264444136529047, 
            -0.6825102675666542, 
            -0.7185544912735697, 
            0.4187986101894124, 
            -0.36033610573836367, 
            1.6812060042546828, 
            -1.3092230803455223, 
            0.37782544868119367, 
            0.5330737950966319, 
            -0.14084788977112148, 
            0.42660914629918834, 
            0.36677489842468924, 
            -1.031672338595851, 
            -0.18881796509532056, 
            1.3279315289251203, 
            -1.8312687106274383, 
            -0.4597690320744823, 
            -0.3874079685767222, 
            -0.5006706914710496, 
            -1.204249796405361, 
            0.2929245217723531, 
            0.3399253616109806, 
            -0.3611009404056862, 
            -0.30210271086517043, 
            1.0874162997893067, 
            -1.8045970876017314, 
            0.6636929327299445, 
            0.34288349257478173, 
            -0.7182815416490184, 
            -1.4260896983844167, 
            0.3872582458691968, 
            -0.8721023276156877, 
            -0.8083638931375472, 
            0.5772319113479661, 
            0.036807567152680666, 
            2.0528773552505144, 
            0.9455504611699636, 
            0.5768801039064072, 
            0.8918904834106557, 
            0.17357302138648015, 
            0.46297518993760445, 
            -0.30087794106213267, 
            0.9111875447211376, 
            -1.4595441344747297, 
            -0.11498000508829906, 
            -0.6806089446304475, 
            -0.5238938786408485, 
            -0.09689843108759157, 
            -0.2106612707814846, 
            -0.24466267809646589, 
            -1.0127712941784497, 
            1.5794302652096097, 
            2.5960320220426483, 
            -0.05016049976980087, 
            -0.19897569228617012, 
            2.146526569377702, 
            0.6603350244421854, 
            -0.872808116511482, 
            -0.41683937443261265, 
            0.6830222253825479, 
            1.0759093026633024, 
            0.7485221624604204, 
            1.0263982510940108, 
            0.9564520395926565, 
            1.4203403441430726, 
            -0.2364871927497744, 
            0.08400207658321407, 
            1.0825789992328283, 
            -0.07970893058524466, 
            -0.564163523756773, 
            -1.798711489819356, 
            2.335350862736098, 
            1.3418399199826663, 
            -0.7053345489568797, 
            -0.2707729830166819, 
            -0.5999073846918374, 
            -2.002380741768639, 
            0.28613715979406235, 
            1.689022431179214, 
            -0.21754080445080673, 
            0.5273781346450644, 
            -2.041628007499031, 
            -0.055369371023504865, 
            0.07502018363305583, 
            0.5930769426347928, 
            1.0265711148097623, 
            1.005573089751182, 
            0.5155610980828477, 
            1.4436518155576865, 
            -0.341674296657507, 
            -1.5620961288125363, 
            0.7278151591493118, 
            0.1973920881868396, 
            2.1293798685290826, 
            0.14420276240511412, 
            -0.3409209160536683, 
            -1.5916437850023104, 
            0.5169358144027758, 
            -0.6839473649337607, 
            -1.0151223201199124, 
            0.5412545946917063, 
            0.7190240727010677, 
            -0.04982823007284734, 
            0.9410202716932516, 
            1.5577595140886449, 
            0.430434586229472, 
            -0.6227129608638315, 
            -0.5071804655986485, 
            0.8536477228472581, 
            0.3912241142015098, 
            -1.4273796078760226, 
            0.13116764803058795, 
            1.2180777665824476, 
            0.2668944847718751, 
            0.10870474758826804, 
            -0.0863470113121582, 
            1.0013136970472742, 
            2.568843452690822, 
            -1.172356521861526, 
            -0.16386069909016132, 
            0.4821714148852719, 
            0.7895520386242602, 
            -0.7813523648597075, 
            -0.6122438012358596, 
            0.10205277226270125, 
            2.1628378650869533, 
            -0.9287663142627868, 
            -3.04915077142517, 
            0.47554553653985426, 
            1.7737697423353103, 
            0.15130571545681543, 
            0.9619607985817326
        ], 
        [
            0.705765674391042, 
            0.09147207662000904, 
            -0.031168279377862266, 
            -3.3744027766042692, 
            0.4107559100017317, 
            -1.3193027027868998, 
            0.46069424724005914, 
            0.5515734448658768, 
            -0.3528056907324033, 
            0.6085479938368028, 
            -0.38912318054218065, 
            -0.5552514768118803, 
            0.6604172679916879, 
            1.2992460924882037, 
            -1.5341794493154808, 
            1.1214494377058544, 
            1.0459359166521593, 
            -0.14949042103924826, 
            1.1542406384038064, 
            -1.2740319187122422, 
            0.30656569960335694, 
            -0.8156457892549885, 
            -0.30337145784889447, 
            -1.0179025823520498, 
            0.4431525533112745, 
            -2.317471046635993, 
            0.41696154961327625, 
            -1.9382107270024453, 
            1.1424180509637043, 
            -0.24869125540497766, 
            -0.948186649068938, 
            -1.842394442228596, 
            0.15572225000326342, 
            -1.3117937440588248, 
            0.17829153192827482, 
            0.5834113493567562, 
            -0.6645958044024287, 
            0.405285370911359, 
            1.0437128772285709, 
            -0.4996350415062802, 
            -1.4222274466718108, 
            0.15473143759504743, 
            -0.43402002162231756, 
            -0.9283747748170093, 
            1.5026724479937874, 
            -0.9527259471740441, 
            -1.4954479753429264, 
            -1.40184991451882, 
            -0.0331748988441975, 
            -0.05967835087042414, 
            1.6842231303313817, 
            0.012657881204821529, 
            0.8449889919300999, 
            0.03953621486958436, 
            -1.490407602050495, 
            -0.051081491705824864, 
            -0.5090718849721403, 
            -0.6993828365864246, 
            -0.9723864216885642, 
            -0.21606268400813491, 
            0.9899197446625767, 
            -0.10585135875038096, 
            -1.6007055668619907, 
            -0.5389355285162251, 
            -0.035932800227457845, 
            -0.3086279452471647, 
            2.684104034541743, 
            -0.8649324178261484, 
            0.7005102897106434, 
            0.8548127789871736, 
            -1.957236221394282, 
            -1.3087463175231098, 
            -0.8130986671049645, 
            0.2797460055968262, 
            0.2572798895100145, 
            -0.18235961387750751, 
            1.0847275774515115, 
            -0.39908255840346174, 
            0.6986498891834149, 
            0.18843712031153426, 
            -0.2551244270900045, 
            -1.71415789420248, 
            -0.5577676122804456, 
            -1.5475332793012841, 
            -0.4652173154556613, 
            2.152142157790654, 
            -0.10099847931165261, 
            -0.43374223145357643, 
            0.5900539118099342, 
            0.6909512254951221, 
            0.8095464195472206, 
            -1.0669371019719303, 
            1.3664524691665438, 
            -0.3088590464296083, 
            -1.2949225878814512, 
            -1.5056832185361455, 
            0.2653724503405183, 
            -0.5531362447757818, 
            -1.5274351965201993, 
            0.6527393146705787, 
            -0.6556740701241898, 
            -0.07437060381763307, 
            1.1329845110267907, 
            1.5825638989044797, 
            -1.3039551078364149, 
            -1.0599283135168358, 
            -0.8503044501937814, 
            -1.3619760414476214, 
            -0.7495644020365607, 
            -0.7532509975883068, 
            0.8394736326459742, 
            0.2892365730313664, 
            1.601522171778664, 
            -0.11708511284387754, 
            -1.2046282863693956, 
            -0.5663293352553096, 
            -0.6841348218145739, 
            0.7831084829942608, 
            -0.8996698434540843, 
            -0.2971213333299747, 
            -0.5801673690247809, 
            1.1583491070507155, 
            -1.6038928434742337, 
            -1.599758074554692, 
            -0.33694751059333516, 
            0.18458926746933124, 
            -0.33629528919478524, 
            -0.596466258017358, 
            -0.012329294623053547, 
            -1.1198445179240082, 
            -0.2233666520035156, 
            -0.5175936264612474, 
            -0.8330698758912065, 
            -0.8795206222306068, 
            -1.7579081122986107, 
            -1.1678255371167023, 
            -0.2073158467337694, 
            0.6686291747556744, 
            -0.037634607301760346, 
            -0.0015595904322171369, 
            -2.396007503698043, 
            0.3016745426885479, 
            -0.9400936905494685, 
            -0.7646338393203708, 
            -0.5275339884520972, 
            -0.8723748790060424, 
            0.46723810529150933, 
            -0.8198472272078139, 
            -0.9431651323328464, 
            -0.6369965852756581, 
            -0.4696604405112076, 
            -0.05756166170510799, 
            -0.9558692035467224, 
            -2.7194522754198145, 
            -0.27104198082296455, 
            1.0002619306269815, 
            0.6217848982433751, 
            0.9125426688839985, 
            0.8864776465153876, 
            -0.057444149203090523, 
            -0.07495063794713723, 
            0.6541845729395552, 
            0.06811276307298864, 
            0.16076896229908613, 
            0.09886707192895612, 
            -1.790798853747949, 
            1.7183261176810884, 
            -0.9151058484828088, 
            -0.49395464466910444, 
            -1.5930082707982969, 
            0.0300109200648921, 
            0.7889216625880017, 
            0.8279090468827964, 
            0.09729063380645586, 
            0.23301863207357942, 
            0.24973776537404396, 
            0.6329499039273675, 
            -0.48025397177982154, 
            -0.03312513481203435, 
            -0.2980025626795149, 
            0.7003998893817731, 
            1.0943926153478225, 
            0.9428034743390346, 
            0.9141931744454249, 
            1.00342041452507, 
            -1.1425643020652676, 
            -1.5958901473414653, 
            1.9658920861265279, 
            0.5290365065562637, 
            0.32319420358806494, 
            -0.16623447781681727, 
            0.07261393824509929, 
            0.10447006783036554, 
            0.2941664032554039, 
            -0.3122264487635237, 
            -0.20215596272765401, 
            0.8371683390630772, 
            -1.3999244459617304, 
            0.40622775292535834, 
            0.26566272799260654, 
            -1.2662852352102674, 
            0.5521943180696092, 
            -0.24165003074169256, 
            0.16531426792455325, 
            -0.07803730911471872, 
            -0.5651611582091118, 
            0.7449335091698048, 
            0.15733729475551858, 
            0.5868883660074439, 
            1.4143594490382498, 
            0.9118844313005122, 
            1.3540730381758062, 
            -1.3398130534254842, 
            0.4581914523781766, 
            0.4094357282657583, 
            -0.8043569496008023, 
            0.03402416261310577, 
            -1.8408593510059648, 
            -0.843322637364692, 
            3.3723247984463023, 
            -0.715598925403602, 
            -0.5125110515686665, 
            0.7812723100656255, 
            -0.16898371964136308, 
            0.4285527275834221, 
            0.21856727802376646, 
            0.8048856941727227, 
            0.4276966854744009, 
            0.655423966711158, 
            0.46744310172678766, 
            0.9881823157926103, 
            -0.5697103824809311, 
            -0.20857581604836462, 
            0.5428334582111548, 
            0.003739784738098465, 
            -1.7388266386684685, 
            -0.04517615110632797, 
            0.19946435743610677, 
            0.9288140849050378, 
            1.47492245475851, 
            -1.397648526299008, 
            -0.6081427277995847, 
            -0.6573645062282191, 
            -0.11479687528085984, 
            2.51038076263392, 
            -0.7988521329386918, 
            -0.08436429604271688, 
            -0.18142768197562184, 
            0.02051146797480031, 
            0.3844732670968333, 
            -1.2408403886358539, 
            -0.45646217680642953, 
            -0.7361942316128152, 
            0.48739541856262053, 
            0.006752434084211449, 
            -1.085502521938226
        ], 
        [
            -0.4565777875744697, 
            1.4867974764674374, 
            0.47566292153198075, 
            -0.06965800231011898, 
            -0.21735651429576097, 
            -0.7057903228945078, 
            -0.32553516532692306, 
            1.2505107284968426, 
            0.9554298071288607, 
            0.6532589689310566, 
            1.5975591746850615, 
            -0.7839657535918145, 
            0.26439278448804104, 
            0.9764458076902456, 
            0.569933331870924, 
            0.4618462391933242, 
            -0.5007028249131593, 
            0.4799242535223124, 
            0.44097887090988774, 
            0.22033727752753468, 
            -1.5167387168776962, 
            -0.3620330207573311, 
            0.4810365527625866, 
            1.1828026732706813, 
            0.2104209731838859, 
            0.8148793830170921, 
            0.5274096568431634, 
            -1.0825832094147718, 
            0.18820439164733635, 
            1.4053925498734396, 
            -0.9554175080246791, 
            -0.38645041571534344, 
            1.1033093337244755, 
            0.14662474854131147, 
            0.606123112362184, 
            -0.15376640137154846, 
            -1.0119803942524368, 
            -0.5408414694517155, 
            -0.3165526085615416, 
            0.9432836314445385, 
            -0.6314843763697636, 
            0.5125312401211045, 
            -1.2023353660702238, 
            0.9164078036670192, 
            0.2348044551758713, 
            -0.0069882018459180946, 
            -0.0126390094162859, 
            -0.12682630738665773, 
            -1.5552634051178555, 
            -1.9193975096728613, 
            0.6513840562691123, 
            0.04255894296041336, 
            0.13665792754962092, 
            -0.6688395468378673, 
            -0.1210869305161898, 
            -0.3734980747054683, 
            2.5805955953923947, 
            0.0445862803517003, 
            -0.8041205837160492, 
            0.15010842193129767, 
            0.9662062542865548, 
            -1.38520134176125, 
            0.33165875824124863, 
            -0.6257237252835202, 
            0.022197761391052787, 
            2.2730062003635427, 
            0.6097649359629775, 
            -1.4595747419086802, 
            1.0741197296451093, 
            1.185551671565132, 
            1.7607646614672552, 
            -1.2385136711418494, 
            0.6969581152815303, 
            1.9579243282391354, 
            -1.8221297327241044, 
            -0.3434309814699091, 
            0.8319476230009496, 
            0.6686545796795932, 
            1.3337830268684499, 
            -0.051774331290160486, 
            0.9608825384744293, 
            -0.35023388709251535, 
            -0.32006287230938824, 
            -0.6892691816287317, 
            0.9410804177614077, 
            0.6762745284739371, 
            0.5622737873237925, 
            0.0743636689946331, 
            -0.6250082402085424, 
            0.8058605322842113, 
            -2.1819414795846046, 
            -0.2918668990328061, 
            -0.11692982248850838, 
            -0.17871671827967714, 
            2.3078459846217694, 
            0.8873842471878255, 
            -1.0180015838659386, 
            1.6856205646949267, 
            -0.04067548206709628, 
            -0.8817921729074181, 
            1.2562704804408118, 
            0.7108207435229122, 
            1.131586748992249, 
            -0.7334994027612747, 
            -0.9591478768811517, 
            0.43192124059315906, 
            0.41372257530798767, 
            -0.3620782679040049, 
            -0.458995937033956, 
            -0.3307297784723715, 
            -0.047921139498716264, 
            1.0750284554754437, 
            -0.30893534899500824, 
            -0.05718964746116877, 
            0.1870527646883917, 
            0.09411031136224912, 
            -1.2826347456282305, 
            -1.3425192007893127, 
            -0.8115650171824041, 
            -1.1822616160242576, 
            -0.18182711732602957, 
            1.2581198116151078, 
            1.4041769390531866, 
            -0.0145764404201943, 
            1.7841622659220724, 
            0.8156837855540778, 
            -1.6542408076387864, 
            1.3961728176055428, 
            -1.1385533436998256, 
            -0.116845225205837, 
            -1.330066618859088, 
            -2.070500367155166, 
            -0.9756735317400691, 
            1.157102048245162, 
            0.6065777060869494, 
            1.979218330117696, 
            -0.037428291069199586, 
            -1.5809373411204821, 
            0.3856351510059301, 
            -0.8938837944445985, 
            -0.4221469576652021, 
            0.9288007090128799, 
            -0.948991145222084, 
            -1.4794633398299937, 
            0.6665610198849309, 
            0.734130509453372, 
            0.1739591937723931, 
            1.0624546486981048, 
            1.1193249683693591, 
            0.18246759066496474, 
            0.774711413710813, 
            0.9375158657361885, 
            1.0487962599046632, 
            0.12807469956187886, 
            0.24527869134514238, 
            0.92006716980775, 
            -0.8674111129355817, 
            1.2607514427311621, 
            1.0972577487691244, 
            0.42283176072763123, 
            -1.6481011958673, 
            0.6825613940610789, 
            1.6604376363420583, 
            2.925762440965495, 
            -1.0276042750354344, 
            0.8904971940797048, 
            -0.3806421483280827, 
            -0.6971754583471217, 
            -0.7092841572452057, 
            0.025246491954255636, 
            0.9076704639075758, 
            -1.276336118772463, 
            0.5984372722988981, 
            -0.3485288730587306, 
            0.13710568527780898, 
            -1.5264727958890012, 
            -0.6192433269000855, 
            2.291230623430875, 
            -0.5989849550634435, 
            -1.2503912440100315, 
            0.021438125871911427, 
            -0.24308061544420187, 
            -0.24208707103328042, 
            -1.6947660244907075, 
            -0.6651670617172951, 
            -1.846735642060332, 
            -0.7907644652935215, 
            -0.04955549699268571, 
            -0.5139281581667091, 
            0.40331277270951277, 
            0.04604314862934338, 
            -0.4726870843027681, 
            0.7199056447599961, 
            -0.6444057463454486, 
            0.06471927831382186, 
            -0.6101543156276448, 
            0.42797950060733464, 
            0.06154550195951662, 
            -1.2555263871086726, 
            -0.05180266002780035, 
            -0.003935490702212817, 
            0.5911550032566776, 
            0.47514865093638664, 
            1.3422344745710215, 
            -1.1161196074880584, 
            -0.11017641826819123, 
            0.1950249422941512, 
            -1.6025576458772677, 
            0.451443660983832, 
            -0.5962735309639556, 
            -0.09330725017320825, 
            -1.6963048519204693, 
            -0.024775519127746778, 
            0.03402398221246083, 
            2.4667238231335498, 
            -0.5478263326715674, 
            -0.8852195854177718, 
            0.647569142165473, 
            0.7628942315959656, 
            -0.49859169590115904, 
            -0.2596432553029041, 
            0.5855552816450711, 
            0.5550464964156567, 
            0.047598694957558446, 
            0.9700519658729785, 
            -0.6023229315019182, 
            0.9215001251199484, 
            -0.45216307681178786, 
            -0.20019477858059834, 
            -1.21843322342208, 
            -0.40293265693139285, 
            -0.3537410192559852, 
            -0.8275146505368485, 
            1.0724427588755883, 
            -1.6588283633728504, 
            0.6686212689185945, 
            -0.054347626043421714, 
            0.8747758279553695, 
            -0.15457873047098858, 
            -0.3167197904457206, 
            0.7732064920926548, 
            0.5101322170493581, 
            0.1813359214482504, 
            1.2716340932831875, 
            -0.5023286513287838, 
            1.8903352833410614, 
            0.5672123880853794, 
            1.1387534017290435, 
            1.1394497089611428, 
            0.5685281698998956, 
            1.9167017708460328, 
            0.7667609753863496, 
            -1.8744401141067615, 
            0.6520876883346901, 
            1.310940694359019, 
            0.8186590154148836
        ], 
        [
            0.5690225208123098, 
            -1.7926098820145424, 
            -1.202329537071878, 
            -1.663726026399099, 
            1.529231803997504, 
            -0.060286885684853526, 
            -1.384183723416033, 
            -0.5859204044246775, 
            -1.4456606843730688, 
            -0.07121704075610143, 
            -0.5484942102832449, 
            -0.07572076745238872, 
            0.5660546676753402, 
            -1.3044315489322011, 
            -0.15491340856449315, 
            -0.498281320145521, 
            1.320986522256355, 
            0.5227986861353839, 
            -1.3663040084428053, 
            0.02776483636189512, 
            -1.0064216653356364, 
            -0.7291507509039915, 
            -0.14868325648350028, 
            0.0033342260620375774, 
            -0.8219895987591089, 
            0.21814656432333335, 
            -0.7700799205341292, 
            -0.8404374371839205, 
            0.06091263308203922, 
            1.1062180879322918, 
            0.9755604537113648, 
            -2.284804421760182, 
            0.7920756309639471, 
            -0.36765321634718146, 
            -1.0020966978061354, 
            -0.1866433649213671, 
            -1.253357859166526, 
            -0.7828727043024277, 
            -0.4047084746798429, 
            1.604841707007345, 
            2.95759715424545, 
            0.7394644365617683, 
            -0.18022455969557685, 
            -0.43667103394993206, 
            -0.4462727781858019, 
            -0.7274850016663881, 
            0.5474017362184543, 
            0.04320446842093239, 
            0.017478250672138693, 
            1.309856492647483, 
            -0.3440906120371331, 
            -0.13474419607962335, 
            1.292598006440137, 
            -0.8335575973949908, 
            0.2671847640240496, 
            -1.174410841533243, 
            0.5075853702705149, 
            -1.0475482138894847, 
            -0.9431630929306304, 
            0.3078686060534368, 
            1.5699146336355552, 
            0.4790593825848631, 
            1.3386134005957755, 
            -0.7216961160986157, 
            1.1512570038663612, 
            1.2314221959755423, 
            1.8344900489672844, 
            -0.335360174059866, 
            0.38173063458982714, 
            0.7498141742172915, 
            0.053441636835657724, 
            -0.03275755751421093, 
            0.48959896842365724, 
            1.2552826226925677, 
            0.3965644524858491, 
            -1.5663985342112068, 
            -1.7044443540500096, 
            0.1587788503037887, 
            -0.12051289950991213, 
            -3.3142426963807274, 
            1.2433053869939326, 
            -0.25260139940426907, 
            -0.81691132643785, 
            0.08708615913941331, 
            -0.787967138274047, 
            -1.1437436038029374, 
            0.6687158465290197, 
            -0.855516069628748, 
            0.48589044048849744, 
            2.1701580590246117, 
            0.8422182255888467, 
            0.15985891383106654, 
            -1.8315675117659103, 
            -0.587960415185454, 
            -1.6227870753612839, 
            0.4276789724794989, 
            1.5490581433227184, 
            -0.3460187947262833, 
            -0.4536492362397145, 
            0.2819836341422721, 
            -0.4189939701240378, 
            1.2945782176046594, 
            0.25652194795242295, 
            0.4643991002752177, 
            0.7575297241726627, 
            0.8374995348739624, 
            -0.4671271576865256, 
            -0.7124129809969193, 
            1.2936314428979623, 
            -0.8798817787673142, 
            -0.11117838887838527, 
            1.215171315720577, 
            2.08218516174951, 
            0.7309367437780817, 
            3.4211457698357393, 
            -0.22560606648413323, 
            0.07825532578180655, 
            1.1815213777613836, 
            0.6577609657191417, 
            -0.21643033322670296, 
            0.1008433125007047, 
            1.386298790865298, 
            0.8873446079985633, 
            -0.9122882237284792, 
            -0.08343191825790035, 
            -1.9147161186467008, 
            -0.458752628155892, 
            -0.7588743965900822, 
            1.4421716078921907, 
            0.2137821179415141, 
            0.6961835784844524, 
            1.3046102382932063, 
            -0.1656839221365845, 
            1.3509785311839357, 
            0.21521707968228734, 
            -0.10787468051785035, 
            0.6074684506356804, 
            1.5033786504154114, 
            1.104001542522416, 
            0.44037311867743845, 
            -0.043059592051639, 
            1.6642362351995863, 
            0.9524835508379563, 
            -0.9099065454300465, 
            0.7742564993195544, 
            2.3719264548767147, 
            -0.2126370555432779, 
            1.9828082010349442, 
            -0.3382660362695278, 
            0.5691573803218744, 
            0.29704968800743187, 
            0.1380534706176015, 
            -1.4132649066279515, 
            -0.7236565758345134, 
            0.7230406532685121, 
            -0.6848910475843194, 
            -0.38916393794049503, 
            -1.6702168320356674, 
            -0.9339345445361419, 
            -0.38325887847260526, 
            1.4087209355868424, 
            1.282102903240319, 
            1.0488291766587874, 
            0.5992517826960148, 
            0.2174091392716418, 
            0.5231294098837395, 
            -0.9296059066959141, 
            0.49020251758329975, 
            -1.079011674515818, 
            -0.5976346031311909, 
            1.189004332062107, 
            -0.21285242783229824, 
            0.17631466347764135, 
            -0.49834543714711965, 
            -2.341940948317495, 
            0.7986349741694674, 
            -1.92323602989969, 
            0.6929136434580392, 
            -0.08021098893172598, 
            -1.0443884631601732, 
            -1.1004695875048682, 
            -1.3091587162273781, 
            0.03403414367953977, 
            -0.35025246177221425, 
            0.36792393376532234, 
            -0.163148489838916, 
            0.8808179064054679, 
            -1.5270834710924663, 
            -0.6272217605870805, 
            0.7574698530661389, 
            0.2851392035350948, 
            0.6648842345943444, 
            -0.77212411354087, 
            -0.42399668871017293, 
            -0.46248281779179296, 
            0.6081888757977695, 
            -1.6708101839358525, 
            0.24738295919759762, 
            0.46282617938992965, 
            0.7761651669961258, 
            -0.10924329569693543, 
            -0.6416406232802002, 
            0.40405697814193775, 
            -2.1534609617368017, 
            -0.30184090139163555, 
            -1.0139762304292497, 
            1.1457554581686844, 
            -0.3393413089093172, 
            -0.4543529169131179, 
            1.128929204631147, 
            -0.006066044694329065, 
            -0.29356279373639277, 
            1.4456311396843522, 
            -0.8721046529312474, 
            -0.023624501390137824, 
            -0.7430859539815218, 
            -1.2490073734055704, 
            -0.037438102373912936, 
            1.6509219508634172, 
            0.1124054612469886, 
            0.8236292451936573, 
            -1.066967484311354, 
            -0.8994231740114327, 
            1.7066724861022702, 
            -1.048931283152321, 
            0.07854452922969882, 
            0.8743362546016981, 
            0.6791197793195113, 
            0.19886674988516756, 
            0.47746319609500776, 
            -1.4268197764154986, 
            2.2352286143834412, 
            0.1888535397381423, 
            0.5964817751240808, 
            1.6073819863156178, 
            -1.0783871961163607, 
            -0.648467401076038, 
            -0.8199236586961469, 
            0.9160738517869397, 
            0.7154272232659178, 
            0.29085608413383, 
            -0.5693191984443048, 
            0.05586048664359602, 
            0.13220038847705323, 
            -0.9362784461589214, 
            2.2070375875639328, 
            -0.14750882797566037, 
            -1.4305725838991028, 
            -1.4867898039603717, 
            -0.41890648398946073, 
            -0.11636307190455147, 
            0.756390275636518, 
            -0.5078111417076995, 
            0.7935021302292962, 
            0.16829743545396408, 
            1.2254632700740817
        ], 
        [
            -0.6160156286503783, 
            -0.870646182261839, 
            -1.3421263437642583, 
            -1.5689279861482026, 
            -0.9037429181186926, 
            0.025501170823363138, 
            -0.7415990140939437, 
            -1.0444451274595512, 
            0.06294243183286799, 
            0.8881881190649994, 
            -0.9426816176353368, 
            1.29837015507481, 
            0.2685752380068638, 
            0.39095697732281803, 
            -1.2061597513990612, 
            1.478128094772639, 
            -0.7196550217381706, 
            -2.1829208933793685, 
            0.5922890198676928, 
            -0.9017087744388459, 
            0.4725067115676382, 
            -1.5221706904228818, 
            0.6917156897919149, 
            1.185772763493579, 
            -0.7297236667095048, 
            -0.48998904228559276, 
            -0.11978882612649482, 
            0.8956746464099555, 
            0.3997125462799911, 
            -0.8448381326035904, 
            -0.8030295945182656, 
            -0.7830597949566992, 
            -1.9169059711941785, 
            -0.34577598293654205, 
            -1.8893747482339411, 
            -0.0747867121011315, 
            -1.0506149637461604, 
            0.5048802898472183, 
            1.6085890207278732, 
            1.5223253269622727, 
            1.8957438788812793, 
            0.2074127480504448, 
            -1.2131011115708916, 
            0.7293474564305149, 
            0.3222585998565003, 
            -2.052148390066385, 
            -0.5242816104203165, 
            1.2583927477179586, 
            -0.3839039465923562, 
            0.6039698663185314, 
            -1.1146009827613017, 
            -1.048270747706597, 
            0.3670185082330869, 
            -0.429241025463, 
            0.2419153386400084, 
            -0.0035799708003403014, 
            -0.5804753664837183, 
            0.9391723760252796, 
            -0.42377183726684314, 
            0.31341392977623417, 
            -0.825005524244186, 
            0.6044850135073517, 
            -0.2277564705558935, 
            -1.5281548972091321, 
            -0.8849583237422094, 
            -0.856348335175557, 
            -0.19016233333596597, 
            -0.3785316888300878, 
            0.6680361461965392, 
            -2.3596203831518268, 
            -0.5751548991024819, 
            0.8341667316620459, 
            -0.8006380797798628, 
            -1.0503735463284478, 
            -1.049365876569247, 
            0.3781738926567009, 
            1.0747806503513293, 
            0.41774680998685104, 
            0.3914987105797366, 
            -1.1907833187734918, 
            -0.8874013661874693, 
            -0.015643119423050557, 
            -0.39084779339568776, 
            0.7642467562260549, 
            -2.374611352449666, 
            -0.45182819215857495, 
            -0.9053706409437918, 
            -1.583289399618068, 
            -0.29005676588946516, 
            1.4539276423747869, 
            -0.5714546620531177, 
            1.7367723544967912, 
            -0.2008574437879611, 
            0.06573827779959071, 
            -0.8484942040099616, 
            0.37045564065085074, 
            0.826778166217228, 
            0.5018550131192315, 
            0.17255050355540225, 
            0.4591075367081185, 
            0.5356360195910499, 
            0.5951977136137322, 
            0.1850542248927045, 
            -0.7212557535259444, 
            -1.6506587481025754, 
            1.2752039155169634, 
            -0.3618620068763624, 
            1.7936064230952984, 
            1.7631010003061887, 
            0.3429169190225916, 
            0.871863874675833, 
            -1.3313963977526175, 
            0.3891352044374345, 
            0.3275209145017797, 
            -1.8201759617206759, 
            -0.22077819272775545, 
            -0.271828081197629, 
            0.5440285580337363, 
            -2.129468254818139, 
            -0.6546733472336832, 
            0.22444626177867552, 
            -0.25481074864050174, 
            -0.47889872053162286, 
            0.5264009563020856, 
            -0.9717635458172217, 
            0.22207311908957053, 
            0.28130107364482887, 
            -2.4409433021163345, 
            -0.24969673542227094, 
            -0.9044145339062265, 
            0.547008044778072, 
            -1.5888431082159016, 
            -0.17177266968934596, 
            -0.106783423545808, 
            -0.19289448317879973, 
            -1.5097861441595215, 
            0.63776389850414, 
            -0.5103034737648925, 
            0.4865978555208675, 
            -0.8937910537551521, 
            1.8447506898223718, 
            0.5878623353641602, 
            0.9872953843169499, 
            0.03995422573703655, 
            0.597480026915989, 
            -0.4279936039183261, 
            0.17475028414268542, 
            1.7806291124914537, 
            -0.8460067133596791, 
            -0.5270783495709066, 
            1.4033519928658864, 
            -1.702406049352493, 
            0.6740146104210895, 
            -0.8814962722464941, 
            -1.3019800409602575, 
            2.0688124756152613, 
            -0.6353266788739604, 
            -2.2848084497374863, 
            1.4466483713688618, 
            0.679006345451109, 
            -0.34439142901785963, 
            -0.3280842810483462, 
            -0.27772472168650153, 
            -0.7270626524185373, 
            0.3104037058431572, 
            0.21416513351807703, 
            -0.558859649625262, 
            -1.6282309080828015, 
            0.49633957875885865, 
            0.771364997034504, 
            -0.12660161150948973, 
            0.8484096037981015, 
            -0.022919732133270653, 
            -0.06699688751348704, 
            -0.06919208870319028, 
            0.6651423213149408, 
            -0.8700593728327143, 
            -0.3861171464405688, 
            0.4683720690413472, 
            0.4165537237688238, 
            -0.15747558033234998, 
            0.8867125108314992, 
            0.5657104162501296, 
            -0.3867775287991384, 
            0.19152928945745717, 
            0.5654315552138024, 
            -1.1237576443186128, 
            0.19586059734102765, 
            0.2701722892648823, 
            -0.11827451841886215, 
            -0.4878676677348669, 
            -0.3862648686399277, 
            -1.3115410393590767, 
            -2.369363177473205, 
            -0.06278997361699828, 
            1.534513332893412, 
            -1.9558431580131554, 
            -1.5283135249761672, 
            0.43608992777985417, 
            0.7410498239820432, 
            -1.5462570729406955, 
            -0.393206534536895, 
            0.27375213058397546, 
            0.3901444396857549, 
            -0.24158488306273598, 
            -1.0216745886037186, 
            -0.6890091184771928, 
            1.2707122668303013, 
            0.5987569535327644, 
            -0.304063652546413, 
            -0.40463912210124703, 
            0.46531986091777305, 
            0.8526891864805931, 
            -1.4191978004414416, 
            -0.12670921538196528, 
            -0.04295730403127673, 
            1.294581830956827, 
            2.346915275283801, 
            0.6060658653473687, 
            -0.1973618900514488, 
            0.6365210656414851, 
            0.6208366653464586, 
            -0.20872896758511938, 
            -1.6304536818810018, 
            0.17424966624169222, 
            0.7530590507339655, 
            0.5638162493498327, 
            -0.957193830551409, 
            -0.22306245824658025, 
            -1.2651472826689452, 
            -1.0043700766301, 
            -0.4353872945563618, 
            0.17384947673800188, 
            0.38813718204272013, 
            -0.03294021208120679, 
            -0.3151767055511532, 
            0.14620095988424248, 
            -1.2623745373741166, 
            -0.6229449487570823, 
            1.9812126850830125, 
            1.2157907919676285, 
            -0.7589539002118182, 
            0.5442560380093866, 
            -2.624659508686394, 
            -0.4631579632009855, 
            0.9694664112760628, 
            -2.3647209264842095, 
            -1.0453214104320658, 
            -1.0403521723923674, 
            -1.3092602757242557, 
            0.18266704451582066, 
            -0.844312860315815, 
            -0.9877648505692691, 
            -1.218143644235761, 
            0.39755307592352146, 
            -0.48155346842830316
        ], 
        [
            -1.412054908505773, 
            -1.0652715014653706, 
            0.04032466203534001, 
            1.9444985357129552, 
            1.7750057809495299, 
            -0.014733904505448696, 
            0.5807421359864798, 
            -0.03006061354274189, 
            1.7700469744416898, 
            0.47923422513188624, 
            2.055421615652884, 
            0.23038059620199228, 
            0.24665702660909766, 
            1.2927689318486948, 
            -0.6427467828435639, 
            0.09272923815138953, 
            0.030413849051558188, 
            1.7059441806756843, 
            -1.1640182384922293, 
            0.8070664428545256, 
            2.4041526583099495, 
            0.36562765929797175, 
            2.1218981980936067, 
            0.3949709809874414, 
            -1.0670096728310068, 
            -0.16344901155311592, 
            -0.47012699706706357, 
            0.8175649104526915, 
            -0.9428718612890146, 
            -0.036109805908540966, 
            1.6735712218458212, 
            1.0491493828019518, 
            0.8964507632852609, 
            -0.2255174649330746, 
            0.41422675333143666, 
            1.8329009357603991, 
            -0.668856667597921, 
            0.4261310248252042, 
            0.7189563143468336, 
            0.7837540216814756, 
            1.7579504660276712, 
            0.6046460702618981, 
            -0.3863041677704135, 
            0.9624774364924783, 
            -1.1750283391891716, 
            0.5095067256071721, 
            0.9067388258556437, 
            -0.7524213520497889, 
            0.2869526289419239, 
            0.47455804462505985, 
            0.4649803383471725, 
            -0.2470976436311578, 
            -0.5808563116582213, 
            -2.0299871883802965, 
            -0.1664523433474299, 
            0.27688957691004745, 
            0.6916211329701524, 
            0.26335219596118975, 
            0.10189919174165966, 
            0.5421158447951191, 
            -0.609681801212951, 
            0.027517407762667666, 
            -0.48810618102889086, 
            -0.9542328519143999, 
            -0.6527008481368596, 
            1.0414703546677133, 
            0.05121233311908827, 
            0.058921036444281066, 
            2.656216109982016, 
            3.3831541838674544, 
            -0.6630226690698832, 
            -0.9629561766939181, 
            -0.08359724374517986, 
            0.17016304766955145, 
            -1.8044724778627266, 
            0.07961849248458917, 
            0.20559401054287363, 
            0.8519287960266461, 
            -0.15339989447178715, 
            0.986426562231553, 
            1.0341262672133247, 
            -1.339753000432084, 
            -0.7247595894807667, 
            -0.37068846610116146, 
            -1.5915388038769265, 
            1.075309454389901, 
            -0.33237011280609424, 
            0.08300978384367287, 
            -0.23887738584446663, 
            0.03703476459461086, 
            -1.040845049591898, 
            0.21728376850392359, 
            0.4514576721671668, 
            0.7290840256393083, 
            0.6209853494265073, 
            0.502433570163606, 
            -1.1477580358495, 
            -0.127290169342625, 
            0.21672446698767595, 
            -0.798249532437393, 
            -0.784654041105692, 
            1.5090097301440528, 
            -1.040014901050859, 
            -0.6868861593414488, 
            1.0967938390706404, 
            -2.4412014992495576, 
            1.1148116921851816, 
            0.10231531597797365, 
            -0.3911331001778063, 
            -0.6896126397896742, 
            -0.014492811509290913, 
            -2.536326538757748, 
            -0.9545198052169847, 
            -0.09387893234206474, 
            2.2674018345808746, 
            -1.4269299610421307, 
            0.4025558697854487, 
            1.3579352406209166, 
            -0.0791082267405268, 
            -0.39140322579480663, 
            2.039668214799576, 
            -0.03992289562495599, 
            0.8400691489451706, 
            -0.582390380201859, 
            0.9096240809286521, 
            -0.1182466232228486, 
            -0.16758480967485093, 
            1.4999227348665702, 
            1.8502760960955293, 
            1.0725423337170763, 
            1.1070660429610333, 
            0.34682244911298277, 
            -0.057101732916923956, 
            -0.4923203517805112, 
            -1.1980363373669531, 
            -0.41698077384416393, 
            1.2293740922602718, 
            -2.0237860095720244, 
            -1.9087895844055183, 
            -1.6149480260973188, 
            -0.20299120744034482, 
            0.2722367413988989, 
            0.8063694729945937, 
            -0.8998832398930375, 
            -1.2401113215512822, 
            -0.22783301958979876, 
            1.1552261362919203, 
            0.7222198703487753, 
            -1.5253701844003147, 
            -1.452996069859706, 
            -1.3551911752343322, 
            0.2542844234059613, 
            -1.0858186304102981, 
            -0.3865247415427469, 
            -0.5508938536165464, 
            -0.4704271456010074, 
            -1.3884282789501279, 
            0.9316574572676927, 
            -0.8108747700320793, 
            0.9555486637647301, 
            0.7142930234715016, 
            0.4106577647635982, 
            0.022082628442999484, 
            0.42278703631304476, 
            -2.2604056992439405, 
            -0.18189966147086767, 
            -0.38709395458633006, 
            -0.9942813856895428, 
            -0.5129946529444943, 
            -1.0732393563460538, 
            -0.693794754678607, 
            -0.339290832594991, 
            0.19639085455880337, 
            1.109018010693581, 
            0.9795521873984514, 
            -0.01730925781738903, 
            -1.2307337190435967, 
            -0.5842853515556449, 
            -1.127917270901619, 
            -0.2518552025325675, 
            0.19735346458021474, 
            -0.3465086459648613, 
            1.2359795049520346, 
            -0.9644807658710646, 
            -1.888818993550122, 
            -0.6111934698015135, 
            0.818156898532542, 
            -0.7963176013503125, 
            1.3976993165964735, 
            -1.1058535187840401, 
            -0.5370444136090805, 
            0.6318468868997836, 
            -0.6020036285871667, 
            0.5564499368565874, 
            -0.8174669067035937, 
            0.8545182645080358, 
            -0.6964024397585653, 
            -1.9050234897269929, 
            -0.4799948972908992, 
            1.1083636221915618, 
            0.061977546955504656, 
            -1.0989069873584136, 
            -1.1328754832230523, 
            0.20080655944488504, 
            1.5379694060736018, 
            0.8293787724336307, 
            0.6230288874195357, 
            -1.443329824500259, 
            0.6412414212307921, 
            0.20443158499912575, 
            0.9501499678861226, 
            -0.8121448325829094, 
            0.7812677175684299, 
            -0.4037925613249855, 
            -1.079923388266645, 
            0.12639373893641506, 
            0.1950545292914508, 
            0.9156083502144254, 
            -0.4269978157335614, 
            -0.7148338828077433, 
            -0.48810535753573553, 
            -2.6273508227410782, 
            -0.37953374419734376, 
            0.8365965153899197, 
            0.5079215297327012, 
            -0.2172015824864563, 
            0.27952557641148223, 
            -0.06358380273824077, 
            2.045920612473976, 
            -1.3663928022277416, 
            -0.08137438278464075, 
            1.3008262257005083, 
            -1.7171367531631594, 
            0.6249869852812056, 
            2.2422083457648645, 
            -1.2368744081453849, 
            -1.0484066137990065, 
            0.5630008072026902, 
            0.276666587754317, 
            -0.7471043845601125, 
            1.3123719259988724, 
            1.1662469252960872, 
            -0.11427623048543427, 
            0.9632453035598062, 
            -0.06291911484904865, 
            1.5434475724079104, 
            0.7025494377022359, 
            -0.5257029025953499, 
            -1.0885641075954926, 
            0.6313841161390003, 
            -1.6909155803189995, 
            -1.1999105405327386, 
            0.3217615953393189, 
            -1.2225481921394659, 
            -0.1168870737661242, 
            -0.9386867006508185
        ], 
        [
            0.25326642495188595, 
            -0.5184898142932165, 
            -0.28327159077814784, 
            -0.2348906985125986, 
            -0.876199768595686, 
            -0.7433533324716627, 
            -0.29475674814606667, 
            -0.617663868174159, 
            0.8861415413728007, 
            1.137567441510839, 
            -0.05721987231343853, 
            0.2833577886542795, 
            0.11835967830020058, 
            2.5338788416151043, 
            0.751135715399785, 
            0.24787483823075981, 
            -0.08491000316021602, 
            0.7853219354020569, 
            0.6748613294116587, 
            0.3313226369959078, 
            0.8705636006553028, 
            1.7492903942739784, 
            1.072742504540188, 
            0.3376170831398561, 
            0.42142217226616946, 
            0.45792721370219525, 
            -0.04377628977198602, 
            0.3605826143953629, 
            0.8586645860403965, 
            -0.5944025480951598, 
            0.03624974533406097, 
            -0.8773627190348341, 
            -0.07146497694765919, 
            1.8863404907939103, 
            -0.8388897421782245, 
            1.4162020326226379, 
            -0.5923731944447331, 
            0.4275582012514174, 
            -0.04059172266986961, 
            -0.25261774688904304, 
            0.31173870235699064, 
            -1.2953874481719219, 
            0.7607599826857403, 
            -1.8514155004278139, 
            0.8572935472935101, 
            -1.2605277067123615, 
            3.045865341952594, 
            -1.0509235435678195, 
            0.4316403276329759, 
            -1.3533610557168934, 
            0.7900142995427484, 
            0.34190335943124917, 
            0.15692774814762972, 
            -0.4960672061295014, 
            0.32177261251805533, 
            0.5222922336260396, 
            0.623568979689755, 
            -1.4002359904843276, 
            0.8850309465329046, 
            1.099848523051452, 
            0.21900165850301692, 
            -0.1964792526878164, 
            -0.17509855607794195, 
            -0.4302055754020448, 
            -1.3409967674222139, 
            -1.7136380531962896, 
            -0.5223131456129207, 
            -1.9932302783706892, 
            1.0273280167597914, 
            0.5226573274754495, 
            -0.5025457726147614, 
            -0.5773712315905095, 
            -1.2784265549793659, 
            -1.2219947187350444, 
            0.44467838522688713, 
            -1.4808425928755522, 
            -1.8904315570721875, 
            -1.237628171832327, 
            -0.502549517600734, 
            -1.3982486631846314, 
            1.3312527532648797, 
            1.9970392186054815, 
            -0.4242874242752206, 
            0.45159111261442597, 
            0.2530391145347951, 
            -0.07534621415389453, 
            0.2535884522089261, 
            -0.48161950389327135, 
            0.06449772132011365, 
            -0.7533614933822492, 
            -0.28400425508089483, 
            0.531213422988653, 
            -1.3487436716696246, 
            0.7900867951438546, 
            0.6921543266479762, 
            0.015632516807113885, 
            -0.19523523259534922, 
            0.8986970976149047, 
            1.0766060121818362, 
            1.644875567257615, 
            1.4607690727311837, 
            -0.49132874730887516, 
            0.19072359141463238, 
            1.0131011094527402, 
            0.8761702041839915, 
            0.25027457911395773, 
            0.43309992497605837, 
            -1.9525966218880542, 
            -1.003021482801742, 
            0.5864402744867465, 
            2.633213984201397, 
            1.268086148550757, 
            0.2775825279801907, 
            -0.6347722228017061, 
            -0.6881909817649247, 
            0.43280397313520824, 
            0.92638320509602, 
            -0.4540520644592969, 
            0.689059072154508, 
            -1.4354281193054534, 
            -0.9298815301450122, 
            -1.893182819775936, 
            -1.707558776989412, 
            1.257241952446274, 
            0.6398319033183016, 
            1.929915501532314, 
            1.2580425141703986, 
            2.0852893663018035, 
            -1.2940562938737414, 
            0.5608203773671253, 
            1.4024075873679482, 
            -0.6401157349819946, 
            -0.2471685234914813, 
            1.835199880687296, 
            -0.8171853624026706, 
            -1.53721725919669, 
            -2.880538736065919, 
            -0.5249114650094489, 
            1.7139694982744746, 
            -2.0854582294896633, 
            0.4843748293822139, 
            0.4636790123286188, 
            1.4722895887726135, 
            2.24649050264288, 
            -0.17206807686147682, 
            -0.45364005227199056, 
            -1.257697702902366, 
            -0.28933961693279253, 
            -1.5508525973265623, 
            0.8928351849442379, 
            -1.187838819280509, 
            -1.500991318785537, 
            1.193631948927906, 
            0.44666448396068786, 
            0.34607670513818684, 
            -0.649006057382461, 
            0.192766962907445, 
            -0.7981535277453569, 
            -1.1208838729740325, 
            -0.4434397521534988, 
            -0.10182169685838355, 
            0.41776144733546433, 
            -1.1981667196759784, 
            -0.14770050863725906, 
            -0.3835561682074664, 
            -1.1192905029291893, 
            -0.2873191039851751, 
            0.5806097680603799, 
            0.7209842118171085, 
            -0.44921347854536203, 
            -0.5875847283992778, 
            1.505882647956952, 
            -0.20670526420982718, 
            -0.5843902287451096, 
            -0.4771924772693407, 
            -1.010921502459341, 
            -0.6932659811356162, 
            0.5083185749352241, 
            -1.6011033061692201, 
            -0.5778974083829027, 
            1.464698417810996, 
            -0.37840346841275785, 
            -0.6050301326812159, 
            -1.512633323236538, 
            1.4177028458267091, 
            -0.5072930657803301, 
            0.026024127042339803, 
            -0.23007771902859567, 
            -0.47864417916262997, 
            -0.2535425853603374, 
            -0.6235478138709182, 
            0.20966995837814084, 
            0.025291629653207477, 
            0.611104026155189, 
            0.321131525087869, 
            -0.17383835494542546, 
            0.25034140527405385, 
            0.40864226124273395, 
            1.2682851623505855, 
            -1.367130612573578, 
            -0.8910207139585414, 
            0.5346484823077617, 
            0.350346623323119, 
            0.139917040084574, 
            0.6203685902046222, 
            0.9508188442778169, 
            -0.9767453120550852, 
            -1.830984721929045, 
            -1.6205153117700541, 
            1.869695037887358, 
            -2.1585238335868664, 
            -0.44290259525080355, 
            0.06712995671861827, 
            1.6743434919137723, 
            0.3909454250915908, 
            1.6591063629826648, 
            -0.11505005106854507, 
            -1.1625631853368206, 
            -0.8709967664840257, 
            0.656467706011397, 
            0.674931578896539, 
            -1.2677962223621715, 
            -1.3165105094607215, 
            -1.3475779992937524, 
            0.6636960582726811, 
            1.0178036268943895, 
            0.4025502488963259, 
            1.167635608351076, 
            0.13357192955818095, 
            -0.7518340263512556, 
            2.115930230833327, 
            1.4276387909686215, 
            -0.9830301302206522, 
            0.8418324846627215, 
            -1.1049294879555718, 
            1.217728469295478, 
            -1.3674885932295273, 
            0.1392168124082611, 
            0.6112487372855683, 
            0.2180568816811837, 
            -1.0447903065792192, 
            2.32869159884737, 
            0.31403795533984635, 
            0.8674341627233605, 
            0.9223595175870303, 
            -0.19081830699712424, 
            1.8953857715844922, 
            -1.2156139746905221, 
            -0.844760613307852, 
            0.4492411556664539, 
            -0.8035570124403164, 
            0.3862983110315818, 
            0.03892795996773558, 
            -0.529805349484835, 
            -0.23473056584182955, 
            -0.049427131425401075
        ], 
        [
            1.603327982015476, 
            0.6434002590401043, 
            -0.7590985407518026, 
            1.4905898808088378, 
            -0.46000269772240177, 
            -1.0046495967946054, 
            -1.4019957243785788, 
            0.0035366644804125905, 
            -1.2898137463630928, 
            1.5871880946503003, 
            -1.587408360240108, 
            0.34429726561345325, 
            -0.1429710516157414, 
            0.8836779542019682, 
            0.24660271820220958, 
            0.4657842336204857, 
            0.577228779499149, 
            -0.5834713743407248, 
            2.3858615463950446, 
            0.6396232294513711, 
            0.7837670998960047, 
            0.5435256019666485, 
            0.08104636787190637, 
            -1.8216376879634621, 
            -0.6102763382015453, 
            -0.06804718442648994, 
            1.009852268195905, 
            0.6603555891502505, 
            -0.5707617521354885, 
            -0.45219766444182175, 
            0.7117160834272045, 
            0.09134218584770373, 
            1.7121839383324697, 
            0.9254849568216664, 
            1.89055390784156, 
            0.9965111720194094, 
            0.7917447624413748, 
            -1.3584569202853378, 
            0.06541917970507875, 
            0.7889724493366007, 
            0.009340068859617487, 
            -0.4698386742391687, 
            -1.1295942968747212, 
            -0.8408109279460206, 
            0.9879202122269083, 
            0.25142532455287664, 
            0.8967866319239409, 
            0.8215156775217234, 
            0.5933282380370045, 
            -1.1272816801764824, 
            0.4684089465922617, 
            0.7283190526778869, 
            1.3055770912408506, 
            0.4469414362025298, 
            0.47724935933331614, 
            -0.081562407327663, 
            0.7674206748522489, 
            0.12039702526391276, 
            0.8281179823040021, 
            0.375320230517145, 
            -1.015324601146749, 
            -3.2433503992472326, 
            0.8040123792458648, 
            -0.12325216143556757, 
            0.570701995984175, 
            0.24337792939547312, 
            -0.770543387148329, 
            1.1753250536495092, 
            -0.11957131856553015, 
            -1.2263739701355654, 
            0.09718685172229628, 
            -0.5041727164418122, 
            -0.1229147629544073, 
            -1.8456450210833155, 
            -1.5434331289551606, 
            0.19979893278156136, 
            0.13264801650567315, 
            -1.399356676529497, 
            0.25523197745821063, 
            0.11357868784730861, 
            -1.3878035217254727, 
            1.139183563764391, 
            0.717684592356007, 
            -1.4382910710825414, 
            0.40074951061498837, 
            0.5941653305096459, 
            -0.13659477957393676, 
            1.6140461046493773, 
            -1.0550421932000826, 
            0.6600902712756577, 
            1.442391213642685, 
            -1.3494063019729632, 
            -0.10477632656922493, 
            -0.1338861786837727, 
            2.1385647871288476, 
            1.4538638388573668, 
            1.727416338680702, 
            0.8294088205775577, 
            -0.8205348195410505, 
            -0.6230593224624331, 
            0.3917440293220218, 
            1.7327727851549146, 
            -0.41521855258465573, 
            1.2679837073884956, 
            -0.4703591002123748, 
            0.3573305813109043, 
            -0.20495429848900207, 
            -0.35194703181719766, 
            -0.34829186714190313, 
            0.5775479598240075, 
            -1.1331251595574774, 
            0.04098175647050674, 
            0.8306160450868221, 
            -1.3286229971285155, 
            1.6817434367665254, 
            1.042879347204794, 
            1.2092159490674588, 
