{
    "layer_1_bias": [
        [
            1.0290878556629153
        ], 
        [
            2.369742405811754
        ], 
        [
            -0.16251734114796992
        ], 
        [
            0.2567027173697164
        ], 
        [
            0.06965296008099331
        ], 
        [
            -0.25231181058291746
        ], 
        [
            -0.4137001819143828
        ], 
        [
            0.9750680799091087
        ], 
        [
            0.2510368717890717
        ], 
        [
            0.05000786902684833
        ], 
        [
            1.0406125260287113
        ], 
        [
            1.5603884637796277
        ], 
        [
            -0.03807139476652197
        ], 
        [
            1.741686158543718
        ], 
        [
            -1.1364423000393458
        ], 
        [
            -0.46818845038412965
        ], 
        [
            1.6240079391789088
        ], 
        [
            -0.48374348449148774
        ], 
        [
            -0.35838099845321875
        ], 
        [
            -0.028200178448993515
        ]
    ], 
    "layer_1_weight": [
        [
            0.651535357567869, 
            0.824421248714888, 
            0.7948053895130862, 
            -0.03173302781218932, 
            -1.490833008421001, 
            1.8163486644038864, 
            0.7499999615617035, 
            -0.09916623222396953, 
            0.2482980940262401, 
            -1.2784371686390967, 
            1.0001479182213746, 
            -1.0209500613026414, 
            0.5355527833016391, 
            0.0731805215012966, 
            -0.40054635000027217, 
            -0.3164588549646586, 
            1.5412119375035893, 
            0.2919389507141349, 
            -0.8410992611863319, 
            -0.20114003263818364, 
            -0.2564316241135002, 
            0.5317276962280539, 
            -0.832832825369665, 
            -1.5622967420095544, 
            1.5266710948108806, 
            -1.8226187310731172, 
            0.6792127962717646, 
            0.35425674372903415, 
            0.9593900346528994, 
            -1.0504830446601903, 
            2.811158190726715, 
            1.0270808608276958, 
            0.15408009698126376, 
            0.5556720420350105, 
            0.4277176736806278, 
            1.1990560131925525, 
            0.3750507024836602, 
            -0.2596081532397838, 
            1.2247709635517003, 
            -1.221204757120896, 
            -2.7991964508759373, 
            -0.5582390299974458, 
            -0.7042754192949678, 
            1.3337901910739747, 
            -1.4618770435553392, 
            -0.9117701700565967, 
            1.1359974779002209, 
            0.7938844939277057, 
            -1.4227681662198268, 
            -0.3225078425227162, 
            0.18722777495776627, 
            0.2633985365093099, 
            -2.0023917754602296, 
            -0.21544785916927595, 
            0.19270712327212378, 
            0.17898698598241986, 
            1.3280872377292194, 
            0.5220909854640422, 
            -0.10366457745461181, 
            0.36439322284004966, 
            0.2657540206807318, 
            0.027592191377546288, 
            -0.4241888362079517, 
            -2.2395059060017073, 
            -0.04676258302328763, 
            0.3828007089092586, 
            0.6366214465942532, 
            3.2185522638658677, 
            -0.21186763026746863, 
            0.9956881943989044, 
            1.5247628389449948, 
            -1.707484733789067, 
            0.9520748615347195, 
            0.048973135380218316, 
            -0.6486950444770574, 
            -0.5293016310049464, 
            -2.090912226161962, 
            0.07882405988789305, 
            0.46005802611014707, 
            1.2200630849174843, 
            0.17326922099322214, 
            -0.25568885435942434, 
            -0.48490461704656385, 
            -0.32223373922655574, 
            -1.2956656303309646, 
            0.09899300167304358, 
            -0.5391572981761715, 
            -0.7551737161044105, 
            -2.540426176530196, 
            -1.4815302641232238, 
            -1.4730285947303865, 
            1.4889755787826988, 
            2.155575654694475, 
            0.5404549347569155, 
            0.30884058175340984, 
            0.40825018741328684, 
            -0.39286874053302234, 
            1.486539563167702, 
            2.2871764030010544, 
            -0.16377954172537507, 
            0.3590921565767969, 
            -0.29055856108156003, 
            0.7611745995777364, 
            0.4043784407121484, 
            2.075513380899675, 
            0.2773950509838685, 
            -1.0789527004110933, 
            0.8606089060567967, 
            0.668697203442468, 
            -1.2930695395862846, 
            0.8467246677476342, 
            -0.7462166810931306, 
            -1.3494520712062688, 
            -0.8478774643589392, 
            0.6743987958426372, 
            0.6891287440222247, 
            -1.0520062484730557, 
            1.439629130685544, 
            -0.41666760397884567, 
            1.5180625830425254, 
            -0.6393059203802941, 
            0.1465056587509598, 
            -0.1755566075345744, 
            -0.09165732358070838, 
            -0.8711135836553172, 
            0.1306867781018016, 
            -0.41871586670321653, 
            -0.4084720957500177, 
            1.0690539331024447, 
            -1.7552737359497756, 
            0.6286890355728182, 
            0.7455176761762817, 
            1.786851664204076, 
            0.04924678178795943, 
            1.5758677085847557, 
            -1.5611294231169361, 
            0.5061857368564663, 
            0.9324374133018891, 
            2.804222053448489, 
            1.2690110504540149, 
            0.06748768668309829, 
            1.3571580685679774, 
            1.9543377962727464, 
            0.5015887688878291, 
            1.4124078356507108, 
            0.1894718925732423, 
            -0.4692971875121822, 
            -0.740509846539039, 
            2.880464641130421, 
            -1.8865647082994137, 
            0.7110786074723122, 
            1.383794802156624, 
            -0.1769570151966456, 
            -1.0332770231505464, 
            2.0571458747533766, 
            -0.9224821319785553, 
            -1.3834790296414605, 
            2.3831470442161593, 
            0.740617724541643, 
            1.307302833903272, 
            1.877264252903757, 
            0.4485274605910692, 
            1.4227297693618373, 
            -0.34085134581482646, 
            1.0994780226268352, 
            0.9224386132521482, 
            -0.5600141340836859, 
            1.3747205250580505, 
            -0.12948133793688008, 
            -0.10636666854994256, 
            0.4757731512549241, 
            -0.5256545655951498, 
            0.06258145403645501, 
            -1.6957917730694418, 
            -0.24855709194336187, 
            0.5603616722936002, 
            0.9468292012081194, 
            2.05648107232961, 
            -1.4677156474803568, 
            0.8844079486038281, 
            0.11726670713887667, 
            0.40300610064704656, 
            -0.5165628151343089, 
            0.2124970168108722, 
            -1.3836334468131177, 
            1.9633349433267064, 
            -0.0917092766329034, 
            -1.7154708193294372, 
            -2.227430490419471, 
            -0.0512653275171663, 
            -0.837830697059908, 
            0.47120566090565563, 
            0.5906622275615938, 
            -1.4659028751008876, 
            -0.16286723461772176, 
            0.9202787828404982, 
            -0.43252077098534036, 
            0.6766874376275975, 
            1.423587299079565, 
            -1.0251428007124603, 
            -1.7388014976282273, 
            -2.03745178234834, 
            0.5418515164640559, 
            1.1442448283021374, 
            -0.5004581363548467, 
            0.5695617937691734, 
            0.7809196217971157, 
            -1.3034508221819856, 
            -0.4747145954835772, 
            0.4627126443297168, 
            0.8108698608981313, 
            -0.030482654248217188, 
            -0.007161877457608234, 
            1.681295366491496, 
            0.7033708531232143, 
            3.0656817673491856, 
            -2.495736025274743, 
            -0.7614216956252191, 
            0.2628232149130779, 
            -0.14948965472577141, 
            0.5646173570673898, 
            1.67379994313821, 
            -2.255636355698549, 
            0.5807594159789106, 
            -0.05272942965820596, 
            1.0119056539651026, 
            -0.10191644948965906, 
            -0.606016277510261, 
            -0.3575918519662031, 
            0.09119755102985766, 
            2.2606639633846566, 
            -0.35962975031293193, 
            0.3322972500498179, 
            0.8521244111992133, 
            1.148248365806149, 
            0.6190707259114446, 
            0.5845490301792406, 
            1.0433864520061944, 
            1.9491100721399075, 
            -1.558475432768803, 
            0.5604188934374699, 
            0.5733288410699535, 
            0.7690793568905101, 
            -0.20007271862257273, 
            0.1980192173786338, 
            -0.6780606874122076, 
            0.1497195566321544, 
            -0.05755564413963952, 
            0.35419542403778015, 
            0.13607368641170248, 
            -0.9025538381191942, 
            0.9053288397722548, 
            0.5250492063925831, 
            -0.8525195322750501, 
            -0.6502609339537655, 
            0.6750651858393972
        ], 
        [
            -1.577493817045614, 
            -0.8336562666393484, 
            -0.3227028830982459, 
            -1.273050822752235, 
            0.9459096899576513, 
            1.9203383279433932, 
            -0.12439740563474645, 
            -0.554693748599378, 
            1.7509472129085013, 
            0.29234943611762404, 
            0.050192475541849954, 
            1.3337401755414284, 
            -0.1853382078754353, 
            0.7895319689963761, 
            -0.4373841239280007, 
            -0.363217721079384, 
            0.6857041492164492, 
            0.8279895528724094, 
            -0.7695143114773519, 
            1.6941726006800795, 
            1.5888017148038378, 
            -0.7193507431297803, 
            0.3289365026696319, 
            0.8569854665189954, 
            -0.4235435284117654, 
            -0.8176596759536019, 
            -0.0727017114547331, 
            -0.6140044263476597, 
            0.8837369153555736, 
            -0.7748634893116724, 
            -1.0115084912948171, 
            0.16738075947057898, 
            -0.4010432810921221, 
            -0.5152997265509599, 
            2.122022443815007, 
            1.7774164662508583, 
            -0.0170475840483937, 
            0.27886496702782815, 
            0.5189853479486508, 
            0.6452780354807934, 
            -1.0457409859647244, 
            -1.0950864714084658, 
            -0.9205797474257508, 
            0.15709185992859578, 
            0.35642366746540427, 
            0.9595141193235018, 
            0.14659597036633557, 
            0.3046759831599204, 
            -0.32503344969097725, 
            1.0778740715147614, 
            1.6347857506949361, 
            0.5346816214035948, 
            0.3245429327595123, 
            -0.9897617025569997, 
            -0.4994828599085123, 
            0.33241964809077573, 
            -1.0842069796042353, 
            -0.34804413095505615, 
            -1.2914979933448536, 
            -1.7381778789752473, 
            0.2956861305609705, 
            -0.7767242732720064, 
            1.826164531506251, 
            0.5690717498780794, 
            -0.45717860246883407, 
            -0.8165832149485485, 
            0.5908096832288596, 
            -1.9913388314160463, 
            -2.137793853559025, 
            -0.774018367907836, 
            0.05549069456250853, 
            -0.9175065337959725, 
            -1.2707743917937875, 
            -0.18972261904959764, 
            0.8801986638431367, 
            -0.4217477787858978, 
            -0.9159685717947575, 
            0.6994798111839573, 
            -1.5515856616883, 
            2.414964217648409, 
            -1.666964402854748, 
            0.9910940789632687, 
            -0.9358224357336766, 
            -0.032290392151766635, 
            0.04060997806481313, 
            -0.677887465219295, 
            -0.6349132980793459, 
            0.030682951600346495, 
            -0.5400517179763754, 
            -0.8939384189883732, 
            -0.3233849262945689, 
            0.4501787063733015, 
            1.233730724667346, 
            0.784155175841882, 
            -0.9239993017472152, 
            -0.016934839490785877, 
            -1.049343765746916, 
            -0.23221208966836196, 
            -0.48695815981066976, 
            0.399449938738731, 
            0.08032366526884137, 
            -0.2601485772319958, 
            -0.19975386170063122, 
            -0.12902645796901402, 
            0.716318900609061, 
            -0.19942305258668214, 
            0.6207826934298514, 
            0.22700524986357817, 
            1.2318711809304035, 
            0.2885375394332168, 
            -1.2203764360765763, 
            -1.0019037926239025, 
            0.7221004381741156, 
            -0.39355401036776866, 
            -0.5833197284954981, 
            -0.7530137995460592, 
            -0.6526854305574915, 
            0.03065923114433916, 
            0.4266680485984724, 
            1.4658286718462734, 
            -0.2243547714502615, 
            0.9189986254231103, 
            -1.125813142460102, 
            0.8987198087387277, 
            0.8559307198800679, 
            0.7116185179539509, 
            -0.26498254538270644, 
            -0.7324270080967783, 
            0.49420190123742147, 
            0.3981443372528917, 
            0.401619413541503, 
            -1.3477211326572154, 
            0.14790029318349057, 
            -1.0216433297499483, 
            -0.6484740262351639, 
            -1.2691869799195643, 
            -0.6178352290467047, 
            -0.6486424095237646, 
            -0.4816911043391304, 
            1.2502527812865811, 
            0.2775503295065803, 
            1.3293201427665924, 
            1.639835845273379, 
            -0.916823992691591, 
            0.5052699709254451, 
            -0.2737083337450295, 
            -0.33215021878921486, 
            0.8921566072338478, 
            -1.4308612835001324, 
            -2.3557438665404073, 
            -1.4124336294980708, 
            -1.664855381116533, 
            -0.036063039173681935, 
            0.24075622139512678, 
            -0.10691371277574585, 
            -2.104000419480912, 
            -0.5313405742837825, 
            1.058978513041092, 
            0.9446458679021762, 
            0.6196570639073526, 
            -0.5568711590290594, 
            0.7050043961254238, 
            0.33024346229609813, 
            -0.9304845923029968, 
            -0.9932791458481953, 
            0.12055863004509627, 
            -0.5754078343319418, 
            -0.10764503287657919, 
            0.9060156434253351, 
            -0.4010596805757772, 
            1.684088803224269, 
            -1.3004056000162325, 
            -0.016969975861329856, 
            -0.0959302535280243, 
            -0.4421173318132526, 
            -0.7213333883041776, 
            -0.5316280968437604, 
            0.7583886528630491, 
            0.41921972422100234, 
            1.101372318675392, 
            -0.26170500669115554, 
            -1.4812361413030548, 
            -0.24013509356411544, 
            -1.8612234954907456, 
            -0.6538025692944744, 
            -1.2945101511351371, 
            0.6622227350487816, 
            0.1697145144924562, 
            -0.8656677482454982, 
            0.11867386324422273, 
            1.0297985478196297, 
            0.9453976340998136, 
            -0.5945483774416956, 
            1.9434161233419902, 
            -1.2509444490803983, 
            1.1808427888699025, 
            -0.062161597102410523, 
            -0.7153675378100547, 
            -0.8124100681743642, 
            -2.7557477381001063, 
            -0.5228110305134057, 
            0.19337528024246317, 
            -1.6956208171135672, 
            -1.015423356162088, 
            0.8536187391318688, 
            0.6154573228452763, 
            -0.46158415569615907, 
            1.0860351012536553, 
            -0.5588978914813131, 
            1.7208248070553793, 
            1.6895136096389227, 
            -0.20195941499937892, 
            1.5820564339797467, 
            -0.2772980200758933, 
            1.367231452753905, 
            -0.7384613785814381, 
            -0.5913476484377943, 
            -0.4815457684477575, 
            0.5999870350085764, 
            1.1875427672625372, 
            0.21936948051071653, 
            1.658475735507871, 
            1.7060650842305527, 
            0.1098280187045714, 
            -1.2321553473248295, 
            0.23281753893628582, 
            1.4090409460737738, 
            -0.10448441114142464, 
            1.6344072741062305, 
            0.07645123426494366, 
            1.5515978329450664, 
            0.8006584495132801, 
            -1.3989773450344043, 
            0.6384768114678497, 
            -1.1741282883765136, 
            0.1279100037990192, 
            1.0311107799422465, 
            -0.709465979362263, 
            1.294536830483137, 
            -1.1454707794569297, 
            0.6215884709191292, 
            1.7532333494785386, 
            0.8571034446114372, 
            0.528116994031425, 
            -0.5380894028200849, 
            -0.2969663677732678, 
            1.577758101986894, 
            0.4292532361180444, 
            0.41163182065209136, 
            -0.6230161115373948, 
            0.7137991284094416, 
            -0.167785486365281, 
            -1.0014628131453873, 
            -0.7352645623417058, 
            1.1223086280319623, 
            -0.6444579274873494
        ], 
        [
            -0.6047288043917276, 
            -1.1123275913407056, 
            0.07743139402979796, 
            -0.2271441085949968, 
            0.5441656581275466, 
            1.0484361033803238, 
            -1.0055061398040546, 
            -0.17762232264342784, 
            1.1437610338539823, 
            -0.7122342994757676, 
            -0.5789109240481276, 
            -0.3450575853936671, 
            -2.4509444902141984, 
            -0.7569344513772787, 
            -0.9418634867481056, 
            1.0136534069814447, 
            -0.21854124590689694, 
            0.07351520154628817, 
            -0.9027088415759875, 
            -0.36018242731091465, 
            -0.34905995855480687, 
            -0.6171351384926235, 
            -0.4858923726840668, 
            -1.4519519236564828, 
            -0.8660600137693736, 
            -1.949176672312606, 
            0.7537121627324422, 
            0.2178781648241026, 
            0.3601377619231594, 
            0.2955231259924536, 
            1.2900655220859012, 
            -0.7738221643246943, 
            0.7944855699676003, 
            -1.553814132649811, 
            0.14895029294779666, 
            0.3978729234048137, 
            -1.6116182221666115, 
            0.2292672030293715, 
            -0.47707435607680054, 
            -0.5202494961556695, 
            -0.11995805599207636, 
            1.683255965317497, 
            0.4670261664757706, 
            -1.8049531524450144, 
            0.7472477641740412, 
            2.836786797412662, 
            -0.41338816453342847, 
            2.1105623656309533, 
            -0.3302545136825733, 
            0.4072335800714038, 
            -0.8380650441007486, 
            -0.6207289199872518, 
            2.09142821385746, 
            1.1331741276666316, 
            -1.8412261264905112, 
            -0.9040853584447618, 
            -0.2344060301327498, 
            0.06747483340232563, 
            -0.6957529856681864, 
            0.47917689903045735, 
            -0.6898518078617606, 
            -0.03726330368073548, 
            0.09354348367898431, 
            -1.4460482046608552, 
            -1.6863668749435068, 
            0.8833193425171058, 
            0.08308181186028477, 
            0.6837997824832583, 
            0.05211567050167259, 
            -1.2799398421174029, 
            -2.602382512563495, 
            0.3966119127462067, 
            -0.05809672686688661, 
            0.5272636400562336, 
            0.3322854255324295, 
            -0.15475310929567868, 
            -0.23755155700485417, 
            -1.178630559381019, 
            -1.7726073202978454, 
            0.38437570469867277, 
            1.4470538972671674, 
            0.37848829590236815, 
            0.6690629344891638, 
            1.9878259206580413, 
            0.6579061539303468, 
            0.573712465851675, 
            -1.1152113771278525, 
            2.550239380463156, 
            0.9866661145353405, 
            1.2488500984007613, 
            -0.5190264083687619, 
            -0.5692938237672563, 
            -0.23724593088226054, 
            -0.6839582420859586, 
            -0.1164268627315683, 
            0.04349537807594693, 
            0.3124867333689068, 
            1.6740625591511809, 
            0.8262129960062917, 
            1.530519874167246, 
            0.6077854990332764, 
            0.6487810619729577, 
            1.3554880581495539, 
            -1.9375771091016354, 
            1.1829710076331792, 
            -0.3300715839444708, 
            -0.14431161339359005, 
            0.3704112904663232, 
            -0.42631842692576666, 
            0.41555075590822427, 
            0.6392975776188232, 
            -0.500690993808394, 
            0.5301109289710606, 
            -0.021992858916165363, 
            1.6181637260235096, 
            1.397613997081289, 
            0.0013229131572076785, 
            -0.7390352837181103, 
            0.8621539997937714, 
            -0.40300680303057085, 
            -1.9010316986470526, 
            1.1211736657773501, 
            1.9717365093711055, 
            -2.4759758997636636, 
            -1.4395156331390477, 
            1.414989339640248, 
            1.5931256367726863, 
            -0.3427957058531421, 
            -0.011924488608062958, 
            2.0722701535927315, 
            0.728890919261421, 
            0.28201679451320705, 
            -1.4491382855717965, 
            1.1717801945445738, 
            0.19210992357279683, 
            0.3940990218316414, 
            -1.162950794438701, 
            -0.8056612295208403, 
            0.7116021140133256, 
            -0.8878798510321225, 
            -0.1588352389445096, 
            2.32341946801668, 
            1.219408514064006, 
            1.752901820831758, 
            0.25637016435718024, 
            -0.22640036601874372, 
            0.9489592688264776, 
            1.2666691343367873, 
            0.6966615373045711, 
            0.8845665794688196, 
            -0.8998568449062363, 
            2.3082115060553448, 
            0.13098930154225855, 
            -1.153609287454283, 
            -0.7053200548267743, 
            0.635178677821658, 
            -1.5276907488491716, 
            0.8670272084144456, 
            -0.07834497570267605, 
            0.17260498254143955, 
            0.8967175608668175, 
            -0.6388544328297174, 
            -1.5727632180995759, 
            0.26912903537292093, 
            -0.01010504182129638, 
            1.4709433625483983, 
            0.23307222590377968, 
            -0.05509918000577607, 
            0.8618632882995035, 
            0.1201740782993888, 
            0.01336492590956171, 
            0.8484373677406937, 
            -1.707983309368924, 
            -0.5100410893433994, 
            0.6899872337402907, 
            0.43123032844234777, 
            -0.7392063781009087, 
            -0.659551940723002, 
            1.2441412028478298, 
            -0.29397154352151966, 
            -0.7158527609456792, 
            -0.3703524801961308, 
            -0.9356066046268058, 
            -0.502269379999089, 
            -0.17362557387618893, 
            -0.056095200757868606, 
            -1.6118475805315553, 
            -0.2996710777679502, 
            -1.62752924900211, 
            -0.2956854354068123, 
            -0.4448293762444805, 
            -0.47925714497458655, 
            -1.8560027875081468, 
            0.7781917230218754, 
            -0.3406675235366932, 
            -0.4824652190990954, 
            0.3704215245721153, 
            0.8532561908455213, 
            -0.269818835347207, 
            -1.1920644683968835, 
            -0.4941408503996456, 
            1.6912403810757612, 
            1.6238559108955688, 
            -0.38807997700244534, 
            1.1832831425119947, 
            -0.1778984886188385, 
            1.7240662883253774, 
            1.4753323044236015, 
            1.0688672187871673, 
            -0.573032027961355, 
            -0.7507944396972749, 
            -0.3332199319998051, 
            -0.5601254299378015, 
            -1.9072422556150934, 
            0.3838279501255255, 
            -0.4103867633017428, 
            -2.397742630497839, 
            0.2449565475536358, 
            -1.0146856269200708, 
            1.1671931095673773, 
            0.6327322351219316, 
            0.6837420144531766, 
            -0.215370549919515, 
            0.7657458227509745, 
            -2.2370253345468782, 
            -0.039817638271428236, 
            2.2625138989911697, 
            -0.06643228774611618, 
            -0.6691899384864187, 
            -1.3311464253982896, 
            1.19866794926743, 
            0.17555221176319166, 
            -0.3638060396391509, 
            0.2627802953548687, 
            0.6186112922495918, 
            0.21292290305985162, 
            -0.11528982487694302, 
            0.5241352130233471, 
            1.9497629194767934, 
            1.0248065763311782, 
            1.1501654492847109, 
            2.8821847422591595, 
            1.1186538210597137, 
            -1.6057676116379014, 
            -1.1874679747345003, 
            -1.1691630076678452, 
            0.04151092543975057, 
            -0.7928656025467072, 
            0.49225661280332, 
            -0.591107935306883, 
            -0.26954644652085386, 
            -1.0107356115422452, 
            1.13221912222975, 
            -1.1227340521422084, 
            -2.0776738691041365, 
            0.7109986187110908
        ], 
        [
            1.535020096401469, 
            -0.3901369452842816, 
            -0.9584155735240332, 
            0.8019505012756171, 
            0.9226705234849082, 
            0.8258755131495721, 
            -0.0031552159331455915, 
            0.13158989933320267, 
            -0.18949433181863598, 
            0.3594915743587994, 
            -0.24066117458893824, 
            0.5282797466774445, 
            1.270270379839799, 
            1.0117930468609837, 
            0.678848473687279, 
            -0.5801456769082302, 
            2.388968466467464, 
            0.23413503375911093, 
            -0.9202133941278928, 
            0.03843626723951138, 
            0.8868178259343693, 
            0.3818194679413407, 
            -0.9100799408175436, 
            -1.8020351748959036, 
            1.7563760592054516, 
            -0.6797241884577797, 
            0.08474684650406442, 
            0.5906267295836621, 
            1.2156242821321182, 
            0.1821889854271874, 
            2.6085348049315265, 
            0.5641676201460848, 
            -0.9890013511902802, 
            -1.0157142204275207, 
            1.061015704236797, 
            -0.7773926985689588, 
            2.8474922158836438, 
            1.2871439831341651, 
            -0.9767058914640618, 
            1.674128033602653, 
            -0.37835195837813285, 
            -0.3335123178258913, 
            0.642353016707095, 
            -0.33701031252095026, 
            1.5170864483190887, 
            2.648272314692267, 
            -0.49150353014013504, 
            -1.4957376778831852, 
            1.2245461156834279, 
            -0.37706343998607383, 
            0.6616906112756143, 
            -0.7730909314283129, 
            1.529106506707617, 
            2.569556391208266, 
            0.6012991719583836, 
            0.09029299046602907, 
            1.3454979776021179, 
            -1.5556829738066358, 
            -1.2356770641526167, 
            2.0597344682865817, 
            -0.7369214591174043, 
            -0.20540481499937369, 
            0.8715421104958064, 
            -1.2748926437439816, 
            -0.529043593282043, 
            -0.1603931877293379, 
            -0.9734667717618102, 
            0.7668983215663389, 
            0.16786267432661287, 
            1.2962220991606597, 
            0.6399183104042356, 
            2.3069321536781175, 
            0.875529453524626, 
            -0.43714989781257135, 
            -1.617867529848391, 
            -0.8289536527385651, 
            -2.1944956457818527, 
            -0.029028332984873555, 
            1.0874335450876484, 
            0.400235409897347, 
            0.17424023825225857, 
            -2.0872305531173234, 
            -0.2896602084261398, 
            0.6635750359788157, 
            0.5516252802390497, 
            -0.46705710063884903, 
            -0.4358506634087961, 
            -1.179197182169396, 
            -1.244207537435712, 
            0.7940500757603075, 
            0.20596039909783953, 
            0.3329132082879854, 
            0.0469275743845128, 
            -0.45623501650824355, 
            0.9155187161458714, 
            -0.25289341102444035, 
            1.3967787049117002, 
            -0.7823135717099572, 
            -1.1265334522230845, 
            -0.7876728210803661, 
            0.9281879034554468, 
            1.7584841034145733, 
            0.49749870611703684, 
            0.03226423466037892, 
            -1.4551089032048883, 
            -0.2814409106296462, 
            -1.0487277915023065, 
            1.977103581343297, 
            -0.6059979126502024, 
            -0.2768069562932607, 
            -0.426763955740393, 
            0.8680723613391088, 
            -1.4014881588801598, 
            2.256806611622414, 
            1.8727520376369486, 
            -0.15942140052913317, 
            0.23140145174910834, 
            0.1281172861785725, 
            -0.3438022590929672, 
            -0.15482465813970203, 
            -1.3453284508270646, 
            0.9177313047615253, 
            -0.1739205928174649, 
            -2.1687398097448582, 
            -0.1269881172588157, 
            1.2323784232404902, 
            0.16357008566941214, 
            0.7991918373926594, 
            0.5483499802799546, 
            0.5880640672400297, 
            -0.36529685958403346, 
            2.1568239293071563, 
            1.7619443384758016, 
            -0.17801085610777276, 
            -1.4676566891917586, 
            -1.1741726212013752, 
            -1.3514427952151478, 
            -0.3400290628893099, 
            -1.1027876534359082, 
            -2.1271420728856882, 
            0.37777197271288226, 
            -0.9596455943977845, 
            -0.10503668166719876, 
            -1.8975915395589762, 
            -0.46368522274400753, 
            0.8932309032695283, 
            1.5235701295027735, 
            -0.10805660412255272, 
            0.23893965921820143, 
            -0.5567279961470223, 
            -0.2670586013188332, 
            -2.1776100488357817, 
            -0.3512451042674278, 
            0.4059797402245088, 
            0.9295523077800077, 
            -1.939161348879214, 
            1.8176512914178606, 
            0.7741113108329393, 
            0.5626627246819268, 
            0.9007257731953361, 
            0.8845729236332708, 
            0.43303760056689694, 
            0.6009459892537609, 
            0.06805798200841964, 
            -0.4640167224149996, 
            -0.15948929552992683, 
            0.617075957292717, 
            -0.9272515758046055, 
            0.19945191323808728, 
            0.14781657461070938, 
            -0.594223335978664, 
            0.8622454952458986, 
            0.10110028573220002, 
            -0.6488299395074497, 
            2.8485058192842274, 
            0.21542401675262945, 
            0.7026157824354228, 
            0.7422412583520458, 
            -0.23207751366127397, 
            -0.9134688753926012, 
            -0.4018078701143384, 
            -0.6258772544533685, 
            -0.09831512171868403, 
            0.36987574179096844, 
            -0.49089977723138073, 
            2.337932570459784, 
            -0.8756417275355476, 
            0.39992677993501186, 
            0.7534430794089741, 
            -0.30241306164977544, 
            0.367504212166191, 
            1.3257608355218529, 
            0.11681921894995993, 
            0.9108778400897222, 
            0.3848986858402899, 
            -0.7288141600919318, 
            -1.2756169143655032, 
            0.6382389409620931, 
            2.222554333766362, 
            -0.7378529055626059, 
            0.1741741054422172, 
            -0.7753598898950541, 
            -1.3665542563930215, 
            -0.4935627824545326, 
            -0.44628943670873916, 
            -0.5132564142943616, 
            -1.0528124179848497, 
            0.39816423348082336, 
            1.554626400190223, 
            0.17736288692313446, 
            0.9602444184931573, 
            1.58555263022319, 
            -0.6392499551142264, 
            0.8271055777578925, 
            1.9315421338718435, 
            0.13349466183656272, 
            0.1622830327485849, 
            -0.333962781644617, 
            0.1191192521449116, 
            0.6172089563411199, 
            0.045678745622947804, 
            -0.4615733867630899, 
            -0.9676919151399863, 
            -0.12550663031250028, 
            -0.32675919129159725, 
            0.7561809739670357, 
            1.1212500722490362, 
            1.1337415233120889, 
            -0.9202644937707165, 
            -1.5821295464190888, 
            1.4823597168246856, 
            -1.7429720716084007, 
            -0.8284815156709049, 
            -0.41436468987083513, 
            -0.22436904896565535, 
            -1.4270728786746143, 
            0.5527647368000913, 
            -0.2131741362297348, 
            0.13308716815064822, 
            1.391693065420901, 
            0.49943098824896476, 
            0.7605635000429527, 
            0.9293460748023933, 
            0.3972193535402695, 
            -0.16939979476750439, 
            0.4089846982552873, 
            -1.377120614750682, 
            -1.8191531853221259, 
            0.9721813035796655, 
            0.6518630459925859, 
            -0.1777441309034907, 
            -1.3307122616564306, 
            0.03129221066117298, 
            0.30728324510717037, 
            -1.2304619532281358, 
            0.057435273089830194
        ], 
        [
            0.8911621376571391, 
            -1.0317023389415407, 
            -1.8107165795569624, 
            -0.752779347872571, 
            -0.7192643584061614, 
            0.560128925961407, 
            2.3946194177812132, 
            -0.2457349593962634, 
            -2.6353984680255245, 
            0.20708402915096344, 
            0.3090297261158752, 
            0.39358892984713006, 
            1.032209850269369, 
            -1.171730755538231, 
            -1.8163846190473811, 
            -0.6348617786927592, 
            -0.6803600348990599, 
            0.44521877791178904, 
            2.3257002865921232, 
            1.549539654497355, 
            0.6815771299298315, 
            -1.6576986632195378, 
            -1.2794397588347433, 
            -1.3105047053193557, 
            0.16344001683949966, 
            0.733742505053288, 
            0.9090604665208357, 
            -0.019866320445413567, 
            -0.7655045674432087, 
            0.4414648004267392, 
            -0.9834236772157491, 
            0.2701032898882891, 
            -0.7428022153055631, 
            0.28700123511066084, 
            1.447559065086481, 
            1.3581729101473978, 
            1.3206736310347866, 
            -1.0078450797925278, 
            0.3047172768973425, 
            0.9892290746587121, 
            -1.6558341133246075, 
            0.08421504759895973, 
            -0.6567332508359724, 
            1.7130997770449055, 
            1.0848788650801175, 
            0.25118177553638416, 
            1.6995720404932484, 
            -0.27436231740656286, 
            0.04854448300206468, 
            -0.6388738110341798, 
            0.4739736769861471, 
            -0.08723363474991275, 
            -0.5182030753685697, 
            0.2802958393075498, 
            0.7183084879724498, 
            -0.815283161252171, 
            -0.9871364389123288, 
            -2.181002461649, 
            -1.150956042416162, 
            0.025678812276173857, 
            0.11873626118534378, 
            0.5861499711185346, 
            -0.40652950162592233, 
            1.040519151197058, 
            1.6609424434295357, 
            1.1400007170136695, 
            1.3356199644725795, 
            1.722153606240098, 
            -0.1508602322253522, 
            -0.029533651875555813, 
            2.4502314922535144, 
            0.6146687512484051, 
            2.1144545712876903, 
            0.7987789366885489, 
            -0.28943286365802395, 
            -1.4012197543574012, 
            -2.0094885524611654, 
            -0.4652409260835459, 
            0.4749921724457799, 
            0.2557046734081653, 
            -1.1909448050316398, 
            0.011110064129532521, 
            -1.0270662541953117, 
            0.08033128394884752, 
            -1.0720177068332508, 
            1.327997341693251, 
            -0.17238086678315892, 
            -0.20047534692421642, 
            -0.9265890564585657, 
            0.7349749131384945, 
            0.036069365330747366, 
            1.1941355198124233, 
            2.6800464474205103, 
            -0.3825006812690488, 
            1.2585885992562398, 
            0.8068867246520139, 
            -0.6303541832725467, 
            -1.959456168102232, 
            0.6464248431698256, 
            -0.5361009642292826, 
            1.4258205580181909, 
            -1.0967653462413764, 
            1.4313800183862904, 
            -1.27062897073181, 
            0.6069581391022615, 
            1.562256704645155, 
            -0.33779627251834243, 
            -0.4123032002938074, 
            -0.26777309751305195, 
            -1.6561061587590813, 
            0.5482857706091931, 
            -0.7183828588236207, 
            1.034342727685096, 
            2.0778553678988754, 
            -3.1081628190799435, 
            -0.5888555415063444, 
            -0.67687318239417, 
            -1.1186413590916218, 
            2.015922144729087, 
            1.4189470960607138, 
            0.8618649279677217, 
            -0.6109634001193784, 
            0.3608680592023782, 
            -0.49126507675091186, 
            -1.8797181252016, 
            -1.0523641335961746, 
            -1.2940169435334372, 
            0.08398714051979671, 
            0.588356392905494, 
            -1.7196549868581152, 
            -0.48032349512740097, 
            -1.1492021165192259, 
            0.6899949898221306, 
            -0.3095127119373816, 
            -0.2716120193872366, 
            -0.7015993382705646, 
            1.331736258084869, 
            0.47319788895463594, 
            0.09618313121638802, 
            -0.8202888327335889, 
            -0.100234211429867, 
            -0.7462758238434781, 
            -0.2459550360291338, 
            -1.3882111141610511, 
            0.5697575486094747, 
            -0.9496257621000684, 
            -0.6441577970213205, 
            -1.58900288568834, 
            0.43782099812323166, 
            1.4914227810751, 
            -0.3505284498951896, 
            -0.2209481047482627, 
            1.4181117237781096, 
            -0.18733834532180482, 
            0.2482859445401662, 
            -0.23635393673092667, 
            1.1786875264463312, 
            1.6207813707118137, 
            0.5423541042087499, 
            -1.3444495424296143, 
            0.6011274682420163, 
            0.22493612871274626, 
            -0.42249373186504674, 
            0.3644050315915904, 
            0.4913139501590913, 
            -0.19662280879746816, 
            -0.5979599046954087, 
            -0.6069202283649994, 
            3.134676586987443, 
            0.3148501011625556, 
            -0.9598806019720812, 
            0.06815663441723646, 
            1.0824869867692513, 
            0.5507575481141045, 
            1.2742606491191473, 
            0.025001323650508722, 
            -0.44988704175110233, 
            0.7764277304458824, 
            0.6439156750260167, 
            0.032756206484128865, 
            -0.08877042119735658, 
            -0.08843600225842711, 
            -0.361317566908282, 
            0.4800601589942961, 
            1.6053004479153627, 
            -0.0603545094796722, 
            -0.3196340006781161, 
            -1.2549031563943787, 
            0.379250986734578, 
            -0.1423156947994138, 
            1.1286515165809792, 
            1.7186787472457612, 
            0.6383971343104675, 
            0.03804584867550661, 
            0.4576513906929104, 
            -0.28462154206658, 
            0.9374900408536606, 
            1.499497196740151, 
            -0.9235571772158085, 
            -0.11861837265795247, 
            -0.801606232074201, 
            0.3127313390578771, 
            0.7893308513782177, 
            -1.1722277418225688, 
            1.2765276033492194, 
            1.0113534870458898, 
            1.0373058037392744, 
            0.4135444134485333, 
            1.1805187900903018, 
            -0.2927538489577311, 
            1.5870765212476619, 
            -0.5817349179209249, 
            0.9431197233383105, 
            0.11161029279136786, 
            0.10483381651569497, 
            -0.2955224716830241, 
            -1.2118402861029995, 
            -1.3017599574021528, 
            2.189823352793148, 
            0.6559430406226797, 
            -0.4523868789319835, 
            1.6641218992221702, 
            0.2177155301003843, 
            -1.3306382437828725, 
            0.17419297477489798, 
            0.8555665895955638, 
            1.1108561798431054, 
            0.9083961051083267, 
            0.3217553987374511, 
            -1.4406283656125327, 
            -0.7514922276625272, 
            1.0409176754299019, 
            -0.9144240224925976, 
            -0.11160867672093691, 
            1.4760886258227133, 
            -0.6455014920630231, 
            0.20663358250358668, 
            -0.4891226071237761, 
            1.3821539599922472, 
            -0.3779699626874347, 
            -1.5087586908398176, 
            -0.8492250102620179, 
            1.5564360791374288, 
            0.6363195250831579, 
            1.4621338561926365, 
            -0.23316433333123, 
            -0.08462900697935231, 
            0.37649243187242837, 
            1.3200194300091428, 
            0.16739708470338321, 
            -0.6352960194317481, 
            -1.96657898345047, 
            -0.3908918976483907, 
            -2.1901376356561064, 
            0.47293213744472984, 
            0.18298327552546031
        ], 
        [
            -0.19289121679669458, 
            -1.1164218022455754, 
            -0.5106970124890695, 
            0.40807094440141817, 
            -1.7118756333222995, 
            0.08767879130448215, 
            0.8214640373944508, 
            -1.085570335656863, 
            -0.6656142607542781, 
            -0.31063942496739094, 
            -0.055779346771013885, 
            0.371138888399408, 
            0.9200335631608433, 
            0.7339110567152243, 
            -0.9188742459048627, 
            -0.45483969061118634, 
            1.4421281408065856, 
            -0.8251897585558916, 
            -1.232517403572697, 
            0.5216914368137257, 
            1.3182336048905603, 
            -0.1824906173072425, 
            -0.784342509688636, 
            -0.9443220890768684, 
            -0.19043369298228832, 
            -0.5984678965728869, 
            -0.01108324261988614, 
            0.30193951977821515, 
            -0.736603110656606, 
            0.4856885016940082, 
            1.411509042259155, 
            -0.013973722759426363, 
            -0.00821021205996139, 
            -0.5252211947096045, 
            -0.673441715577637, 
            0.2009525163496676, 
            1.332623425715846, 
            -0.6093404617788124, 
            0.5607095109714388, 
            1.0770788251671521, 
            -0.691248433527853, 
            -0.10738768444380199, 
            0.15335090826138736, 
            -0.6226170099197469, 
            0.3857865406037392, 
            -0.6074779030556839, 
            -1.7651774941525722, 
            -0.23498920288696207, 
            -1.4467016401506012, 
            -0.5479092962917308, 
            1.2642610669081984, 
            -0.8039899807857972, 
            0.8997104414049273, 
            -0.13099506565572877, 
            1.6412547768147445, 
            0.257728274464114, 
            -0.77765546847788, 
            1.6651842844238596, 
            0.17626712217718732, 
            0.18178628755506054, 
            -0.03726624810372302, 
            0.6088090246334411, 
            0.516407720368063, 
            -1.0651176910274072, 
            0.793633557274205, 
            1.2938776803796364, 
            0.6827822560893085, 
            -0.42725232911125005, 
            -1.4944080016026546, 
            1.3645653527133474, 
            1.9874515274998157, 
            1.2773201426191196, 
            -0.45883630974059275, 
            -1.0426042857955464, 
            -0.1376610821178939, 
            0.5400958291910734, 
            -0.21972161742355625, 
            -0.408693249057812, 
            0.9263571177432908, 
            1.0600187995351662, 
            0.5413910278365709, 
            0.6691573560219796, 
            0.7877849588406061, 
            -0.6946216821819085, 
            -1.8588265155231787, 
            1.0310529828001729, 
            1.8333570163376423, 
            -0.9003289998095841, 
            -0.5083646272623745, 
            0.9240981902554273, 
            1.3054880556214865, 
            -1.1411043748740828, 
            -0.4789980104934257, 
            2.1248195840487263, 
            1.1471240143669235, 
            0.9082273091234709, 
            0.44432237081246506, 
            -1.2181759206721539, 
            0.06916659685083311, 
            0.5299570755071457, 
            1.2109424195304623, 
            -2.102700665448214, 
            -0.6465739727211224, 
            -0.1313185605457441, 
            -0.6008579641149817, 
            0.18785362812332232, 
            -0.5371921920821084, 
            0.4715572220463068, 
            -0.4561669548949004, 
            0.6676815800036355, 
            1.4933506727539791, 
            1.4392405975563574, 
            0.03135149444599162, 
            -0.22793140901420544, 
            1.033462495534006, 
            -0.11340182026970545, 
            -0.08350957606033418, 
            -0.33902355326386996, 
            -1.6012139275206438, 
            -0.33589076615242425, 
            -1.3922903386314383, 
            -1.8339380390335607, 
            0.7267059679778641, 
            -0.7384830498055219, 
            0.7096631779704462, 
            1.9179172309247838, 
            2.334987382077307, 
            0.46075086922086483, 
            2.228589118503124, 
            0.17392643594014773, 
            0.8487350790894149, 
            -0.9601191311207267, 
            0.3167469505131622, 
            -1.445267527284866, 
            -1.261650572399744, 
            -3.3171992010327953, 
            -0.469816883276878, 
            -1.0156426779785492, 
            -1.165470408045202, 
            0.19333698468700472, 
            -0.42858850982776575, 
            0.24879082953207426, 
            -0.17667068065815425, 
            -0.3908501404489495, 
            0.5247394909960468, 
            0.8643250359375494, 
            -2.6350208314941286, 
            -0.7300580121687084, 
            -0.17111642026099744, 
            -1.449737281863622, 
            -0.9915951615770071, 
            -0.9056021321795978, 
            -0.6200472665485545, 
            0.6266383211245523, 
            -0.5996568301819232, 
            0.463269911948359, 
            -2.894201780266282, 
            -2.1528554892084077, 
            -0.7415711910543142, 
            -0.688155737163505, 
            1.2342139224281161, 
            1.1400835606744488, 
            1.0710739302306413, 
            -1.300414724819769, 
            0.64308116526708, 
            0.40072922659202664, 
            1.1317506208419315, 
            -0.1326148880698416, 
            -0.025722495017488623, 
            -0.19269234839152527, 
            1.1356844846399978, 
            -1.2615122365696825, 
            -0.6753153016411547, 
            -0.44917320691351853, 
            -0.29423967770675274, 
            1.5893559645015793, 
            -0.9304799696882232, 
            1.529216674060001, 
            0.5874954812098411, 
            1.4791257593212255, 
            -0.050982685228671006, 
            0.7822029537744359, 
            -1.0897075649867987, 
            -0.4125813193913626, 
            -0.14543224964946605, 
            -0.5116602703466154, 
            -1.8079771458344314, 
            -2.194077603914448, 
            -1.3440659891293245, 
            0.7570708123010438, 
            -1.2369303657312753, 
            0.07859884478030309, 
            1.7617473395504208, 
            -0.803307842926348, 
            -0.41071196313986297, 
            0.7826761182286585, 
            -0.23227019568793272, 
            1.2882958088754892, 
            0.7811790375735996, 
            -0.07535081260132122, 
            -0.9110914484412906, 
            1.8822711678917632, 
            0.302278600689888, 
            1.5699452207299978, 
            -0.9925591532649174, 
            -0.6150348588933494, 
            -1.8605527752973097, 
            -0.40407416052411627, 
            0.27887850408086884, 
            0.54002913454338, 
            -0.10229913460199172, 
            1.7297179931366768, 
            -0.8521003657966038, 
            0.5438095035427902, 
            1.1554727295399414, 
            -1.455964324137555, 
            0.9569209473352481, 
            -1.451575891469804, 
            -0.4462664139788481, 
            -0.9810605726964589, 
            0.7950689703484355, 
            0.5499695398457106, 
            -0.700364399717877, 
            0.08635494510837628, 
            -0.6030335318615925, 
            0.8816476518259015, 
            0.011010645713811867, 
            0.6674675990477942, 
            0.31307625217149854, 
            0.40910127253377704, 
            -1.5136469078985404, 
            1.413246807538237, 
            0.2860127664295931, 
            -0.9279378401946942, 
            1.6804262694089855, 
            0.2843193249908821, 
            -0.37069510656066545, 
            -0.05438417968376193, 
            1.3769419918728336, 
            0.6752832250941136, 
            -0.3648921834263387, 
            1.803655015680161, 
            -0.2518325761460653, 
            0.8874217152445754, 
            0.6713067739935378, 
            -0.03096136848916176, 
            0.07473275076766833, 
            -0.25881322187481726, 
            1.962298095812948, 
            -0.2505616913945819, 
            0.26107999287049743, 
            -0.14995139321718362, 
            0.21695043209775894, 
            0.5363354834409946, 
            1.4983592189302426, 
            0.0024456874203814655
        ], 
        [
            0.2636208011992041, 
            -0.4041137383774675, 
            -0.9615666969251276, 
            0.1684119984761324, 
            -2.6686431969081377, 
            -1.9958302279548703, 
            -0.8062776963672378, 
            -0.39594601608786484, 
            -0.6691255601681156, 
            0.27907340689780724, 
            -1.6286583440725315, 
            -0.4856249817178774, 
            -0.19213014100729212, 
            -1.5180114366886706, 
            -0.918980590297148, 
            -0.39266036464699794, 
            -0.3467349500733481, 
            0.4886329628076748, 
            0.603777756934129, 
            1.4420832268470927, 
            0.08082909290643792, 
            0.3801528324419663, 
            0.8006447728085808, 
            -1.271389256778181, 
            0.48108959614140995, 
            1.4111470170950537, 
            -0.9993203263082379, 
            0.9938989587635237, 
            1.158520544665867, 
            -0.506905435111215, 
            0.6043881048177734, 
            0.034813606879147994, 
            -1.5877280319991671, 
            -0.021469321715387863, 
            0.8041043470590044, 
            0.3361585291264031, 
            0.021785256677364747, 
            -1.2020072518418556, 
            0.7360772881483608, 
            -0.4327183309861133, 
            -0.5816363790569299, 
            -0.027162706550599037, 
            0.12880079654561918, 
            0.453930412762633, 
            -0.7511889464811483, 
            -0.23191095426837466, 
            -1.4826144012816842, 
            0.09314008826715346, 
            -0.22396880040229983, 
            0.4214218085646279, 
            -0.6662161624032635, 
            -0.5921261063558629, 
            -0.1773837728970433, 
            0.04402288899659808, 
            -0.6022511769886096, 
            -0.15977578297678705, 
            -0.8498740555520876, 
            -1.3705770949047835, 
            0.21681547527893313, 
            -0.928654302978839, 
            0.2069778415876556, 
            0.045157993361432905, 
            0.04908123846634934, 
            -0.43528253523206933, 
            -1.0415483715122182, 
            0.08397431046126677, 
            -0.07003456376364835, 
            -0.47711506939439674, 
            -0.9173174667915283, 
            0.20964145007218105, 
            -1.4214122170664167, 
            -0.3253680152371096, 
            -0.023490342851249874, 
            -1.0525747974900925, 
            0.20740260231911278, 
            0.7226953924395523, 
            2.638248110552381, 
            -1.6180118284676326, 
            -1.1809426188322028, 
            0.0809969059153452, 
            0.9404847871137205, 
            -1.5748933574142558, 
            -0.03772342821641495, 
            -0.10084954944063058, 
            -2.338055715439691, 
            0.476834427112681, 
            -1.06700455753423, 
            -1.9430414982637405, 
            -2.134095635710395, 
            0.0698333480175496, 
            0.8895632602088989, 
            -0.24283026315800207, 
            0.10369337215958643, 
            0.7824714115585266, 
            0.2105050915951325, 
            -0.031020257207818383, 
            0.5442762735494604, 
            -0.3556181418783232, 
            0.12637477325829818, 
            -0.044137332252730706, 
            0.2572704627276248, 
            -0.5281352269203166, 
            -0.5604247914788872, 
            -0.38117173695924284, 
            0.6204761717837549, 
            -1.1289004307718862, 
            -0.2742299000517294, 
            0.3269121651135581, 
            -0.012752020811341878, 
            0.4273483842711919, 
            0.010235838879964052, 
            -0.3077555468578963, 
            -0.7866072379213153, 
            -1.2643231163303306, 
            -1.0558086396546043, 
            0.904948880086822, 
            -0.3775230309228944, 
            1.9819593450619442, 
            -0.4965528331788744, 
            0.623455306400317, 
            -0.6684992790320957, 
            0.04070765901496042, 
            -0.9864039218849076, 
            -1.2860197751497802, 
            0.06413908270631208, 
            -2.12252015558236, 
            -0.0812274193828601, 
            1.342884806189392, 
            -1.6203521986304517, 
            -0.10921167486433221, 
            0.6399783714561424, 
            -1.2228809950112731, 
            0.21467847929913153, 
            -1.8986267808465602, 
            0.6596235386088073, 
            -0.009816584680174595, 
            -0.4655917363055711, 
            1.5823903131333228, 
            -0.12564844014196191, 
            -1.19022172762699, 
            1.4275941101213487, 
            -1.2242932781820552, 
            0.4365645259063604, 
            0.5741050530006487, 
            -0.6548371455753034, 
            -1.2334607540119462, 
            -0.5532469277498929, 
            1.0635030038803666, 
            0.8208261262593207, 
            -0.09517887717259034, 
            1.2553025714623443, 
            -0.34838429833938617, 
            0.6470801594391707, 
            -0.2077985631431797, 
            0.8461369000360272, 
            0.45890423472915004, 
            -1.0586779083667066, 
            0.5924690827159453, 
            -1.8488479166774463, 
            -0.7532051676630196, 
            -1.2780941101943246, 
            -1.6453868005478913, 
            0.3500227709516492, 
            0.5379304716749574, 
            -0.6676760346740674, 
            0.6105994485064357, 
            1.6000701080138484, 
            -0.16688390243858978, 
            -1.2986026754884012, 
            -0.545006184818749, 
            0.8109839191763034, 
            0.7543065076127656, 
            0.4360263506217791, 
            -0.047069969604024084, 
            -1.3308509096739085, 
            1.042474416037116, 
            -1.3176444444866051, 
            -1.6820661840457614, 
            0.5372059054359466, 
            -0.4886387581167316, 
            0.5036705716678921, 
            -0.12179251124526619, 
            -1.002290181519271, 
            -0.641088804753542, 
            -1.4706147916480277, 
            -0.38833415805575267, 
            0.11293557118562741, 
            0.11327872674315574, 
            0.8544915532043268, 
            -1.4301453492788012, 
            1.2091339847279918, 
            -0.031260842779788654, 
            0.4265054691301826, 
            -0.04216981053918768, 
            -0.21698698370292385, 
            0.30873573959652467, 
            -1.073577634857082, 
            0.6114849306928701, 
            0.9452022992991863, 
            1.1246957239901199, 
            1.2410641879972255, 
            0.7586691823027404, 
            1.3738144990637988, 
            -1.176100821347625, 
            1.243066963045993, 
            0.2645632253946663, 
            0.06099379327883678, 
            -0.7165392496122115, 
            -0.3161447823611756, 
            -1.4541189867071496, 
            -0.09595729140846414, 
            0.4237917297003458, 
            -1.4268091817924446, 
            -0.7407285389666374, 
            1.9367350269865775, 
            -1.0189400497093712, 
            0.26419340434705585, 
            -1.1215223982661462, 
            0.044626288395223646, 
            -0.31206126476916063, 
            -0.8589091945579166, 
            -0.4934287941609444, 
            0.6304358023902316, 
            1.8851932086707457, 
            -0.48111337371431173, 
            -0.8412409638486035, 
            -1.0280357878242936, 
            -0.12651975815407673, 
            -1.213386118037595, 
            0.844698418699002, 
            -0.7338996037082683, 
            0.28523756601526945, 
            0.041581660248522605, 
            -1.5261817594351141, 
            -1.899174556301236, 
            1.6424460469435003, 
            0.6410088356395478, 
            0.042458330121927824, 
            -0.4524526159015969, 
            1.3699448483789909, 
            1.0910593143964775, 
            -0.3691836398072027, 
            0.26076441068502565, 
            -1.4307277214177174, 
            1.4051477563975783, 
            -0.21935018789876964, 
            -0.9376145040238429, 
            -0.18404276521725133, 
            0.3444300799724952, 
            1.8850534661349179, 
            0.16493312426324291, 
            1.538069727794662, 
            0.6457899650731538, 
            -0.6444931310958159, 
            0.29093430814095683, 
            0.9023590994632265
        ], 
        [
            0.04052604101376378, 
            -0.2377913548521433, 
            -1.5215581918603254, 
            -0.1287987159003443, 
            0.05857429752640421, 
            -0.09795436605888265, 
            1.2541639746034388, 
            1.3053527715697035, 
            -0.4233705695113666, 
            0.21240747040845578, 
            -0.3284123093234744, 
            0.9142273530882691, 
            -0.020913580478453854, 
            -0.0941213285049523, 
            -0.8664620106451432, 
            -0.3312261275691487, 
            0.5437467622987359, 
            -0.08812472208473163, 
            -1.5388585267569246, 
            0.5028821009014782, 
            -2.0684780443718935, 
            0.13628095621229727, 
            -0.2845670691189325, 
            -0.6185956028018856, 
            0.820788279502074, 
            1.0177468921115607, 
            -0.7416822375904242, 
            0.012506765491331565, 
            0.4220881949278077, 
            -0.6717529214053367, 
            -0.03222354092893463, 
            -0.13825181723731214, 
            0.6800162727612625, 
            1.1411074911645716, 
            -0.23432181344684153, 
            -0.44893955936879143, 
            -0.9235480483511672, 
            -1.1319335449454648, 
            0.2818637906284456, 
            -0.4112240379562462, 
            -3.380713025192054, 
            0.2544699836407604, 
            -0.9328316430649886, 
            0.5882753269649734, 
            0.6448003162396088, 
            -2.079911830632952, 
            -1.8630671499281337, 
            -0.07364224637987728, 
            -0.383478858345453, 
            -0.3802487586919764, 
            1.9074623845929117, 
            2.603811520547135, 
            -1.5377090666270976, 
            0.028698362398686807, 
            0.7763776631587489, 
            -0.47534650405551043, 
            0.833302804671202, 
            0.19413492070566396, 
            -1.435735781749266, 
            1.3748883676586312, 
            -0.9063300525839864, 
            -0.8381558862598302, 
            0.47608343843690876, 
            -1.3171910357150056, 
            -0.9808964625049017, 
            -1.285422538478113, 
            -0.2045483956907894, 
            -0.032018579365389266, 
            -0.32900040029351013, 
            0.6163692872896662, 
            0.5964766867775334, 
            -0.10088328219917886, 
            -1.887977564462938, 
            -0.4029094508295714, 
            -1.2622523286198066, 
            -0.2794507235656204, 
            -0.5289120133728763, 
            1.6073677989461765, 
            1.2564538844592026, 
            -1.0761926276021583, 
            1.3156812172909853, 
            -0.2350520852330927, 
            1.3148884895708175, 
            0.8436565069841454, 
            1.302708171739419, 
            -1.4374799002800203, 
            0.5710103979918486, 
            1.4369866184996993, 
            -1.7595376043763342, 
            -1.2269297171404048, 
            -0.6424070626506081, 
            0.0547563261922038, 
            0.4896256155837207, 
            1.790685005973981, 
            -0.012594927688734875, 
            -0.5331256428319954, 
            -0.01981315227711765, 
            0.8130046116389469, 
            0.9012901780575018, 
            -0.9606497544201883, 
            0.971289614856213, 
            -2.027451556848384, 
            0.40994501827822416, 
            1.3089765556296153, 
            -1.714859301010485, 
            1.0276546765042736, 
            -0.357643644101915, 
            -0.9715350957276415, 
            0.5385208272787018, 
            -1.053008499135685, 
            0.45518860068717026, 
            1.7210234225582088, 
            -1.0653930540621628, 
            0.7980153044515588, 
            -0.25261043675297784, 
            -0.06816434485667534, 
            -0.2384502321593033, 
            -0.8567031771600606, 
            -0.6580597286328808, 
            0.07638834402612275, 
            -1.4558060545689138, 
            -0.07877992905147879, 
            0.5021361676581837, 
            -0.34222704496355066, 
            1.019759247922413, 
            -0.28093113990495505, 
            -1.4064007407929424, 
            -1.0451936003959925, 
            0.011561752856731044, 
            0.01884095077136716, 
            -0.5072349235440171, 
            0.0007533030104790166, 
            -0.5870826107946121, 
            -0.9626745739763903, 
            -1.5605045549582974, 
            -2.4506035733727556, 
            1.0514698424537918, 
            0.44878398113016893, 
            -0.5655682470087366, 
            -0.5112833957144086, 
            0.35594754694133485, 
            -1.3317930096685728, 
            0.7262527768023771, 
            0.08265532876237672, 
            -0.41403036270638977, 
            -0.0507799957692174, 
            -2.1222742283486578, 
            0.4078196579735093, 
            -0.3844476298696883, 
            0.1168682523081831, 
            -1.6932101195153442, 
            -0.05516498889665562, 
            0.27587496873430095, 
            -0.776009651556166, 
            -0.060794322632239294, 
            -2.7710886264738046, 
            -0.7232158106730417, 
            -1.2190957106762461, 
            0.09505201216534197, 
            -1.7795988493062969, 
            -0.1574359811571633, 
            -0.8035675231866501, 
            -0.04954384247737463, 
            -0.9456885090055236, 
            0.7723207402816424, 
            -2.5677516076219797, 
            0.5748647563232774, 
            0.875677300558125, 
            1.2522724570416557, 
            -0.07948322182288894, 
            -0.478900738860028, 
            0.8812841733462763, 
            -0.08734319831639371, 
            -0.7735552379905971, 
            -1.1290010001414386, 
            -0.02018211259743496, 
            0.28523194586991324, 
            2.217248278138063, 
            -0.8440733587181224, 
            -1.585339119136237, 
            1.8193986780532105, 
            0.7914975588519607, 
            -0.3422000841893246, 
            -1.7150177141848095, 
            0.13029204935075947, 
            -0.6172353246300344, 
            -0.45172229640954115, 
            1.0837522335384608, 
            -0.6283622744857983, 
            -0.38134032726801703, 
            1.621117098670404, 
            -1.7511737983361029, 
            0.2524420585123572, 
            1.7682242097303338, 
            1.2639215079901487, 
            0.1777213546319953, 
            -0.30686990608394177, 
            -0.07192989269906967, 
            -0.13853781536678023, 
            1.259794201521016, 
            -0.3878538938201116, 
            -1.0750729434416222, 
            0.4681458551136274, 
            0.9980739179774447, 
            0.7581627697471585, 
            -0.8781781871521518, 
            1.3393708916193598, 
            0.10749657131509968, 
            0.4642306911222356, 
            0.7190629156084897, 
            1.0567018450286292, 
            0.6918945205949613, 
            -1.1141148496433493, 
            0.8693706283753881, 
            -1.3350163138627624, 
            -1.3813980712597678, 
            -0.972299240903658, 
            0.37465253217999817, 
            -0.2211398144423652, 
            0.49756136023032654, 
            -0.012012657715905024, 
            0.15907710827562296, 
            0.7545701085269959, 
            0.30342560092875775, 
            -0.28367136518811736, 
            -0.7640797673486063, 
            -1.050633743043805, 
            -0.22016905872291243, 
            -0.22138342643848927, 
            -1.7527056157350818, 
            -0.6003985310705626, 
            1.5777649382176286, 
            -0.7964856646302392, 
            -1.0031155798848526, 
            -0.7866212421645203, 
            -0.3737218088717955, 
            -0.7335947785052014, 
            2.002502830876063, 
            -1.0705844163204083, 
            0.2974333898710113, 
            -0.35697324066200203, 
            -1.0125450714385913, 
            -1.4843618305541486, 
            -0.5102973334477829, 
            -1.4647560139681823, 
            -1.4989039003991085, 
            -1.0648030745699446, 
            0.3043239003057947, 
            -0.519785361020253, 
            -1.03292991532207, 
            -0.4765458145453266, 
            -0.135607949294566, 
            1.6187629301399413, 
            -0.8620642124905219, 
            -0.22716891022072272, 
            -0.6573493969115202
        ], 
        [
            0.0946726948899801, 
            -0.9250610988472093, 
            0.7557493829943669, 
            -0.26238463923246574, 
            0.4339863318226935, 
            -2.1028912602464134, 
            -1.2804963069492585, 
            -1.046378423285652, 
            0.5409884370551018, 
            0.3197810802677373, 
            1.091330524871353, 
            -0.3721738031033266, 
            0.2003076967466237, 
            -0.6680921684080511, 
            0.17283982722287405, 
            -0.1976290472977799, 
            0.6342577910887154, 
            0.5159654457499727, 
            0.3920119708221059, 
            -0.8623375350373654, 
            -1.003998873608606, 
            1.0466814653731893, 
            0.5452309503045777, 
            0.8809327749072858, 
            0.6491773014590053, 
            -0.13709445007732282, 
            -0.5866436350727751, 
            0.09359581447933162, 
            -0.9211404590543059, 
            -0.5944025491376989, 
            0.6447427600489001, 
            4.045779119006407, 
            -1.0201692267794995, 
            -1.4767174072748943, 
            0.8194566796572902, 
            -0.20895075368840416, 
            0.9185659054451919, 
            0.2358718723193565, 
            -0.9959772402272883, 
            0.16458066647266104, 
            0.14024046002705032, 
            2.1835166408011473, 
            0.6012197070083776, 
            -1.290869606276343, 
            -0.21776665760491729, 
            -0.8769315392663736, 
            0.47614812164282644, 
            0.5981473859395111, 
            -0.8376292194395621, 
            0.6118959977280848, 
            -1.0853970074172454, 
            0.9620277231411802, 
            1.5606157478162355, 
            -0.9889719884695564, 
            0.12796709040983276, 
            -1.756393749366959, 
            1.0394640378531517, 
            0.7370360803320243, 
            -1.197155871319247, 
            -1.8721904925092459, 
            0.5793486700015412, 
            0.051835640175321496, 
            -1.6829850402271873, 
            -1.168147029348805, 
            -0.23264265770941028, 
            0.8299290774951991, 
            0.628898952880193, 
            1.3391569025838397, 
            0.3106433655876896, 
            -0.12719712363757493, 
            2.647657829258198, 
            -0.06877733077620686, 
            0.5965899147972885, 
            1.5536441309854812, 
            -0.7769338890410314, 
            -1.2849083869560167, 
            -1.6972354401163874, 
            -2.2121814952267846, 
            -0.7360793267897175, 
            0.2783534529676351, 
            -2.1560663855103868, 
            0.6082096905474625, 
            0.8344619451496997, 
            2.6510381550064173, 
            -0.6762937815052493, 
            0.07195723275613396, 
            -0.431169764548136, 
            -1.333945938760264, 
            0.06056517485283837, 
            0.5599592832561509, 
            1.123073157957635, 
            0.4148068266629216, 
            -0.04284046273785705, 
            -0.12832265814508306, 
            0.32041169273506354, 
            0.9982923662266232, 
            0.6507345635302834, 
            0.3796107781425026, 
            1.9666783109426351, 
            0.3605959530145021, 
            -0.13760715710022653, 
            1.6337292666940066, 
            2.2299061355430863, 
            0.4229267142159927, 
            3.0173627120245534, 
            1.3291794831744475, 
            0.8013475101306152, 
            0.5382909685614956, 
            -0.18327165364827525, 
            -0.7598073392947886, 
            0.2353285875420242, 
            -0.9521482259707221, 
            -1.4515348873499372, 
            -1.0908800370483756, 
            0.86626851473904, 
            -0.8814480539047289, 
            1.6649595946216864, 
            -0.3386366655119177, 
            2.1238495241374022, 
            1.0777750636595054, 
            0.4844356607107758, 
            0.06740408683817375, 
            1.2097932999117853, 
            1.4147741990083806, 
            0.2082110266979488, 
            1.063778933828731, 
            0.4509068077554145, 
            -2.110233092307729, 
            -0.5587848490078536, 
            -2.8407052297751916, 
            0.39372064793624345, 
            -1.234493396240488, 
            -1.167027643262918, 
            -0.4194003491956289, 
            2.1507007330953436, 
            0.39623357274075466, 
            -0.14620961554265346, 
            -0.97120724189075, 
            -0.6133798792666058, 
            -0.995212557269959, 
            -1.8786842154727754, 
            -0.14350486524168235, 
            -0.9412812960697845, 
            -0.011530073788616023, 
            -0.8579046366123538, 
            0.6812272651345718, 
            0.1511150431912978, 
            0.6805704067912904, 
            0.36769561551479607, 
            0.9618355499815905, 
            1.0013143107372888, 
            0.25697735112218395, 
            -1.2526956034080121, 
            -0.010694566067056604, 
            -0.36324075176088344, 
            -0.03314749848761003, 
            -0.29406314843945613, 
            1.1542206891581088, 
            0.611001215107026, 
            0.45637948022992136, 
            -0.780520305439477, 
            0.023728158954790506, 
            0.1337453249156821, 
            0.7732562808313851, 
            1.047627793208797, 
            0.4566671687034694, 
            -0.0603443637164476, 
            -1.7402196966028318, 
            -0.9780312985992027, 
            -0.5624985530170226, 
            1.642262020255487, 
            0.2173134257396177, 
            0.2668087639256908, 
            0.8921563677960405, 
            0.1657592252770177, 
            -0.265606706761374, 
            -1.0934271179406496, 
            -0.3418574405371894, 
            -0.8099222952596656, 
            0.4804301813469342, 
            -0.35566111919726756, 
            2.6590392169491053, 
            0.2503304336233186, 
            -0.4549956511780282, 
            -0.12311185638314301, 
            -1.3540532834160386, 
            -0.8664826729604279, 
            0.9293379090292643, 
            -0.6964741505900722, 
            -0.6092174371819712, 
            -1.6480081183914004, 
            -0.23891452595461848, 
            0.9049442770435427, 
            0.820914098543333, 
            0.7672423198818349, 
            -0.06865602574506778, 
            -0.2192108508582949, 
            -2.008859443219674, 
            1.2896483206710463, 
            -0.5836618277512553, 
            0.46727376805748916, 
            -0.014431565403729746, 
            0.1753397619147789, 
            -1.096165600214776, 
            -1.2781293564552951, 
            0.4663717304491253, 
            0.2765725455469071, 
            0.2444261269053275, 
            0.6119749436608358, 
            1.4301966582445866, 
            0.9247487106036785, 
            -0.930425780615177, 
            0.2671764043821484, 
            -0.7303365023029269, 
            -0.32086254116079677, 
            2.1892384712733914, 
            -1.1314198708123824, 
            -1.0942586330136053, 
            -0.6663075703843206, 
            1.1196948097407058, 
            -0.10155236163363701, 
            -0.723719701116113, 
            -0.7849375588236164, 
            1.6824980947506107, 
            0.7934011558650619, 
            1.1796977658952088, 
            1.4336354375451172, 
            -0.35329423425444095, 
            0.3784022846245684, 
            0.2912554055650572, 
            0.24421718765351166, 
            -0.32910595437079015, 
            -1.0985197182710182, 
            -1.4357907582112188, 
            0.13001472707675418, 
            -1.1693695207276928, 
            -0.6983674584870261, 
            0.25152496549977443, 
            -0.1085135922578332, 
            0.7859360310811527, 
            0.8028631071888495, 
            -2.0527702891756716, 
            0.6296524508279228, 
            0.6933021234617672, 
            2.1306851915049814, 
            -1.2573987873551336, 
            0.1030540056508093, 
            1.2021506147461933, 
            -0.4204632972821298, 
            0.2760847463146398, 
            -0.9054418533529556, 
            -0.46168868366846366, 
            0.00043298239087180985, 
            -0.4931597457641834, 
            -0.7086819796404054, 
            1.1939170848930143
        ], 
        [
            -0.1350831547684173, 
            -0.6659100760540839, 
            -1.7869612285828083, 
            1.3509918241477203, 
            0.4944721890567481, 
            0.23550324385335447, 
            -0.08113833481457434, 
            1.2462058609648663, 
            0.07789957402755435, 
            -0.6939130088105102, 
            1.1771134806752395, 
            0.7877915016888821, 
            -0.5160132900902022, 
            1.6735435538096832, 
            -1.417445700094897, 
            -0.28058936007930385, 
            1.0232286331368656, 
            0.11645670520944376, 
            -0.23744542776061153, 
            0.3377660262610723, 
            0.7081922494360632, 
            0.806076607736544, 
            -2.0951067862815616, 
            0.24480034893844896, 
            -0.13952468190422593, 
            0.38404877401811693, 
            0.5545870990831075, 
            1.1639307084625587, 
            1.7807515198417805, 
            -0.9374108531005946, 
            -0.13633816652590192, 
            0.3224522615623352, 
            0.34263512399858015, 
            -1.4252197812745104, 
            -0.6526264997494998, 
            0.6826033245619981, 
            -0.21941285670253888, 
            -0.34953567867671265, 
            1.0515655206409547, 
            0.5188910160811211, 
            0.6762606033783273, 
            -1.124218954286346, 
            -1.211200115263453, 
            0.18219671294999643, 
            -0.3882182358606951, 
            1.5548064431878905, 
            -0.7062498497483412, 
            0.1101557827997121, 
            -1.660581846892687, 
            2.2844790013818423, 
            0.5708245780504818, 
            -0.05354433789145985, 
            0.5684202565087577, 
            -0.48056398045253984, 
            1.4931395353633132, 
            -0.4761175559835377, 
            1.1131381901951756, 
            -0.7565480586793716, 
            0.41635422144490847, 
            -0.5274375387778769, 
            0.18112782875267933, 
            -0.24361203444685461, 
            2.0957757845163285, 
            -0.030034197905603584, 
            0.1557292464739142, 
            0.29221865683018355, 
            1.4404114988267265, 
            2.2294795419094298, 
            1.084345441104439, 
            -0.47063582605224236, 
            1.4505721425164713, 
            -0.42085472354710224, 
            -0.46756292307595787, 
            -1.6169768383448047, 
            1.187139705959294, 
            1.420605733963597, 
            0.9937055247177888, 
            -0.21612760370546263, 
            -0.9743759906705092, 
            0.3880774010258325, 
            1.6409381240971241, 
            -1.0338431944577215, 
            -0.06729782067147379, 
            0.9631309882185529, 
            1.172337476872406, 
            1.6500739704806995, 
            0.1304870475847152, 
            -0.6878251285820841, 
            -0.5984728348138963, 
            -2.0903951617397785, 
            1.4692851914186522, 
            -0.8392024896537228, 
            -1.4089107253893045, 
            0.7584494358243463, 
            -0.3550660865561231, 
            0.10443048433747104, 
            0.7626973401298194, 
            -2.2294855163503615, 
            -1.1364519715485017, 
            0.21709436265044968, 
            0.12604015558580697, 
            -0.9576800774020406, 
            -0.5763945938037413, 
            -0.7690439312091853, 
            0.24034739952219683, 
            0.26055695373430915, 
            0.7302958479564984, 
            0.29417891854146816, 
            -1.188390671926219, 
            -1.6383227530913835, 
            0.0852198621844123, 
            0.8354616387401256, 
            0.6644992328417983, 
            -0.6667064909990645, 
            0.6011277105486501, 
            -2.3574003207758625, 
            0.1420784604151584, 
            -1.1806547302400545, 
            -0.27217281258203413, 
            0.10878606785305549, 
            0.8508858722734187, 
            -0.6759116396579445, 
            0.0897136647130014, 
            0.3537460654343629, 
            1.060545500149234, 
            -1.8693962165439633, 
            -2.428936271824672, 
            -1.5415903814126228, 
            -0.6290908390151146, 
            -1.490442900200139, 
            0.9044565532574201, 
            -1.0666166469530731, 
            0.010414656640056391, 
            -0.4614831743845878, 
            0.32286097375048006, 
            0.8817968177942859, 
            -0.1262051437303937, 
            0.06724813280234422, 
            2.1476547615565105, 
            -0.7870270801817302, 
            -0.3935272891446337, 
            1.3611826279656258, 
            -0.3154595558867835, 
            -1.9569134897383784, 
            0.9764789863240775, 
            0.5894612119822735, 
            -2.8265607713542824, 
            0.6416579351323877, 
            -1.829887087026755, 
            -0.8331109260627295, 
            1.7589767959890448, 
            1.1528457067376385, 
            -0.567621004915411, 
            0.6592797906464588, 
            1.4439199984127853, 
            0.022589938657672448, 
            -1.4483050943989515, 
            1.2029445833330261, 
            -0.7575902398730316, 
            -1.3053399344789611, 
            0.960194352270674, 
            -0.28009775450253166, 
            -1.0867140953071586, 
            -1.3601151562805938, 
            -1.4724158876125546, 
            0.7537578354139534, 
            0.1116674271206429, 
            0.7869227383152246, 
            1.4185515702077633, 
            0.3274029737505671, 
            0.5212860809549668, 
            0.5608817197266519, 
            -0.5900331978054767, 
            -0.6722874863452816, 
            2.085974276264985, 
            1.2821946066014749, 
            -0.2467494051978397, 
            -0.08845482140201888, 
            -0.7790247294374374, 
            -0.467594617729979, 
            -0.7003942755592436, 
            -0.4925158814070839, 
            -0.0776519319603169, 
            -1.5139421782379947, 
            -0.11414025539751434, 
            0.5394742824001335, 
            -1.1718034855783468, 
            -0.31615856848768914, 
            2.1586063427698785, 
            0.15345143905018996, 
            0.7439600367649144, 
            1.0876200595746215, 
            -0.932188507580062, 
            1.2601263278530057, 
            0.25270517316802943, 
            -1.9645469573717178, 
            0.9881685699057553, 
            -0.9832061107271962, 
            -0.7838363804593356, 
            -0.3824204829638522, 
            0.28616337507373585, 
            0.4393587743408207, 
            -2.129608221647507, 
            -1.1258759725746352, 
            -2.8401453091116435, 
            0.2731901381463318, 
            2.74017627570361, 
            -1.2223782156634861, 
            1.1597042533495245, 
            -0.4862000993767489, 
            -0.2193144915139616, 
            1.9264396008041655, 
            -1.9432521779125285, 
            -0.506092876122928, 
            1.2674849838421234, 
            1.2790165574146208, 
            -0.6431556293827936, 
            -1.1904773415474037, 
            -1.3955517015331667, 
            -2.1292913229392965, 
            0.7195774378745622, 
            0.12276966773139991, 
            -0.12228030563748998, 
            1.3584480658424432, 
            -0.5448304123682906, 
            -0.6806399708669812, 
            0.6291842384948887, 
            0.014993838634515854, 
            1.6168376286237272, 
            -1.0774320593232947, 
            -1.48948023789081, 
            1.333757028674187, 
            -0.38460969664534295, 
            1.7435277862118197, 
            1.2506618236474907, 
            1.3677592670400338, 
            -0.7990085245142857, 
            -0.028105893327070045, 
            -0.9211739946602546, 
            2.757257503736809, 
            -0.05100593347925574, 
            -1.4653838454072523, 
            1.8221731195848312, 
            1.0119438118013244, 
            -0.7080957067577024, 
            1.3005792228969149, 
            -0.7355105271638882, 
            -1.3574643855682988, 
            0.9071505636247766, 
            -0.3873684340450916, 
            -1.3794823300123484, 
            -0.5388733437452199, 
            -3.164691271960494, 
            1.035753326965452, 
            -0.06676955882853822, 
            -1.1213159102450463
        ], 
        [
            0.6368519094529358, 
            0.6882064462912684, 
            0.43926226358109105, 
            2.446243261680983, 
            0.7086293668062471, 
            1.5906749033679022, 
            0.8951254705728391, 
            0.37258812114665313, 
            -0.7535833845708316, 
            0.24454870993459427, 
            1.6588606091990719, 
            1.1959539308230442, 
            0.28705652554070676, 
            0.6804991701191145, 
            1.7389952227976522, 
            -1.126658922350423, 
            -1.0931594610844713, 
            0.8965385258695932, 
            1.5706490462271483, 
            -1.4832778816743322, 
            0.3034500521549407, 
            0.6815170674040131, 
            0.4232737749251521, 
            2.2867994241889535, 
            0.24437124761996537, 
            0.39204901932927333, 
            0.48731953645293735, 
            -0.5614416680609906, 
            2.096544603323856, 
            0.09037073365785897, 
            1.9398203485607945, 
            1.248213211586109, 
            -0.4788321097329709, 
            -0.326676783755762, 
            1.528311328948839, 
            1.505855137728707, 
            0.7412579683750842, 
            -0.19288268751248158, 
            0.1733297436518433, 
            -0.04651789851906051, 
            -0.3399608014710216, 
            -0.9802520049704965, 
            0.19611285519836816, 
            0.013858740669511637, 
            1.0192461954440424, 
            -0.649668239973889, 
            -0.5485074427849354, 
            -1.1447650245802024, 
            -0.688917460368459, 
            1.3854168789725108, 
            -0.7453755346831743, 
            -0.4907671842265142, 
            -1.4437280712483784, 
            -0.09352410637210853, 
            0.7789530918832378, 
            0.6553404850384448, 
            1.2707535175238553, 
            -1.2453123531063934, 
            -1.2322619205349798, 
            0.255649070826246, 
            -0.30610482970427816, 
            -0.10847497153943769, 
            -0.7104147926228442, 
            -0.23620384171893818, 
            0.6839539870826215, 
            0.5097435718548442, 
            1.2221417067876574, 
            -1.6467159059709244, 
            0.789749376990398, 
            0.15562276967713204, 
            -0.7065346803844729, 
            1.09618232063087, 
            1.2432754127047132, 
            -1.0623410590705966, 
            -0.15845734491797783, 
            -0.2768291768929953, 
            0.21404331601411214, 
            -0.8703615442434061, 
            0.09745712958684197, 
            -1.2630372938799936, 
            1.2695891623176583, 
            -0.3100221565414078, 
            -1.3245056131155737, 
            -1.7877306970460096, 
            0.8998813815535445, 
            2.010192978624583, 
            -1.036830088131715, 
            -1.5694930785818277, 
            -0.814448479724317, 
            1.2051006324698328, 
            -1.8198297624847837, 
            0.7436386025120114, 
            0.01697619435161152, 
            -2.34624931325675, 
            0.8452842925794052, 
            -0.8788994845411744, 
            0.6931231512170682, 
            0.7894655666919255, 
            0.8446170856228121, 
            1.4111197259380281, 
            1.0297014218226077, 
            -0.354676923572203, 
            0.18517823120722943, 
            1.3774440868001667, 
            2.201108104470678, 
            -2.041705879675321, 
            -0.8162383645002298, 
            0.13134443671991225, 
            -0.13736249074154444, 
            -4.025718715455206, 
            -3.0499337301157534, 
            -2.5340143589736877, 
            -0.11252097955709386, 
            0.7742705267525529, 
            -0.4902460308241461, 
            -0.2077871625401299, 
            1.329262530017543, 
            -0.8809665951429677, 
            0.4269679464310917, 
            -1.6755953240283796, 
            0.6543452530998459, 
            1.313590464630528, 
            0.9458817816169773, 
            0.3854796572029492, 
            -1.6674865126608347, 
            -0.6403497702410931, 
            -1.1806631298245032, 
            0.037046745653807625, 
            -0.6320345003002643, 
            -0.11329950034314626, 
            2.0068800736801897, 
            -0.29891585382197267, 
            -0.04161006725888143, 
            0.24811347830214348, 
            1.3615495379614435, 
            -1.7221013362792592, 
            0.07577555375385168, 
            -0.9503400629331651, 
            0.3253694659510925, 
            -0.6426966575123807, 
            0.861381061159739, 
            1.3723417720980762, 
            -0.1291514303961862, 
            -0.1352054833906357, 
            0.6887107507434265, 
            0.6693163764382878, 
            1.059872199569264, 
            -0.826884784183657, 
            -2.2310890531904186, 
            0.8645279096872122, 
            1.0150499060118006, 
            0.009424258011105956, 
            -0.6404197596750034, 
            -2.674434773020282, 
            0.5454145325247903, 
            -0.16706565876843188, 
            -0.652835123841352, 
            1.7553147309720056, 
            0.3967090545814662, 
            1.4834143062838765, 
            1.348860733305735, 
            -1.1914550142028497, 
            0.47560157788879986, 
            -0.5975733414027401, 
            0.5822936835319209, 
            -0.8215376341748063, 
            0.9723084042281447, 
            -0.2501436369245975, 
            1.0421472279158799, 
            -1.8831674147360866, 
            -0.059352445290707184, 
            1.1674491192442076, 
            -0.7810169649722678, 
            0.5329601919903194, 
            -0.9391255456739025, 
            0.08925026945205443, 
            -0.4726381355824782, 
            -1.3606922061874054, 
            -0.7148497303801467, 
            -0.06901963327072552, 
            -0.12187045385137608, 
            -0.3076756493526014, 
            0.4368631772196357, 
            -1.6888742637245129, 
            0.1475764479855801, 
            -0.7110636992659178, 
            0.5437430364640281, 
            1.971672677361137, 
            -0.5893155072328876, 
            -0.554656611637028, 
            0.22269104258408295, 
            -2.0127171756403786, 
            0.21617994704122684, 
            -0.36612429986262035, 
            2.112571274600495, 
            -0.7150873539100557, 
            0.9393525846327692, 
            0.17773569161068303, 
            0.39626131374383916, 
            -1.154364605389355, 
            0.0010503172636738079, 
            -0.0633344373570349, 
            1.1251437099037902, 
            0.8779096535048914, 
            0.6486565709481772, 
            0.5216999804936023, 
            -1.717025039814846, 
            0.45581650709254934, 
            -1.0534057705255415, 
            -0.10966251188220713, 
            0.5389442957259056, 
            0.3772834835634673, 
            0.7034679320223253, 
            -0.40116783112241916, 
            1.0093414757447674, 
            -0.22584587225688565, 
            -0.6421268999615772, 
            -0.582702409650527, 
            0.9839802126710776, 
            0.15801731339517563, 
            1.5690039709990589, 
            -1.1196100029579577, 
            -0.029760094845264738, 
            -0.11894017893599816, 
            -1.049434829772925, 
            0.2607617504809881, 
            -0.2757947782378865, 
            -0.23859868104207332, 
            -0.7017803212762054, 
            0.9449625926189364, 
            0.1237015996647478, 
            0.061863608807712134, 
            2.027594217377313, 
            -1.3100740945208442, 
            -1.556711736985045, 
            -0.1869525262679966, 
            -0.76870761150435, 
            -1.0127836150397571, 
            1.8800344267946205, 
            -0.44759204247358464, 
            -0.7118051160070438, 
            1.1274926826932394, 
            -1.3462350131709842, 
            -1.512218624342883, 
            1.8544994374414174, 
            0.37060920155845034, 
            0.10501183932892763, 
            -0.24611375476925818, 
            -2.048223728912215, 
            -0.17869937784006765, 
            -0.8845319722583208, 
            -0.8894215493020564, 
            0.845075420668096, 
            -0.4313752893873408, 
            -0.6226023806399555, 
            -0.8932372882805728
        ], 
        [
            -1.5228794948567344, 
            -0.6958043104415375, 
            -0.256868943069024, 
            -0.8317310510442822, 
            -1.8485007384300305, 
            -1.0932882932779127, 
            0.3421499925022262, 
            -1.575824019545351, 
            1.306085073008507, 
            1.1375946907590972, 
            -1.1176397034866, 
            0.28746583009323046, 
            0.18821942314522658, 
            -0.49256850735430013, 
            0.03546464702120709, 
            -3.070554005135263, 
            -0.39045979366353845, 
            -0.13518531500613012, 
            0.17896004948827693, 
            -0.7201399216076956, 
            -1.1437846176451727, 
            -0.6211293854235194, 
            -1.087108691517799, 
            -1.3235839676734873, 
            -1.6182659694815262, 
            -0.7964002376323993, 
            -1.0917027437925482, 
            -0.8889319070291871, 
            -0.5031629548539764, 
            -0.12431098261172263, 
            0.5017690233459855, 
            0.28634303631935704, 
            -0.07067283100525308, 
            -1.0761600218097505, 
            -1.2882970179692703, 
            0.1239590047988581, 
            -0.22178290840563336, 
            0.5654564217791611, 
            -0.09813117547102633, 
            -1.9372973751974099, 
            -0.9683673080189774, 
            -0.2156389279011283, 
            0.4571793442852137, 
            1.6877903291853733, 
            0.3436701171667201, 
            0.24435330099724764, 
            0.0177818132666106, 
            -0.2930386680155498, 
            1.1277873597374959, 
            0.8464402076164886, 
            -0.591572153094094, 
            0.4269752053056364, 
            1.2418879636926554, 
            -0.16111332840957387, 
            1.2290751840115837, 
            0.023416904849049826, 
            0.23346702612311263, 
            0.8817874892263828, 
            -0.38163735799848, 
            1.7857223966718314, 
            -0.44234645279306173, 
            -0.15369250939898968, 
            -0.8162947945838619, 
            -1.3742969235697675, 
            -1.1872303757424896, 
            0.16346666045029007, 
            1.0091156496906852, 
            -0.46121866736810985, 
            0.6773191073303425, 
            0.5659840355837304, 
            -0.32477603986758125, 
            0.1465751726017228, 
            0.9349939749271312, 
            0.5262625475291692, 
            0.41851375794746676, 
            0.2519333242249681, 
            -1.7968087530535093, 
            -1.9516563644998315, 
            1.0262816580750578, 
            -0.5832641609963081, 
            0.17365207249972917, 
            -0.40084687578848444, 
            -0.3665279004458626, 
            1.3001501545877496, 
            -1.6205783130326035, 
            0.9194856242054288, 
            -0.43858008272963467, 
            0.22237112767901368, 
            -0.7577264815769258, 
            0.7459645255972926, 
            0.054980667430783815, 
            -0.32997738366126467, 
            -0.4279779470648253, 
            0.4717497930386222, 
            -1.2645184269803753, 
            1.6853330883084785, 
            0.7243841691818727, 
            0.9843459747776967, 
            -0.8441809314074875, 
            0.47851261470266987, 
            0.9002092037717119, 
            1.4373531094112335, 
            0.3790286335391914, 
            0.6686387222315772, 
            1.1328985956545978, 
            -0.31785063670952274, 
            -0.3414388168388599, 
            0.1676323857984092, 
            -0.4898227031814747, 
            0.9148763137897964, 
            -1.0606659634171325, 
            0.2590302781664467, 
            -0.6505004690384633, 
            0.18335415996962676, 
            0.8849928662338387, 
            0.5090024272389956, 
            1.6882070004848144, 
            0.6829733269185394, 
