{
    "layer_1_bias": [
        [
            -1.765047520295186
        ], 
        [
            1.075988916171652
        ], 
        [
            -1.0058294033451174
        ], 
        [
            -0.7874017161373141
        ], 
        [
            0.25199149752705613
        ], 
        [
            0.49196595686359945
        ], 
        [
            1.454927211692991
        ], 
        [
            -0.15247763827468405
        ], 
        [
            1.3239622461146061
        ], 
        [
            0.03504705654979787
        ], 
        [
            -0.028733856381713736
        ], 
        [
            -0.4224750804627756
        ], 
        [
            -0.2499577469027033
        ], 
        [
            1.6402191410531732
        ], 
        [
            -1.2068923550466402
        ], 
        [
            1.9391314144404341
        ], 
        [
            0.016696761619585988
        ], 
        [
            0.5570271679435936
        ], 
        [
            -1.541692656369931
        ], 
        [
            -0.8139575883597279
        ]
    ], 
    "layer_1_weight": [
        [
            -1.4815636824786012, 
            -0.3281686547058092, 
            -1.1677943205770067, 
            0.47490801751482964, 
            0.7258281314196275, 
            -0.6446127907684204, 
            0.2668671124438204, 
            -0.47679092616046576, 
            0.15437614852469417, 
            -0.43969574327871963, 
            -0.27254973121759135, 
            0.03577894062983436, 
            0.34665510496663204, 
            -0.9622823565894457, 
            -1.0196498758494463, 
            -1.1372690338644054, 
            1.153865363439218, 
            0.3485946145259186, 
            1.0181533894456976, 
            2.7502066739696582, 
            0.5834847685265543, 
            -1.9676562437499951, 
            0.7642688068260224, 
            0.05262510329485695, 
            -0.3409388798813614, 
            1.383528643737621, 
            -0.572373468717501, 
            0.5299846864535407, 
            1.4634680894595695, 
            -1.290167431406466, 
            -0.1254714629433416, 
            0.8951179747208643, 
            -1.7119975513081642, 
            -1.2629468894319995, 
            0.1872996701934683, 
            0.42161233137365695, 
            0.7495126493951809, 
            0.4393404262573038, 
            0.6548178653311484, 
            -1.2413161936049946, 
            0.9181294883250096, 
            -2.512769109940789, 
            -2.2445780599984917, 
            0.2700380974537175, 
            0.8599301310027356, 
            0.4287833786892152, 
            0.9558943408201123, 
            0.34274223526632136, 
            -0.28676210986644945, 
            -0.11602333169514625, 
            1.0695348377904983, 
            -0.6914983864162647, 
            -1.559495545486627, 
            2.1818874398649157, 
            -1.2069834040090923, 
            0.6918222214034051, 
            -1.2068932476031657, 
            -0.4407642517524905, 
            -0.6189054961045141, 
            0.1351350714850397, 
            0.9937093358585226, 
            0.36767718930426285, 
            0.8298606302545949, 
            0.13114544491489524, 
            1.803342837827215, 
            0.02700097551713494, 
            -0.5609888408682564, 
            -0.5223098285802609, 
            -0.09486335609127018, 
            0.2521247499046514, 
            -0.7756534998813436, 
            -0.9560506691658189, 
            -0.10934585360442216, 
            -0.730657541686995, 
            1.8348060014511907, 
            1.7787158898451731, 
            1.0305299175797233, 
            -0.13100756211054718, 
            -0.9521994004840555, 
            1.0868717314378824, 
            -0.9171620304214889, 
            0.46470363352171257, 
            0.6289782169698175, 
            -1.9798151323080049, 
            -0.7602608938177441, 
            1.1721906583922326, 
            2.0317091790289625, 
            -0.08738976041040179, 
            1.3914413790335178, 
            -0.8458972405627242, 
            0.240038490494179, 
            -0.6750006423544279, 
            1.0310552897522727, 
            1.178472396171473, 
            0.7071493533811519, 
            0.8485491804470126, 
            0.18400782058282014, 
            -1.06920684195959, 
            -0.5104889127423838, 
            -0.7078315129492584, 
            0.7539228902401572, 
            -0.09601762430178738, 
            0.2557748367228219, 
            0.08549342985753636, 
            -0.5702944922354275, 
            -1.3968292125962933, 
            0.08772541684985352, 
            0.7212700056736364, 
            0.43723383208202854, 
            0.7980384277625987, 
            0.3207704928312686, 
            -0.15362300622067346, 
            -0.6584358500945579, 
            -0.2193492552022189, 
            -1.8647811433229564, 
            1.7413629548527656, 
            0.04353387810445682, 
            -0.7826050726923892, 
            1.1277871182460295, 
            0.2366463393325374, 
            -2.2127857991094517, 
            0.5769380858250484, 
            -0.10748270733523728, 
            0.9114117047150224, 
            1.2485634885191863, 
            1.5018397762553128, 
            0.020606383948377133, 
            0.19348998142814008, 
            -0.5867925101587832, 
            -0.5701640211828314, 
            -0.3764967162389766, 
            -1.093282118451204, 
            -1.8643030770653684, 
            -0.7174241735817014, 
            2.02847621565999, 
            2.0665046780709657, 
            0.016309709700878267, 
            -3.1552531834833184, 
            -1.2868943402379855, 
            -0.4899623966805788, 
            -0.8431367849701707, 
            1.645114074214099, 
            1.6070541587041107, 
            1.395527272530524, 
            0.11170240625169335, 
            -0.3330578846830517, 
            -0.6262015395965116, 
            -0.6957351960273369, 
            -1.8210020401974507, 
            -0.41927595225186093, 
            0.6255306139350935, 
            0.043055677811503795, 
            -0.49609307517400847, 
            1.4971463731750045, 
            0.1575228143915492, 
            -0.30252389432608445, 
            -1.0026901049151749, 
            -0.06369565300566384, 
            0.14671381455523588, 
            0.39977757165534833, 
            -1.2744692332875431, 
            -2.320232370177662, 
            0.8074877941274625, 
            1.1347631135284597, 
            -1.9214413496692386, 
            1.8357094091419206, 
            -0.041650786836886354, 
            -0.07416408617827216, 
            -1.365420945909044, 
            0.9162602541763384, 
            0.0005608223206188883, 
            -0.4075945746671315, 
            -0.33492364328303004, 
            -0.3902826935448174, 
            1.4477992794442005, 
            -0.20759290552491372, 
            -1.1366000660243167, 
            -0.07134549456608671, 
            -0.1786419836616794, 
            -1.479613914328165, 
            -0.12656373488635658, 
            -0.9405460294948356, 
            -0.18019400423255555, 
            -0.6611144131456155, 
            1.5168309320364628, 
            0.4992465602503017, 
            1.0934075070859826, 
            -1.75166500597835, 
            0.4489147574713351, 
            -0.8426600808572139, 
            0.8450262057936586, 
            -1.1185030339101154, 
            -0.3289365212131257, 
            -0.4954707108851867, 
            -0.41039013789826545, 
            0.14904796434406822, 
            -0.2946741858548678, 
            -1.3309042813170302, 
            -0.9229287149611309, 
            0.12675123037159639, 
            1.374620880504717, 
            0.5516353494845513, 
            -0.41102917130784106, 
            -1.9301230715205284, 
            0.07468714281528431, 
            -0.4798037080046682, 
            -0.8749689547060681, 
            0.6138631444089538, 
            -0.5131156072363195, 
            1.0289778026994352, 
            -1.1678769176434445, 
            -1.017070736663395, 
            -1.2495590484120007, 
            0.2759912858886769, 
            -0.3730797936129899, 
            -0.6496622596791133, 
            -0.55902250552828, 
            -0.9129007391990477, 
            -0.3642603291111344, 
            1.5829700050143982, 
            1.3826748216057203, 
            0.564559211001813, 
            1.417121590405561, 
            -1.7918325659045145, 
            0.24492551835125992, 
            -0.07325915339325174, 
            -0.3092356395278079, 
            -0.13066889650355656, 
            0.9516984336275872, 
            1.2061863852002377, 
            -0.4720509514708299, 
            -1.8348265180057217, 
            1.1971158867662701, 
            1.8873655747387157, 
            -0.6161367000577871, 
            -1.105472964491435, 
            0.4325705799397493, 
            0.3335077101521435, 
            -0.4178667839037555, 
            -0.45629237417881685, 
            0.43411559122880355, 
            0.5399851831235374, 
            -0.5299187602038063, 
            -1.973890670812442, 
            -0.8573045055423605, 
            1.244249398320158, 
            -0.9203419445168324, 
            1.5914668467272293, 
            -1.7271499428969854, 
            -0.7038781996792793, 
            -1.847417683173888, 
            0.6305491358950198, 
            2.6621610286591206, 
            0.5980529737788638, 
            -0.003369843447750234, 
            0.3215287387729091
        ], 
        [
            0.08455084791968971, 
            0.3728977319080329, 
            -1.9604788717100048, 
            0.8695639498046055, 
            -1.3657061684986913, 
            -0.9062963910198658, 
            0.6866271968080632, 
            -0.5295375054679303, 
            0.5938624524787353, 
            -0.33123944889951756, 
            -0.6083899273268786, 
            -0.04725329346030366, 
            -0.723099961363476, 
            0.019216603782249663, 
            0.026069549176354803, 
            -0.9657908890243679, 
            -0.7426542670880807, 
            0.5975332841250344, 
            -0.45138581098905156, 
            -1.1963819476547368, 
            0.1372134037063473, 
            -0.588353640057453, 
            0.0279041142293429, 
            0.5519399872536493, 
            0.027101310706397867, 
            -0.6493215336757617, 
            1.2861980911946593, 
            -0.46667306469245423, 
            0.5995120653366144, 
            -0.8912758559647856, 
            1.6973920682003454, 
            0.1527935802083838, 
            -0.534593908529457, 
            -0.22408217310604608, 
            -0.6396423063064351, 
            -0.4665555777907643, 
            0.4950191574300975, 
            2.0554677984454184, 
            -1.6772763802381854, 
            -0.08129539773427825, 
            -1.067414994815435, 
            2.3978077430834546, 
            -1.0081245363410418, 
            -1.3550260615080463, 
            0.41308879724973363, 
            0.4339144599519197, 
            0.32441458898263215, 
            0.8193254064903992, 
            1.927771918201307, 
            0.34501586109798993, 
            -0.1783963796429149, 
            -1.8632816125143532, 
            -0.5164837014301289, 
            -1.772360148469149, 
            -0.7175862024456455, 
            -0.4217870036305088, 
            1.8461571037197222, 
            0.38491119537183605, 
            -1.1434621157059075, 
            -1.3155612596328232, 
            -0.3078645981350869, 
            0.0010746831710078289, 
            2.364227818842043, 
            0.41705545391950466, 
            -0.1426029120616389, 
            1.202188205832094, 
            -0.8219004118981464, 
            0.38555378182709965, 
            -0.6479191301145826, 
            0.5888527576088626, 
            -0.9599558955440495, 
            0.7853120302126194, 
            -1.9521954093241725, 
            0.6525706350727143, 
            -0.7599197703613272, 
            -1.0944102893840175, 
            -0.29848694558304223, 
            0.06511686075852316, 
            -0.10039909024842512, 
            1.360054332294597, 
            -0.09705200239442661, 
            0.17582684095492135, 
            1.0925215141219156, 
            -0.8937559583072003, 
            -0.2474014502040497, 
            -0.21443161666779623, 
            -1.2712574639602159, 
            0.1387152197083536, 
            -0.9705844010818131, 
            0.9179643416169389, 
            -0.10474830283361058, 
            -1.237471583049271, 
            0.7304765447922554, 
            0.5812716486976994, 
            0.852600147973121, 
            -0.6133505193707536, 
            1.0018087267665432, 
            -0.5511860293587322, 
            1.4799350091557626, 
            -0.9708487370499732, 
            0.7101015714809065, 
            -0.9389533927811818, 
            -0.005384487922036514, 
            -0.5366341782569827, 
            -1.8624000565546042, 
            -1.6107751737691383, 
            -0.9360028625714242, 
            0.22406728772989604, 
            1.282270897220248, 
            -0.9613360479380569, 
            -0.9261094373162518, 
            -2.7653009885313105, 
            0.6532985010600154, 
            -1.2521819299642256, 
            -0.8696440070140878, 
            -0.3391477624848083, 
            -0.13136817372650372, 
            -1.0278488943306865, 
            -1.4615552590132976, 
            1.4950298428062507, 
            -0.5998619813541664, 
            0.9458574009580333, 
            1.4814514948021758, 
            -0.5385810976090144, 
            -0.8376122902401725, 
            0.339927060591308, 
            -0.3695260993421651, 
            0.8911237358844005, 
            -1.3438556687056542, 
            -0.5667846155550471, 
            1.629511447609647, 
            0.0766440119183098, 
            -0.011390092790163163, 
            -0.3767165891768576, 
            0.015834860918057032, 
            -0.3571204894458574, 
            -0.931011814145842, 
            2.5491418938632897, 
            1.0450744803517507, 
            -0.5882252903072804, 
            -2.216486155243112, 
            1.4440731590216518, 
            -0.07081908425550426, 
            -0.9950578767335654, 
            -0.44391056847013216, 
            -0.2251254085540291, 
            -1.2313510308921751, 
            -2.4627051016996933, 
            -2.707513154300581, 
            1.627381485197282, 
            0.1424592887346452, 
            -0.7706154870544407, 
            -1.1197150852728757, 
            1.417110912029185, 
            -1.1362590685458491, 
            -2.019081493288803, 
            -0.6084218969966081, 
            1.1779315631419194, 
            1.1610558106217814, 
            0.33547617344051706, 
            0.9646974307481159, 
            -0.21587290132450207, 
            -0.008342731520164489, 
            -0.2661730332786925, 
            -0.14561277454269092, 
            -1.829571560088016, 
            1.696488781115857, 
            -1.2895756001622452, 
            0.24628502958176712, 
            -0.43859496203108833, 
            -0.2554721382896996, 
            -0.7935280914041802, 
            -0.1669381406290765, 
            0.7068559241079966, 
            1.7268935678868527, 
            -1.0533196198939938, 
            -0.4355760334453796, 
            1.1674472240271303, 
            0.1236213052503622, 
            -0.9845650866391832, 
            -0.5319544664193675, 
            1.28920529594316, 
            1.143628315207926, 
            -0.03677942131066496, 
            1.0354032614306825, 
            0.11718103483306909, 
            -1.9813037056311238, 
            -2.4677039812148536, 
            0.6386596360959954, 
            0.6805699253606111, 
            0.13791454358314134, 
            -0.59098677947658, 
            0.7029552244497508, 
            -0.7765458035205685, 
            0.24696369380747737, 
            -0.4481819129868605, 
            -0.5588227117195067, 
            -0.123361276110941, 
            -0.6014312743902707, 
            -0.10507774581700999, 
            0.08507326267270715, 
            0.06618939965660721, 
            0.6430344476815838, 
            -0.1178654247541596, 
            -2.0576915479559728, 
            1.151430900491358, 
            0.5897051915195048, 
            -0.6848472724870939, 
            0.6929507805497249, 
            -0.8416582496451825, 
            0.26122171446292836, 
            1.006514087723956, 
            0.05080698080152233, 
            -0.2691099508574729, 
            -0.3839347915017892, 
            -0.9196750043328644, 
            -0.18553332018578936, 
            1.5975102775637717, 
            -0.8219458450380598, 
            0.12404227872940635, 
            -0.7884931816214069, 
            -0.5070630464689623, 
            1.2554254437134396, 
            -0.834352381517925, 
            -0.6571088924280203, 
            -1.1761480956432926, 
            0.13037358201265192, 
            0.7278719120891837, 
            0.20850325986891588, 
            -0.7899395003408964, 
            -0.9818398323786646, 
            1.1169723686722768, 
            -1.748232192862002, 
            -0.5272789673325667, 
            -0.3102317390165893, 
            0.37269129111484905, 
            0.7206763790269495, 
            -0.5970309296044337, 
            0.10289640234708022, 
            -0.10267596762868324, 
            -1.93779207686714, 
            -0.18701413209979434, 
            -0.7780034146828382, 
            -0.06361720695766451, 
            1.6169211760005902, 
            1.375876026628292, 
            -0.703300540855092, 
            -0.6711114091887286, 
            -0.8077376845201681, 
            -2.0360335275599724, 
            -0.05851640473861579, 
            -1.6874704497928756, 
            -0.06081971727294593, 
            -1.2538650586220113, 
            -1.2670653601194284, 
            -0.7722659965149213
        ], 
        [
            -1.1476347116129024, 
            0.8740536112702373, 
            -1.6962523899020947, 
            -0.09252680912046604, 
            -1.3041442114100426, 
            0.27570915820584974, 
            -0.6483758504995649, 
            0.008937015759704809, 
            0.11961109016646108, 
            -1.0618603654206007, 
            -0.4117790277116868, 
            0.051245795112225184, 
            0.526574632057545, 
            1.2392728681685714, 
            -1.6943856655784886, 
            0.017623581122851305, 
            -0.8515780691356886, 
            -0.6326486530447276, 
            0.02986481036877269, 
            -0.3687496307462532, 
            -0.8409790057633296, 
            0.5270206953060914, 
            0.546423976091534, 
            -0.5017916988405408, 
            -0.524782655097004, 
            2.0323398709789076, 
            -1.6299213892012616, 
            -0.9049434063516892, 
            1.046571797802181, 
            0.26713531794308537, 
            -1.3894990101622255, 
            -1.279576578720115, 
            -0.9659252939627756, 
            0.07929834875883002, 
            -0.23426995369051784, 
            2.5515919033566137, 
            0.24921200423274759, 
            0.42865063423141814, 
            0.21469227576466574, 
            0.16088174712752681, 
            -0.3008177571300979, 
            -1.3218738708892195, 
            -1.7104524356761444, 
            1.637570453639328, 
            -0.8500459874146983, 
            0.8760103718276686, 
            0.12733534938369717, 
            -0.4062016834563694, 
            -0.3649641360880698, 
            0.4464495917355881, 
            -0.5183254683163078, 
            0.050462930879765014, 
            -0.6891839361670162, 
            -0.6931169205616619, 
            0.13228648791739867, 
            1.5896385421717938, 
            0.05224549492641519, 
            -0.8574375347103016, 
            -1.0683754581188727, 
            -0.8623542541918698, 
            0.600004861471294, 
            -0.02548725683879824, 
            -0.4519138478449674, 
            0.4080138634764765, 
            0.8499359295600103, 
            1.482435560964167, 
            -2.2660517922968886, 
            0.8859018239335176, 
            -0.33727454404852875, 
            0.5870926516216903, 
            -0.16127407281045023, 
            0.653695062151216, 
            -0.31214429461126836, 
            1.7441382121044937, 
            -1.1887703434880548, 
            -0.6229478576899371, 
            0.9222264624795851, 
            0.36462698971095986, 
            0.06372194798400577, 
            -0.181410010633127, 
            -1.072714874062342, 
            1.219306348352799, 
            1.2746005464721264, 
            0.9525808410762933, 
            0.9760689429885016, 
            -0.057948671233921334, 
            -1.0666568660750517, 
            1.0035892648232707, 
            -0.12366163878385623, 
            -0.5570391428296996, 
            -1.6347229108390242, 
            -1.9978646300980887, 
            0.7353741842429008, 
            0.9928391171105114, 
            -0.07767515747059457, 
            2.0976165040181853, 
            -0.32860006251700613, 
            2.042109080922214, 
            0.5297603905257499, 
            0.9917697228206358, 
            0.15948031322026918, 
            2.1362305073759362, 
            0.4666207331367254, 
            -0.6237765787848529, 
            -2.1865300345497123, 
            0.1195427975464533, 
            -1.4342342939694954, 
            -1.0354929098748256, 
            -1.3186595411118653, 
            1.4252463543659082, 
            0.01779940335983659, 
            -1.2689662571479645, 
            -0.8596760357523682, 
            -0.5269199468648558, 
            -0.17484566168246177, 
            0.5050948317618992, 
            -0.005730325978509627, 
            0.6780701820446885, 
            0.08362263047982804, 
            0.9013132762063856, 
            0.09838927956206155, 
            -1.3183432663957744, 
            -0.872823120361953, 
            -0.2619570293683457, 
            -1.2120611819452287, 
            1.5088680232951046, 
            -1.3579519961756013, 
            1.5664418840277696, 
            0.31764958254734843, 
            -0.2549624081375816, 
            2.969014496320021, 
            0.6630381774516322, 
            -0.44052001534416046, 
            1.0308236268317805, 
            0.2811296390670405, 
            0.4589369896716425, 
            1.5326279265285514, 
            -1.1626100157616954, 
            -0.3321825834160263, 
            -1.7808473777742415, 
            0.04156435416470971, 
            0.04676398366518642, 
            -0.743614055406717, 
            -0.6531081605272552, 
            0.4617539351305084, 
            1.5270244612235786, 
            0.9366942603540515, 
            2.880140113150467, 
            1.6644059349430875, 
            1.6190905152775101, 
            0.8729364988704497, 
            -1.4347323551610354, 
            -0.24130789454031537, 
            1.043003139922227, 
            1.0914580992447829, 
            0.6132672184510005, 
            -0.4231916583518946, 
            0.11325180741980263, 
            -0.14304689524328612, 
            0.805106702085825, 
            0.49900275762111124, 
            0.3648587071392727, 
            1.899475082838331, 
            2.5538918890363607, 
            1.271497244651869, 
            -0.5365344008131079, 
            -0.17571793563775284, 
            0.05318649603783775, 
            1.1206874710995702, 
            -1.4229806076641187, 
            0.5183582340639659, 
            -0.03308137631217379, 
            0.4945794578166061, 
            2.1451545458661667, 
            -1.0873544774229291, 
            0.7673731663254474, 
            0.575804004889759, 
            -0.12312376089899509, 
            -0.22250807730608027, 
            -0.5044066694171718, 
            -0.574667908661056, 
            -0.11598651305871634, 
            -0.20371912662097735, 
            -2.551247196236637, 
            -1.2618275812843918, 
            -0.966646250904513, 
            0.7260460928742131, 
            -0.2873095067917822, 
            -0.7146472249768664, 
            -0.598107098164189, 
            1.4451008887044696, 
            -0.43608756521567577, 
            0.9383959319068254, 
            0.07481774560596088, 
            0.3123215137037705, 
            0.29074725257049705, 
            1.269271732226392, 
            1.0859498816110842, 
            0.09434064969275895, 
            1.133484580909352, 
            -0.007659794186264848, 
            -0.38481096420176963, 
            -0.734709239103645, 
            0.8700127150069222, 
            0.07901905293813548, 
            0.7855039131969003, 
            0.28204232680935654, 
            0.31962461113040114, 
            0.5718696613377625, 
            0.9032107460175196, 
            -0.6256129951334091, 
            0.7010693928044673, 
            0.9531157167097745, 
            -2.8067275493404416, 
            0.37106259226618965, 
            0.8061361812749829, 
            0.40283873702060463, 
            -0.6934196789464865, 
            -0.7529708017251621, 
            0.8128010999815117, 
            0.33603745775745913, 
            -0.27618542825340264, 
            -0.4373679418860449, 
            -0.377039864008079, 
            -0.028942392218807476, 
            0.1271994844029064, 
            -0.4502551636585908, 
            -1.6176695638755214, 
            -0.13111817037860304, 
            -0.6121477023186634, 
            -0.9933394485203368, 
            -0.9116982511488659, 
            -0.34478042877549814, 
            -0.8680721094715278, 
            1.5687123977303543, 
            -1.2010355666526102, 
            1.0949922581802916, 
            -1.7647983784494148, 
            -0.3491738711813842, 
            -1.2813873047890472, 
            0.592090102030717, 
            -0.6263088141504558, 
            -0.2799321273267123, 
            0.4295657765783373, 
            0.02380233240818826, 
            0.6218517925046438, 
            0.6447379736778933, 
            -0.8458489597385584, 
            0.15960799693719152, 
            0.4791239234411871, 
            -0.5008461285000632, 
            -1.8157546876209492, 
            0.529959027554, 
            -1.868761757353365, 
            -0.5031025081022272, 
            0.4488072825452725
        ], 
        [
            1.0028039935841813, 
            -2.017608924409565, 
            0.6726684408939098, 
            1.4726765924340497, 
            -1.137259399213763, 
            0.38374320021508235, 
            -0.41596329164351287, 
            -1.1063130573472535, 
            -1.04838526895922, 
            -0.344835956533537, 
            -0.37070385141562356, 
            0.24448796582479684, 
            -0.4796403370162842, 
            0.25446209503448697, 
            -0.4080944753885293, 
            0.06533918934935995, 
            -1.4357718769663366, 
            -2.528708317762869, 
            -1.3506052647719864, 
            0.6281961240719249, 
            -1.0520866292610045, 
            1.2631873655995711, 
            0.27791751906245443, 
            0.06460075609733956, 
            0.909312916833101, 
            1.8431328806180256, 
            -1.1956672727207145, 
            0.4786422322780754, 
            -0.5898336467828416, 
            0.23066825616967596, 
            -0.5823981862262135, 
            -0.7777366247878548, 
            -1.7904349583121597, 
            -0.3765628299134774, 
            -0.3353951566845423, 
            0.5676228727106555, 
            -0.5152481062013261, 
            -0.5589466419971196, 
            -1.5549725475873675, 
            -0.7680212470775724, 
            -1.523031501836026, 
            0.1978917410786575, 
            -1.8443955546707984, 
            1.0997490470658666, 
            1.1879548737495624, 
            -2.127642367206926, 
            0.9871376113958861, 
            0.15711499509387075, 
            -2.1633762462931214, 
            -0.8403592689901932, 
            -0.041732267402043784, 
            -0.8038543042869505, 
            0.023814484637654634, 
            -0.3451067147043425, 
            0.8105764571770859, 
            0.6401186205841904, 
            0.21053547818058607, 
            0.7507630274139852, 
            0.16667174343029398, 
            0.19073737103323782, 
            -0.9572306462684858, 
            0.4062178725398992, 
            0.06944738730509185, 
            -0.6074435996516315, 
            1.0695954745700007, 
            -1.9946602140114664, 
            0.3785816667111359, 
            1.239182294488062, 
            -0.8279955155254177, 
            0.06646152754776953, 
            0.9445431396843537, 
            -0.5683394347215407, 
            0.7953651840447366, 
            -0.20841449580513602, 
            0.5907752267458687, 
            0.4892995910488829, 
            0.04252253737892097, 
            -1.0654540062801803, 
            -0.6494692750829077, 
            -0.3547857564792978, 
            -0.13630007338080974, 
            1.3362598942855664, 
            0.784297700550687, 
            -0.30994112293835757, 
            -0.628685476965966, 
            0.7409750333969305, 
            -1.1597321417149287, 
            -0.8431523364413717, 
            0.6711825820067711, 
            -1.7575792504009877, 
            -0.4723881751337023, 
            2.0095707485102867, 
            -0.6437530697893258, 
            1.1153391198804024, 
            0.9588399986020185, 
            0.6295685778721353, 
            -1.508999526773783, 
            -0.9859146566817546, 
            0.8900355868326395, 
            1.3534030267262476, 
            1.5983014287308985, 
            0.2663383810734543, 
            -0.6445406786080948, 
            2.334618871336534, 
            -0.758238874122596, 
            1.2485624777734514, 
            -1.5203863082399351, 
            1.179902833711657, 
            -0.15291010904329855, 
            -2.3912801933709593, 
            0.8018153250696526, 
            2.110643282838685, 
            -0.6947903584835766, 
            -0.5431474977086431, 
            0.004350167803558011, 
            -1.0410760122866736, 
            -0.8849323062996015, 
            -1.5338217205414708, 
            1.5774248416662437, 
            -0.30186569154736215, 
            1.4471040932796395, 
            0.9958165218898424, 
            0.45889680195557525, 
            -0.3555784769801446, 
            -0.06700772609883608, 
            -0.24726289665068288, 
            -1.2326051260687185, 
            0.5652605045818647, 
            0.15750390042921772, 
            0.3264480730521864, 
            1.117051328958165, 
            -1.6813109794123686, 
            -0.9263550481641984, 
            -0.3607338745480843, 
            -2.894867832411716, 
            -0.7036142060848418, 
            -0.8244910247275063, 
            0.21364117750961828, 
            -1.0032165281108782, 
            0.639517584816112, 
            -0.29462824627652273, 
            -0.17388542866015125, 
            0.06758830437859835, 
            -0.5093273961341718, 
            0.42877155283377383, 
            0.8548477086139079, 
            0.3854984743310679, 
            -0.5568625559039613, 
            0.02303634151436709, 
            0.5150816656097569, 
            -1.3432538581609479, 
            -1.9695910567791, 
            0.30418377413517883, 
            -0.7918536932487868, 
            1.0263248716219437, 
            1.5594589951674502, 
            -1.0491984847043827, 
            -0.37921323953318187, 
            -0.0008700223371211448, 
            -1.6134429032512387, 
            0.3094299829467464, 
            0.6299384035612184, 
            -0.9132114566446106, 
            -0.09853188631200373, 
            -2.441880375640016, 
            -0.6643255098882006, 
            0.07649204916883734, 
            -0.7694156461272975, 
            -0.3183861003680183, 
            2.022814829842865, 
            0.9352594869896123, 
            -0.9907202335734969, 
            -1.4835343251741575, 
            -0.3828877212405765, 
            -0.5324884973571378, 
            -0.18162568217272526, 
            0.5794196012471218, 
            0.5789539732727577, 
            0.04296990209449929, 
            0.908131772188574, 
            -0.0167715192044106, 
            0.9029076758223789, 
            0.7907076017155203, 
            -0.08736157229572529, 
            -0.23347002838404385, 
            -1.3702670773241423, 
            0.6853688588195607, 
            1.1024302491925213, 
            -0.15415955278929283, 
            1.7877089728738174, 
            2.8843850787151526, 
            0.3274109816527956, 
            -0.8048819677897946, 
            0.3619753862430283, 
            1.6713864261960727, 
            -0.2395500146076672, 
            -1.3593259968961586, 
            0.6326069886544264, 
            -0.7057580006300528, 
            0.09176548529707167, 
            0.7520920593146172, 
            2.056193578095821, 
            -0.24407551190758495, 
            -0.13680558799649886, 
            1.7641200527206302, 
            0.9341834967678698, 
            0.31077388573926085, 
            0.45268533313657056, 
            -0.44763622596032826, 
            1.545430234207758, 
            0.4997795279402307, 
            0.8070038310067967, 
            1.7248267804570765, 
            0.8647219870799783, 
            -0.2778045360001089, 
            0.6879354774898208, 
            -1.6300462828787563, 
            -0.8936227077079555, 
            -0.4142433940280101, 
            0.2323487249222485, 
            0.7056436607893309, 
            -0.034303249578941555, 
            -0.24771886217226088, 
            1.2349959340092191, 
            -0.2829785441740744, 
            -0.7243298178579795, 
            -1.0654572911610258, 
            2.101501059043633, 
            0.43294166570317655, 
            -1.3597457764384617, 
            -1.0065995087030666, 
            0.6195261855743811, 
            1.0281139099009127, 
            0.500039534029414, 
            0.8176340166126181, 
            -1.3603398956118335, 
            1.930377811313545, 
            -0.47264482988165474, 
            1.7905667428122318, 
            -0.13473593186770277, 
            -0.5217910822419902, 
            1.453632790564175, 
            -0.16314201659469174, 
            -2.3938440675960595, 
            1.8052151627846271, 
            -0.5404442418574482, 
            1.0628692893862937, 
            0.37872659256930075, 
            0.5200138175615098, 
            -0.24956008465212454, 
            0.5960576548285962, 
            0.3158335018020965, 
            0.9780134944591908, 
            1.0549856824124892, 
            2.116398838334011, 
            -0.8268930766943283
        ], 
        [
            0.7542310382387137, 
            -1.064374407409054, 
            -0.9439304862000122, 
            -1.1834330374544297, 
            0.823927367829363, 
            0.8628931888419403, 
            0.6683963602291199, 
            0.07042909852004266, 
            -0.13759056042467427, 
            1.0549583359536108, 
            0.9925177338183668, 
            0.6095227800377072, 
            2.882864123984967, 
            0.11725370707351758, 
            2.018798222088654, 
            -0.4879624960929529, 
            -0.4597178626822387, 
            -0.4036797605228612, 
            0.026324872898798302, 
            1.9933462754626903, 
            0.9566366440016557, 
            0.7355695237158967, 
            0.3161319971246507, 
            0.8166619883641715, 
            0.17040556131488677, 
            -0.07902408114151481, 
            0.015261721437407243, 
            -1.026406643323346, 
            -0.3097597599750206, 
            0.6769362368158025, 
            1.5682801028553721, 
            0.9230363426448849, 
            0.8258032130436663, 
            -0.1376849464607422, 
            0.3893527658817099, 
            -0.9366936542638082, 
            -0.20696927473233878, 
            0.40377483522215774, 
            1.0282813417565766, 
            -1.4447322786034225, 
            0.9408555878903331, 
            -0.42010055649123546, 
            1.0095844228981952, 
            2.0863259617016503, 
            -0.37039214598419146, 
            -1.2996098900653321, 
            -1.3052040407442225, 
            0.7534947146021517, 
            -0.22328794266811874, 
            -0.44725199847450803, 
            -1.345210407386897, 
            1.7871980067518936, 
            1.434675439479085, 
            -0.08893842938148454, 
            -2.104694013632145, 
            0.17212201432609198, 
            -0.19138802556427806, 
            -0.41126007234882467, 
            2.163434811488086, 
            -0.563842926685686, 
            1.557655098328223, 
            0.8307953506180741, 
            -1.2971714159339167, 
            -0.9396546543733879, 
            0.5271948243894904, 
            -0.25507706228770716, 
            0.7113540555299659, 
            -0.388834974000068, 
            0.7665750256747853, 
            0.17823045604490922, 
            -0.8994717334880586, 
            -0.5776567882085816, 
            -2.065281847047719, 
            -0.7276812071859314, 
            0.9819631511771051, 
            1.2486242767493612, 
            -0.04004118473044504, 
            -0.4508736102439456, 
            -0.886063789412121, 
            1.153787186853599, 
            3.4039289159456936, 
            -0.6801024812456054, 
            -0.7809574062203148, 
            1.0509157702941843, 
            -0.06381032796792384, 
            2.555551955591438, 
            -0.6616793611639162, 
            1.3165520370565091, 
            1.197316845615291, 
            0.9832632179743198, 
            -2.437426629096157, 
            1.440835240113079, 
            1.0982340810499904, 
            -0.30775181649983957, 
            -1.487785385949636, 
            -1.2985868355970152, 
            0.21294981655224615, 
            -0.28635328056076165, 
            -0.9097483704187787, 
            0.7751142752709647, 
            0.9605466598864705, 
            0.6097186046306827, 
            -0.6337052973415085, 
            0.6769520245734156, 
            0.5701770344183491, 
            0.08071175715106575, 
            -2.377377675481039, 
            -0.3379506511256795, 
            0.20812410797341202, 
            -0.06922689557418071, 
            -0.06479852639488445, 
            1.6346449958649483, 
            0.3694202013435212, 
            -0.8668475877157533, 
            0.6279473522941104, 
            0.4883455587121218, 
            -0.8980516804753758, 
            2.2887702335996236, 
            0.658746503023012, 
            -0.5779457190989055, 
            0.23094733389023164, 
            0.6284254997005393, 
            -0.9190405696056051, 
            0.07378104800392775, 
            0.6282309756728645, 
            -0.6712209080280466, 
            -0.6763126960909639, 
            0.4679543200641325, 
            -0.32206972914521376, 
            1.6927024250526521, 
            -1.2977267108799413, 
            0.3875861755079274, 
            0.5405942953492948, 
            -0.08841754475454358, 
            0.47979589515105653, 
            0.4202404964345808, 
            -0.9765996660754507, 
            -0.13387811612913467, 
            1.359103236730826, 
            -1.8065622948735103, 
            -0.4581131373150046, 
            -0.3847929807892719, 
            -0.4807895246910814, 
            -1.1687186218136494, 
            0.3044369472493851, 
            0.34892596432787676, 
            -0.3521007161394212, 
            -0.2931246192302241, 
            1.0931848781215656, 
            -1.7319066166875567, 
            0.7364328257462931, 
            0.4172302997398222, 
            -0.6431894030351631, 
            -1.3531041937947657, 
            0.4595989433299771, 
            -0.8461773901693908, 
            -0.8084875367805313, 
            0.5788843226818954, 
            0.03861368109323559, 
            2.0546848698277764, 
            0.9547124093905849, 
            0.5860126615020447, 
            0.9008859868875682, 
            0.180773547560099, 
            0.4763051534692093, 
            -0.2214399283778901, 
            0.9930980203850491, 
            -1.377629763683303, 
            -0.03304829906930604, 
            -0.5986738648198455, 
            -0.44110900351211113, 
            -0.045974330357462775, 
            -0.2107815006458927, 
            -0.24301045858711715, 
            -1.0109651367671408, 
            1.5804893846828798, 
            2.5956581033638337, 
            -0.05060491361004133, 
            -0.1994412091867731, 
            2.146036610213428, 
            0.6786349275620995, 
            -0.7937038332401237, 
            -0.334925029476474, 
            0.7649328802716057, 
            1.1578443936920384, 
            0.8304418896304444, 
            1.0973350908429813, 
            1.007191476532438, 
            1.4202150142875554, 
            -0.2348063715809631, 
            0.08580836534506255, 
            1.0833365124891916, 
            -0.08089182399390578, 
            -0.5645965639416999, 
            -1.7991457247475056, 
            2.334871981016762, 
            1.3423809849694548, 
            -0.6281265324233308, 
            -0.18886461673857544, 
            -0.5179723376134875, 
            -1.9204752345081173, 
            0.3681760172634149, 
            1.7513060451875784, 
            -0.15760257116228268, 
            0.529029870446867, 
            -2.039955541006708, 
            -0.053570788336926356, 
            0.08918658084641347, 
            0.6002521969384742, 
            1.0266091126279782, 
            1.005567443600073, 
            0.5155554467644454, 
            1.4452464012310082, 
            -0.2819781448702549, 
            -1.493511411602593, 
            0.7956602293916502, 
            0.25321483106914605, 
            2.1827578538520296, 
            0.18693615885073303, 
            -0.29819621127703916, 
            -1.5899708254508, 
            0.5186039460330037, 
            -0.6694162053923856, 
            -0.9949213830531007, 
            0.5615325439196457, 
            0.7397199715055661, 
            -0.0496580009216385, 
            0.941020146023363, 
            1.5593664619181473, 
            0.43205010939579946, 
            -0.6210545306340902, 
            -0.5055229883643181, 
            0.8553044328372137, 
            0.3928817269369632, 
            -1.42572200225635, 
            0.13284176984392332, 
            1.2197463224272742, 
            0.2747345404910781, 
            0.1327290015009399, 
            -0.04548546428233679, 
            1.038999407611576, 
            2.6065147598971863, 
            -1.1527932990241387, 
            -0.15623623237446543, 
            0.483782120751477, 
            0.7911806884417223, 
            -0.7796940406378754, 
            -0.6105558901242281, 
            0.10335969302204344, 
            2.1641452484197665, 
            -0.927449448530156, 
            -3.048512808014334, 
            0.5070230747488992, 
            1.797740393824552, 
            0.19216726576454124, 
            1.0028225254134953
        ], 
        [
            0.6854399393446997, 
            0.07120255299021375, 
            -0.0380666392026885, 
            -3.372613780604868, 
            0.4125666991457744, 
            -1.3176325624637024, 
            0.4623685122719719, 
            0.5532495745914522, 
            -0.351913081346535, 
            0.6069791783732912, 
            -0.389845035836942, 
            -0.5553012530404606, 
            0.6599143125974309, 
            1.2944729943105608, 
            -1.543103156191851, 
            1.073008040397345, 
            1.0258347815923143, 
            -0.14676170940608432, 
            1.1559384936011434, 
            -1.2723347914224894, 
            0.30826068046829064, 
            -0.8137721032644684, 
            -0.3058701379096803, 
            -1.019872835722317, 
            0.43771571713207313, 
            -2.318076455665817, 
            0.4167321498849451, 
            -1.93844091908559, 
            1.1422037021054472, 
            -0.2481206255441447, 
            -0.9479336841443755, 
            -1.8887050122182483, 
            0.11898044602533003, 
            -1.3465619228393022, 
            0.14224990568188145, 
            0.5473915777781649, 
            -0.7016506897698513, 
            0.3632376513233695, 
            0.993314314622965, 
            -0.515226090646884, 
            -1.4371592737119983, 
            0.1482223103243166, 
            -0.4363243613165647, 
            -0.9296650325494504, 
            1.50165517664774, 
            -0.9521080854219685, 
            -1.490451201135838, 
            -1.434702353623101, 
            -0.06996632152768999, 
            -0.09654690884358783, 
            1.6471086041330751, 
            -0.005366635911138428, 
            0.8140324731966444, 
            0.04483449004845605, 
            -1.487524346133466, 
            -0.04015513040348755, 
            -0.5234988799348393, 
            -0.7143117763562654, 
            -0.9787537323085913, 
            -0.2212744586479267, 
            0.9883015548569322, 
            -0.14297905635056063, 
            -1.6334106296215745, 
            -0.5716082573402997, 
            -0.053696704539779386, 
            -0.3263030433958533, 
            2.6672094915377675, 
            -0.8437219964166746, 
            0.7041610934482716, 
            0.8579651244668385, 
            -1.9540588515715278, 
            -1.2967140473742103, 
            -0.8277236554405494, 
            0.2664739140765555, 
            0.2426328985077111, 
            -0.18755961732453388, 
            1.0833230848018258, 
            -0.43621015642109134, 
            0.6653065392703742, 
            0.15605635880431565, 
            -0.27247950160785156, 
            -1.694049780316006, 
            -0.5407676186024287, 
            -1.5317235167148566, 
            -0.46230105645102043, 
            2.1552560117829214, 
            -0.09784805316707204, 
            -0.421984309476121, 
            0.579812014912987, 
            0.6429876125416936, 
            0.7571721223418181, 
            -1.1109151709601959, 
            1.327690699048099, 
            -0.34577891905363634, 
            -1.3275106861184398, 
            -1.5377909443990962, 
            0.2857516529657907, 
            -0.5327562448157745, 
            -1.5114135616346962, 
            0.6687733164032974, 
            -0.6393449558003388, 
            -0.07125942748539356, 
            1.1369093994906871, 
            1.587646418895572, 
            -1.321434457782023, 
            -1.070177958153083, 
            -0.8643103580659947, 
            -1.3677622125180737, 
            -0.7499687710986491, 
            -0.7910632580075997, 
            0.8073709385767779, 
            0.2570752407608946, 
            1.6119977044567735, 
            -0.10130687811511394, 
            -1.1886098582233506, 
            -0.5509531987046018, 
            -0.6695914858048191, 
            0.8007222688400949, 
            -0.9050490523628841, 
            -0.3053993296534181, 
            -0.5837862897950553, 
            1.15812317409022, 
            -1.604912967485383, 
            -1.5998975798412445, 
            -0.3372667135809176, 
            0.1869107823842378, 
            -0.330693199302829, 
            -0.6293571274158162, 
            -0.04146477900047186, 
            -1.1443533296416584, 
            -0.24785836401949196, 
            -0.5418737187636146, 
            -0.8568528453723752, 
            -0.8655793013064812, 
            -1.7683789608174962, 
            -1.1687202273057984, 
            -0.20740078491387284, 
            0.6685159111882207, 
            -0.03781319380925072, 
            -0.0015552507387387815, 
            -2.3968232170986576, 
            0.30207452933128826, 
            -0.9404070292471988, 
            -0.7665925928995007, 
            -0.5653399273766926, 
            -0.9102042428576553, 
            0.42954141076613195, 
            -0.8487090793661114, 
            -0.9673549777821343, 
            -0.6600531066169169, 
            -0.5183594799880554, 
            -0.09562001647323351, 
            -0.9929589497666507, 
            -2.719655279080116, 
            -0.27962152161125825, 
            0.9996027383406584, 
            0.621510664170094, 
            0.9111500609914293, 
            0.8850940306190755, 
            -0.03450430014572736, 
            -0.11061397284818704, 
            0.6172372759038706, 
            0.03033654500111997, 
            0.12297747802062167, 
            0.0628143031582091, 
            -1.825920281646454, 
            1.657279033205982, 
            -0.9659114786745396, 
            -0.5449506960862327, 
            -1.6072028766076871, 
            0.016545993142179822, 
            0.7815925371395858, 
            0.8263871164150272, 
            0.09590922398877882, 
            0.23187127638219784, 
            0.27665853795277173, 
            0.600374812698915, 
            -0.5127757307828252, 
            -0.0656443213867173, 
            -0.32942648787563805, 
            0.6695995233133241, 
            1.0634797940546032, 
            0.8858687385920058, 
            0.8667135960987052, 
            0.9565814390780183, 
            -1.1560581193239876, 
            -1.6021463599953674, 
            1.9598542339239933, 
            0.5275521157596712, 
            0.3220480728579949, 
            -0.16306568905342522, 
            0.100875824153724, 
            0.07190874938900128, 
            0.2617798196020768, 
            -0.3435232330134271, 
            -0.23279761575662192, 
            0.8065037060570627, 
            -1.4300908637471625, 
            0.3506849030365861, 
            0.21959153473597887, 
            -1.3131790321777708, 
            0.5468331460615545, 
            -0.24876746034572406, 
            0.16395252775883287, 
            -0.08007509467228233, 
            -0.5620949958757467, 
            0.7395279532180928, 
            0.17703882748259764, 
            0.5543340219374971, 
            1.3830796641290521, 
            0.8806059375401614, 
            1.3234396684227263, 
            -1.3697568730366405, 
            0.4278061056261057, 
            0.3541669062318108, 
            -0.8127869135924268, 
            0.032360350377383065, 
            -1.842199367764622, 
            -0.8454230960750232, 
            3.370197399570327, 
            -0.7177294653230099, 
            -0.5178804399756858, 
            0.7711913317775755, 
            -0.19168285037419217, 
            0.4434679659025371, 
            0.2335917393103908, 
            0.825233433672152, 
            0.4487405678188678, 
            0.6722272601502838, 
            0.48412278764889355, 
            0.9787689471593056, 
            -0.5654697031078961, 
            -0.20496771990927623, 
            0.5422896777570204, 
            0.0025841772153057264, 
            -1.7396058302021984, 
            -0.05473767652697892, 
            0.1544007650807759, 
            0.8821494535293316, 
            1.4533949239660373, 
            -1.3822620515277955, 
            -0.5912691431688933, 
            -0.6358417747146217, 
            -0.09305842284098273, 
            2.532154331859056, 
            -0.7776548153987668, 
            -0.08905553759049079, 
            -0.1770652588083996, 
            0.02417174587223717, 
            0.38546922775492004, 
            -1.249725306482383, 
            -0.4650074848371845, 
            -0.74959847750311, 
            0.4383829495741387, 
            -0.014035205082982345, 
            -1.1063239633883022
        ], 
        [
            -0.44928325196534785, 
            1.4817231506075244, 
            0.4424959435641376, 
            -0.10934548967654013, 
            -0.2572261266109854, 
            -0.7465918835459036, 
            -0.365100050146773, 
            1.212018147107806, 
            0.8731886703146434, 
            0.635895214690498, 
            1.5346974978613532, 
            -0.7628943777077337, 
            0.28002689042564316, 
            1.0185306064856963, 
            0.5611127658567754, 
            0.43340106380320953, 
            -0.5210747627646607, 
            0.4454460389930862, 
            0.400110361609476, 
            0.19200447266346882, 
            -1.5536106817381323, 
            -0.4096091901335656, 
            0.44251041176354766, 
            1.1086298194127722, 
            0.2014067919761601, 
            0.8128475222567959, 
            0.5484171510153891, 
            -1.081522438337178, 
            0.18025754137192956, 
            1.4020803337669259, 
            -0.9471516105910809, 
            -0.40078135488474464, 
            1.0786642257479357, 
            0.12255004862104515, 
            0.5827519352374743, 
            -0.17439924850148253, 
            -1.019470905357399, 
            -0.5849703773540369, 
            -0.354348726897332, 
            0.9739467602886777, 
            -0.6141690733776273, 
            0.4873383291448056, 
            -1.2226601403873196, 
            0.8283428211258647, 
            0.24756203476048336, 
            -0.011746101639405192, 
            0.014308943307302069, 
            -0.13145013283245718, 
            -1.5783404858269463, 
            -1.9279344951243853, 
            0.6311028431295467, 
            0.040180974697596385, 
            0.1152997777777157, 
            -0.6562888046036747, 
            -0.0961958358491353, 
            -0.3583693024894509, 
            2.580383182361529, 
            0.08325862560506726, 
            -0.8123585045405896, 
            0.14633096248000785, 
            0.9630840775807129, 
            -1.3805031030208117, 
            0.35354142004745726, 
            -0.6118346059064506, 
            -0.000402313381894082, 
            2.253579841649243, 
            0.5984494575509477, 
            -1.475615824371749, 
            1.0671229170096272, 
            1.206885579404432, 
            1.7786479308592626, 
            -1.227935919954087, 
            0.7569958417567222, 
            1.9505450828066448, 
            -1.8098465798301522, 
            -0.33126083167916237, 
            0.8634393301834414, 
            0.6853719282379559, 
            1.3559476839463862, 
            0.0007979422680895497, 
            0.9437026740552543, 
            -0.36152770160410574, 
            -0.3230395156047644, 
            -0.7043794481314465, 
            0.9095419661155604, 
            0.6989778919009259, 
            0.5690562561928342, 
            0.08191527512562756, 
            -0.5840898442461036, 
            0.8044739017613801, 
            -2.134771773004167, 
            -0.24325594759130031, 
            -0.0488625462790866, 
            -0.13070742998389892, 
            2.365386286709603, 
            0.9300901488271353, 
            -1.0184932577756292, 
            1.6845597898363789, 
            -0.051067327511527774, 
            -0.909436597270477, 
            1.2182149121983734, 
            0.7347107083090837, 
            1.159651858449932, 
            -0.7245707457996631, 
            -0.9574075590813304, 
            0.4679386028071819, 
            0.4223933586672236, 
            -0.31191906308632306, 
            -0.40646824114755103, 
            -0.2791925144023038, 
            -0.013188958296115756, 
            1.037263938834846, 
            -0.30712621274375934, 
            -0.0563605408276447, 
            0.1559089406474526, 
            0.03967245035843224, 
            -1.3394637696630978, 
            -1.3415914468729755, 
            -0.7888802692601379, 
            -1.1231689087835457, 
            -0.13160140586367208, 
            1.29069634226509, 
            1.4397096022725482, 
            0.0033740868643398238, 
            1.7649313503718291, 
            0.8222495410575906, 
            -1.6676323645887001, 
            1.3704922631484338, 
            -1.1314699744465653, 
            -0.15810209817045723, 
            -1.3699234819848525, 
            -2.0743123018091496, 
            -0.9703875822144168, 
            1.1908043450581525, 
            0.6601212584082864, 
            2.0248895848436863, 
            0.013836679171391333, 
            -1.5281873686109086, 
            0.41809469681818445, 
            -0.9087477819238101, 
            -0.5362246761428684, 
            0.8493814882436315, 
            -0.9842170055800195, 
            -1.499414425102479, 
            0.6739126749390365, 
            0.728131725371884, 
            0.2162734500660801, 
            1.121023779694196, 
            1.1845915620530554, 
            0.232296617273911, 
            0.8514526296094302, 
            0.9188768840193255, 
            1.0237388879569906, 
            0.11445983938635952, 
            0.2062565177098221, 
            0.89526009505074, 
            -0.9053620138320653, 
            1.1986679681282353, 
            1.0212302903345958, 
            0.42535771620019114, 
            -1.605725133939593, 
            0.7296628880064712, 
            1.7478000457086915, 
            3.0016237934017194, 
            -0.9664695685094818, 
            0.9118646136773182, 
            -0.3607424120965861, 
            -0.7221205692555046, 
            -0.733187886393791, 
            0.07117311501223546, 
            0.903888481902691, 
            -1.2626798435796764, 
            0.5701265736440904, 
            -0.4003144760921545, 
            0.08758749493115676, 
            -1.5227521829738766, 
            -0.5939293764647932, 
            2.369210720968401, 
            -0.5399510955828091, 
            -1.194045031978191, 
            0.04855462018907022, 
            -0.15301527345573523, 
            -0.24562113971786545, 
            -1.685350075876961, 
            -0.6680206129944875, 
            -1.817608578667246, 
            -0.7885882903957818, 
            -0.05631065802501288, 
            -0.5105067154958453, 
            0.3589114571714935, 
            0.024253185482971302, 
            -0.46829911425665244, 
            0.7451590535657312, 
            -0.5776640703208449, 
            0.11141063692087336, 
            -0.5692354446553954, 
            0.40090851086524676, 
            0.05804008034193645, 
            -1.2591779658278748, 
            -0.046447473340900915, 
            0.060800521629461854, 
            0.611407541500446, 
            0.4688659541931595, 
            1.3288560335931543, 
            -1.1136244553345314, 
            -0.14950114837633496, 
            0.1944486390009725, 
            -1.596410026309333, 
            0.5080503025737045, 
            -0.5511832136995374, 
            -0.05161005666133619, 
            -1.6578902881027582, 
            -0.04908806103111002, 
            0.03317581645283489, 
            2.47364476086582, 
            -0.5246562377846837, 
            -0.875201674121441, 
            0.6432004661072577, 
            0.7587866922373852, 
            -0.49140787744726144, 
            -0.28851856727132935, 
            0.5733380357351722, 
            0.5663401337395191, 
            0.06069794237029911, 
            1.0364255278170351, 
            -0.6022654776632484, 
            0.9494950234325882, 
            -0.4325423387194917, 
            -0.1624033620948916, 
            -1.2443756182126795, 
            -0.42384196469409613, 
            -0.33164516313879533, 
            -0.7942267885795221, 
            1.0707640818508601, 
            -1.6381869856500235, 
            0.675928514121746, 
            -0.04991758410718462, 
            0.8994179224438899, 
            -0.12473304128436252, 
            -0.29387907581009365, 
            0.7497247203088413, 
            0.5124303238258094, 
            0.1612387442052259, 
            1.278993434220179, 
            -0.5027778939272448, 
            1.9074912437078522, 
            0.5857335899135604, 
            1.1659484451408018, 
            1.1631901491325256, 
            0.5819413558607089, 
            1.85211711154171, 
            0.7594467084804196, 
            -1.8547463590791256, 
            0.673574649435081, 
            1.3298889299335308, 
            0.8244848343188937
        ], 
        [
            0.6501857726889294, 
            -1.9152578911519573, 
            -1.2806494737832137, 
            -2.005685000964989, 
            1.2298653210775454, 
            -0.11215174323449151, 
            -1.4587482186894818, 
            -0.6911759650420167, 
            -1.6976306988439058, 
            -0.40917681020901814, 
            -0.8859240900239912, 
            -0.29935124519494416, 
            0.5466132248110068, 
            -1.1008610078112127, 
            0.1594752878996178, 
            -0.36202826840447155, 
            1.4495980283925431, 
            0.319642224513289, 
            -1.614810968450514, 
            -0.24626479277019597, 
            -0.8217552785182721, 
            -0.6391394859491947, 
            -0.1193358670881169, 
            0.12527809537575102, 
            -0.8472142601690396, 
            0.16557180614062314, 
            -0.9952001697981427, 
            -1.0574868931225165, 
            -0.0029171825513050927, 
            1.119087980261747, 
            1.1312030434269358, 
            -2.071971546637465, 
            0.582182962717048, 
            -0.5887025542222927, 
            -1.1686896594896814, 
            -0.2489048084535529, 
            -1.0199000599755252, 
            -0.5663495085556354, 
            -0.385300989023266, 
            1.6777152364047891, 
            2.921292673287178, 
            0.8381084092397112, 
            -0.05826791502282865, 
            -0.4023540889719431, 
            -0.632606066065785, 
            -0.9626439614574323, 
            0.3097920471244855, 
            0.18778059616742038, 
            -0.2130562426178713, 
            1.2495541573934403, 
            -0.36670794744623353, 
            -0.15297082572382895, 
            1.4258300454627588, 
            -0.8524778015385042, 
            0.21180039173207507, 
            -1.0845618072044099, 
            0.611996168369186, 
            -1.0443056155776473, 
            -0.859124097511635, 
            0.15924092549223054, 
            1.3019680218575382, 
            0.28675705025811554, 
            1.1339029737930268, 
            -0.6556762192758337, 
            1.1484091369149696, 
            1.2778371880023922, 
            1.7907763884677586, 
            -0.5323652755410121, 
            0.42838657714185996, 
            0.8783034503414867, 
            0.09760092992428973, 
            0.06388750210580009, 
            0.4830477631888981, 
            1.2370609638654022, 
            0.45246617490998287, 
            -1.7319504487727369, 
            -1.9753098619490772, 
            -0.056870882447061864, 
            -0.5583817223684585, 
            -3.3343889411159267, 
            1.2643123975942243, 
            -0.1906988770571831, 
            -0.9121801660202069, 
            -0.11569503075896398, 
            -0.9994336288398381, 
            -1.2288868577026208, 
            0.4080970052966944, 
            -1.049762237176058, 
            0.6507772937251399, 
            2.4062114940806216, 
            0.738250723948814, 
            -0.053590419308780564, 
            -2.180593613086652, 
            -0.8173266136638874, 
            -2.0088085007274956, 
            0.25294697096576263, 
            1.976188983965527, 
            -0.06560648542536861, 
            -0.4494840268881663, 
            0.36901881721480234, 
            -0.5739715625415914, 
            1.1437903623602337, 
            0.002360113451292003, 
            0.30252682727142743, 
            0.7283702242404022, 
            0.8324509999243687, 
            -0.3962019351417119, 
            -0.595959832069748, 
            1.1702503485805453, 
            -0.9045521518289747, 
            -0.21103179754937976, 
            1.1413132612431596, 
            2.5485262811490075, 
            0.9875437250073817, 
            3.5396778490950913, 
            -0.18773272438779476, 
            -0.05673507448782412, 
            0.8239848019685435, 
            0.22982671238899594, 
            -0.3196963885588891, 
            0.06243079363974651, 
            1.3211965007375657, 
            0.9261898244232796, 
            -0.9243727932738709, 
            -0.17864168801536193, 
            -1.9146041800114066, 
            -0.28331576515070656, 
            -0.5626589959527777, 
            1.6646192519391436, 
            0.33380134750475615, 
            0.794520445775378, 
            1.2716856757669968, 
            -0.24886052152147678, 
            1.1312173118375262, 
            0.2237421301087284, 
            -0.049093585058017176, 
            0.5145114199442636, 
            1.3995691577019753, 
            1.0214546014442913, 
            0.3816136767042399, 
            -0.004707278042452337, 
            1.625212806475913, 
            0.952719504561538, 
            -0.856395240818187, 
            0.8392362580276473, 
            2.3138829596187453, 
            -0.2610482477041531, 
            1.7654843695437263, 
            -0.36710517397358516, 
            0.6548561038131568, 
            0.3814788273056425, 
            0.4654452975797147, 
            -1.085748590975696, 
            -0.6334223596791881, 
            0.3189593525879585, 
            -1.075188593479318, 
            -0.5460622520975733, 
            -1.7811396728024451, 
            -1.0038057449192601, 
            -0.34851199894919765, 
            1.2740490139498468, 
            1.2356552119887427, 
            0.970505362523012, 
            0.3957763868473209, 
            0.3150342331809893, 
            0.6593138486469663, 
            -0.70312243747038, 
            0.72736205837487, 
            -0.8172548119490367, 
            -0.4701294948628646, 
            1.233298007056595, 
            -0.2248259661023445, 
            -0.09982347901226388, 
            -0.6102821663471654, 
            -2.4389256696999357, 
            0.6600930134654025, 
            -2.0553843583449596, 
            0.6480119835482069, 
            -0.14844195387788134, 
            -1.2203958076725148, 
            -0.9462479306787677, 
            -1.2714736654468297, 
            0.24677799030560285, 
            -0.15245144462515567, 
            0.45564910448360624, 
            -0.10957443455027713, 
            0.910595032961933, 
            -1.5740809688112858, 
            -0.8326712183451195, 
            0.6653122495678049, 
            0.14771109337018484, 
            0.5035140329688246, 
            -0.8981177203207512, 
            -0.5567333242489768, 
            -0.5347741868471517, 
            0.7031233228127232, 
            -1.326108951568655, 
            0.4932502051866379, 
            0.7406249338533585, 
            0.91660077794806, 
            -0.07876993154579487, 
            -0.5745121035011865, 
            0.3930741979723863, 
            -2.3103448642759834, 
            -0.351527689491106, 
            -1.0659259420628664, 
            1.0512366018934827, 
            -0.4123649261117264, 
            -0.4363706587092127, 
            0.9149646690306691, 
            -0.15726768935654517, 
            -0.27759824066485556, 
            1.5746724473248774, 
            -0.8698676419263747, 
            0.17953182596456313, 
            -0.5685437044214322, 
            -1.1071373707803014, 
            0.01924502887066361, 
            1.4145592096610218, 
            0.00033026561463394535, 
            0.6717107096190096, 
            -1.0704970879966984, 
            -0.7852713370324279, 
            1.8109562218075783, 
            -1.2060157034223888, 
            -0.038270443632458385, 
            0.8619355300954845, 
            0.7460215745718821, 
            0.3866812453818347, 
            0.6547879773201245, 
            -1.2158899904626999, 
            2.286529352943072, 
            0.1940868484800875, 
            0.5097401559325634, 
            1.4883848262947903, 
            -1.1811649738726404, 
            -0.7300443482654225, 
            -0.8964129306263305, 
            1.0600537157728112, 
            0.7569511484220272, 
            0.33795572866557777, 
            -0.3395003860599175, 
            0.29195659334102114, 
            0.20249258847981294, 
            -0.7796925341272317, 
            2.318489594804451, 
            -0.026996303816978148, 
            -1.2476902472237368, 
            -1.2706491683555792, 
            -0.2801724872727969, 
            -0.1232753093978331, 
            0.6663740659222483, 
            -0.3983807672852724, 
            0.7366000228714232, 
            0.2787649446718187, 
            1.3379084343365595
        ], 
        [
            -0.5250999493558295, 
            -0.9343818576042213, 
            -1.3610961728527886, 
            -1.5703948986641685, 
            -0.9056755277624362, 
            0.02349238169533375, 
            -0.7436202571684991, 
            -1.0458227709282282, 
            0.06167525832260951, 
            0.8871429631419098, 
            -0.9436886497361439, 
            1.2965791039081391, 
            0.2718601426174275, 
            0.5000465168154639, 
            -1.0280628403134249, 
            1.6067806405415785, 
            -0.5955433760635201, 
            -2.1768073704446613, 
            0.5542255725016547, 
            -0.9031986561567233, 
            0.6214157976966684, 
            -1.37301248049613, 
            0.8476565350987278, 
            1.3352240047800759, 
            -0.5802608839537385, 
            -0.34045322213370977, 
            -0.12634674890652922, 
            0.8956132839766645, 
            0.39972402430010795, 
            -0.8448182689283384, 
            -0.8464157799490319, 
            -0.687250686569502, 
            -1.9098604677617528, 
            -0.32500370220542185, 
            -1.885695470707992, 
            -0.06991449740513554, 
            -0.9209955429151833, 
            0.589016175032511, 
            1.7378734529976707, 
            1.6526673549809572, 
            2.0264468782092333, 
            0.33896394071205965, 
            -1.085039075076576, 
            0.7463007673832988, 
            0.28630463197592027, 
            -2.05235096686141, 
            -0.5248550354703714, 
            1.3480080955363187, 
            -0.36748731083512054, 
            0.5705361479408008, 
            -1.1097954485631774, 
            -1.0370347061757483, 
            0.44161704633037163, 
            -0.3024293058673618, 
            0.3700277771785692, 
            0.124544907882774, 
            -0.45292957412229, 
            1.0619039586353651, 
            -0.30105076151711235, 
            0.2889166300974198, 
            -0.8723580554996566, 
            0.6069562634065933, 
            -0.2231940719688148, 
            -1.37321450976887, 
            -0.8684081846597167, 
            -0.8889252221353687, 
            -0.18527882479624197, 
            -0.3779580444367594, 
            0.7406413235730599, 
            -2.3038141881038308, 
            -0.44950241757918524, 
            0.9203557143809277, 
            -0.7144479875857621, 
            -0.9641863597809736, 
            -0.9635735128630402, 
            0.3122659731437205, 
            0.9892740673491743, 
            0.3857726800467339, 
            0.3594888504758238, 
            -0.9941260828546062, 
            -0.8665887923589497, 
            0.024655268114291345, 
            -0.3133703625627029, 
            0.768148025137612, 
            -2.481912108457147, 
            -0.5614489032175677, 
            -1.0089752905618212, 
            -1.7233651963574872, 
            -0.20718738089148658, 
            1.5399102508637001, 
            -0.7062811085802218, 
            1.5905101549311296, 
            -0.29824435152875073, 
            0.18007087681577344, 
            -0.734163535207186, 
            0.5702678460981785, 
            0.9967277182353512, 
            0.5402884612885829, 
            0.24074354878085774, 
            0.45124414310452404, 
            0.40471429214939963, 
            0.48052723986385554, 
            0.07038325449667669, 
            -0.8350656613769434, 
            -1.7648362641971098, 
            1.172916062366269, 
            -0.4593268964563052, 
            1.694510822732629, 
            1.6939202678033471, 
            0.4937264243994928, 
            1.0735470686762907, 
            -1.1290831832596713, 
            0.5807667123458166, 
            0.42001937557658187, 
            -1.805567223486261, 
            -0.23564513073481516, 
            -0.3883457099613288, 
            0.43207628260390424, 
            -2.2414214214381074, 
            -0.7729067012447476, 
            0.11685346633111056, 
            -0.3736369874917529, 
            -0.5977854155415596, 
            0.40751435277618064, 
            -1.045688023920469, 
            0.23846907402208015, 
            0.4463241244433786, 
            -2.23749328724453, 
            -0.19330990175218393, 
            -0.8946620986193473, 
            0.5555062677926498, 
            -1.587222444095692, 
            -0.3004521348375868, 
            -0.06209987232188756, 
            -0.06536784649208495, 
            -1.4007589964412357, 
            0.5603488413748475, 
            -0.5514816026396364, 
            0.44103198786141884, 
            -1.0101792528132145, 
            1.7718384353542593, 
            0.5912919938549284, 
            0.9927483194714102, 
            0.05668055790374183, 
            0.5717305179653005, 
            -0.4670248109694457, 
            0.13297296162500927, 
            1.7382740706934954, 
            -0.8547320721664088, 
            -0.41770567532963704, 
            1.4872154188257622, 
            -1.618543608423695, 
            0.7602178761247371, 
            -0.7841005368825862, 
            -1.3717533747892419, 
            2.0212657594702876, 
            -0.706427433791598, 
            -2.2847039267768126, 
            1.4467770562892497, 
            0.6775150918448509, 
            -0.40887555327500674, 
            -0.3691665197506026, 
            -0.31887359802017, 
            -0.7642480854467449, 
            0.3858407240517844, 
            0.3029786700980725, 
            -0.4680755360360345, 
            -1.5374250896031294, 
            0.5871507112474952, 
            0.8622017431799125, 
            -0.03579426688998462, 
            0.970814727443618, 
            -0.005185991970229804, 
            -0.06689272925921554, 
            -0.06908749812174841, 
            0.6623009049047186, 
            -0.9250669960330397, 
            -0.4169004469785608, 
            0.437642631035802, 
            0.3922070257390058, 
            -0.07023723839759115, 
            0.9775808817752009, 
            0.6565239585558903, 
            -0.29587418227499523, 
            0.28243414903707764, 
            0.6563383338785969, 
            -1.0328099981946746, 
            0.32019015984844607, 
            0.28999594850256427, 
            -0.11816609016514948, 
            -0.4877631094712919, 
            -0.38925156488056906, 
            -1.3290839572905702, 
            -2.363595546534385, 
            -0.05702602897076678, 
            1.5460364061413707, 
            -1.8254910493711536, 
            -1.3974578283691528, 
            0.5269964479268627, 
            0.8319589412564574, 
            -1.4553466630810021, 
            -0.3022919004148301, 
            0.36484766292225207, 
            0.37046926324255053, 
            -0.20153852445313808, 
            -1.0215662165758899, 
            -0.688904544411511, 
            1.2673909254783882, 
            0.5394498538438323, 
            -0.29825509104346903, 
            -0.3988322271530615, 
            0.4711158622520857, 
            0.8124866113820735, 
            -1.447461926489744, 
            -0.0009933497779986249, 
            0.04526821667356911, 
            1.3828146456234038, 
            2.434091731772833, 
            0.645944136448739, 
            -0.24260904895831525, 
            0.6007411781544706, 
            0.6209444568520119, 
            -0.058530667788750976, 
            -1.50810697527496, 
            0.15502144327855177, 
            0.762715371397917, 
            0.5627984508351124, 
            -0.9571948003182537, 
            -0.2618165635747988, 
            -1.3009965783699182, 
            -1.0406310877082, 
            -0.4719493071623106, 
            0.20533504559337692, 
            0.3503735465384717, 
            -0.06874990165704903, 
            -0.3510192969130614, 
            0.11028381758273963, 
            -1.2546385336292425, 
            -0.39061282631418687, 
            2.108508948755715, 
            1.3482115600273703, 
            -0.6306523333806735, 
            0.6706284806162397, 
            -2.6211228112612526, 
            -0.46314691570625405, 
            0.969466327125891, 
            -2.364719970691898, 
            -1.0452510714878596, 
            -1.0402835051582677, 
            -1.3091916977507954, 
            0.18306312674449035, 
            -0.8419101789765687, 
            -0.8331229612477369, 
            -1.044504896346818, 
            0.5249173252893228, 
            -0.3522369816916844
        ], 
        [
            -0.7787212204668792, 
            -0.46681164614152093, 
            0.6228883485307973, 
            2.20625960233291, 
            1.9530145916258925, 
            0.0648903376144189, 
            0.7291252255690239, 
            0.18175744758692358, 
            1.9463139796915858, 
            0.4957128482899053, 
            2.100572522960138, 
            0.22487570133423596, 
            0.3690650075013651, 
            1.3243836594078873, 
            -0.6973467671854952, 
            0.4919821387630138, 
            0.30781270518800824, 
            1.5890353231161698, 
            -1.2781947156820235, 
            0.7107179532080811, 
            2.3528061889345806, 
            0.3913242349085185, 
            2.1586063678164793, 
            0.5127438420897851, 
            -1.1036780819437073, 
            -0.2579384227913186, 
            -0.48572403345980153, 
            0.8431878367008818, 
            -0.8111152638870863, 
            -0.009180492935902713, 
            1.596174643185648, 
            1.21800777014515, 
            0.7087340340820146, 
            -0.4970451483652431, 
            0.28613756227337606, 
            1.7372540621203647, 
            -0.697843968368644, 
            0.36184035076558874, 
            0.6186728381412286, 
            0.9109837536343378, 
            1.6916428644829613, 
            0.41114598518989903, 
            -0.5743561841839705, 
            0.9511142531284368, 
            -1.1655026523087388, 
            0.4266349478605632, 
            0.8381808717454539, 
            -0.5101164682757778, 
            0.09074883157050824, 
            0.26830685872755483, 
            0.2952360287205336, 
            -0.5673923209347834, 
            -0.6142255418639656, 
            -2.0278646407829917, 
            -0.21705673681068807, 
            0.23839692572581916, 
            0.7715361458303487, 
            0.11025036010174909, 
            -0.17193522050769486, 
            0.521611150527576, 
            -0.6507515894592458, 
            0.08622449394591403, 
            -0.5245561015485108, 
            -0.7183738179673059, 
            -1.0773749250985933, 
            0.7214982173138973, 
            -0.19634892383643546, 
            0.03566992092411869, 
            2.5759003685916744, 
            3.269383110553689, 
            -0.7426724721355746, 
            -1.1366626401004247, 
            -0.18462870787188973, 
            -0.17332245678397626, 
            -1.961050571460832, 
            0.14686678028634376, 
            0.23297938366153007, 
            0.9066654642430751, 
            -0.1670544583761178, 
            0.9783203158734585, 
            0.8711508039053557, 
            -1.3022623949665335, 
            -0.6754144493787386, 
            -0.3098348730991336, 
            -1.6867122187107164, 
            1.0451337213509093, 
            -0.4587760064402404, 
            0.007772431761542364, 
            -0.20119453709729937, 
            -0.18593910161797475, 
            -1.0409080587159911, 
            0.3203529293841176, 
            0.4853602322857078, 
            0.7400471921336852, 
            0.46207666132369146, 
            0.49238237701307996, 
            -1.166602228882511, 
            -0.10752942070917049, 
            0.34683359991687834, 
            -0.7340187402356471, 
            -0.8203865099602461, 
            1.477853037195259, 
            -1.1668194163716117, 
            -0.7497941876653079, 
            1.2747535068024864, 
            -2.3579997237092427, 
            1.129217417147532, 
            0.13476190257956988, 
            -0.12774695749511947, 
            -0.8537175774246937, 
            -0.3045933738954374, 
            -2.464646889318154, 
            -0.9505786093621488, 
            -0.1084326158731846, 
            2.369092657818931, 
            -1.2820876191407182, 
            0.5084100231729362, 
            1.3261466496193808, 
            0.2656551167990914, 
            -0.17749785917907798, 
            1.9560461497743686, 
            -0.03489283016536691, 
            0.7981666842289233, 
            -0.4353731873605828, 
            0.7864718870386586, 
            -0.1822536384273706, 
            -0.2874249049192621, 
            1.7226075735220305, 
            1.8514012891620215, 
            1.1887551725395875, 
            1.3069590905990114, 
            0.3609707020170919, 
            -0.15809071646281406, 
            -0.48706183056045654, 
            -1.006875141552841, 
            -0.2143363099373653, 
            1.2807756049343784, 
            -2.199893896724305, 
            -1.96453475270175, 
            -1.620222849194959, 
            -0.08233420435250965, 
            0.3415585124829446, 
            0.868357617481689, 
            -0.47184241316416314, 
            -1.1994965265084585, 
            -0.09427694305342023, 
            1.147936300389159, 
            0.6710860464116359, 
            -1.7094115310857267, 
            -1.602210056388992, 
            -1.022990439556719, 
            0.3988341994151175, 
            -1.0920412769269523, 
            -0.5514515227449247, 
            -0.8894234820118837, 
            -0.5530993098837049, 
            -1.3545006109653561, 
            0.9872717299363492, 
            -0.7199034249775801, 
            1.0682098358317191, 
            0.8065728620227502, 
            0.39445455809870705, 
            -0.06008960066005252, 
            0.4106147745653936, 
            -2.218566459327393, 
            -0.43378199735446515, 
            -0.16170472381979364, 
            -0.8713133250388277, 
            -0.6390720268222524, 
            -1.190614342893918, 
            -0.9593422241678999, 
            -0.47814719613580653, 
            0.2112392195767792, 
            1.1410581502833508, 
            1.0000031287381548, 
            0.031498855862721845, 
            -1.1463708949077107, 
            -0.6100706669824633, 
            -1.2025283429296603, 
            -0.2813337615214132, 
            0.16383406924671648, 
            -0.20502204499194804, 
            1.603332120325954, 
            -0.6976360049762707, 
            -1.7935032016908063, 
            -0.8880126882991252, 
            0.5925931206019114, 
            -0.8213194909670429, 
            1.3124538134027173, 
            -1.135235737325373, 
            -0.5203006804926797, 
            0.6991590859191648, 
            -0.5905738192264597, 
            0.5449343652927903, 
            -0.8521408552081583, 
            0.8186862212194147, 
            -0.5995720982470797, 
            -1.8702140500758613, 
            -0.13304234170812693, 
            1.5157117250139394, 
            0.01213410362602755, 
            -1.299315168644375, 
            -1.245952840138988, 
            0.1436637214588007, 
            1.6129841896333004, 
            0.863331814691033, 
            0.641901296375452, 
            -1.6253927867898403, 
            0.5498790402668582, 
            0.18636423014362286, 
            1.0605611419542622, 
            -0.646762719384326, 
            0.7313041762937789, 
            -0.4078349734107685, 
            -0.6016363059144474, 
            0.24393655650700863, 
            0.15229041689511758, 
            0.7252809680223121, 
            -0.552663027241625, 
            -0.6541051475887797, 
            -0.4451074229356323, 
            -2.573256104656254, 
            -0.29970940716893685, 
            0.6093977861775122, 
            0.3255686038239066, 
            -0.19194796396060432, 
            0.43178329504903973, 
            0.034759087976609815, 
            2.0163394821525586, 
            -1.3499256733277647, 
            0.25826822893003926, 
            1.42105796255821, 
            -1.7617955517509138, 
            0.572880051789763, 
            2.2098233566947645, 
            -1.3384768119998827, 
            -1.0762741562815366, 
            0.547724448287939, 
            0.294326405351327, 
            -0.9872584073898046, 
            1.2093888435073414, 
            1.0387630748096035, 
            -0.1333232940578549, 
            0.9301211322758026, 
            0.02830079561156511, 
            1.5117667156528902, 
            1.0810344920884072, 
            -0.15120070441778327, 
            -1.0096640558470167, 
            0.5431482026344016, 
            -1.789806657901358, 
            -1.3229692907122423, 
            0.1674698679705835, 
            -1.4338072564787638, 
            -0.8476009283482415, 
            -1.2496664497412007
        ], 
        [
            0.43931060743523576, 
            -0.23290362631437442, 
            -0.020133241099165273, 
            0.13577834867049063, 
            -0.9078126344416599, 
            -0.858266675637068, 
            -0.5370139240337669, 
            -0.8910755674414129, 
            0.7208798671201333, 
            1.0300831704433904, 
            -0.011271414325780367, 
            0.09332850238392995, 
            -0.09307715168011717, 
            2.1499706908667804, 
            0.537009212864618, 
            0.6206984120077401, 
            -0.032104699870207136, 
            0.8484838380517609, 
            0.7897399033679026, 
            0.41196616954189164, 
            0.8609344985691504, 
            1.6382612951023328, 
            1.0444162880088728, 
            0.3094608320641549, 
            0.27073608183727715, 
            0.4158522232594289, 
            0.0018262789310843491, 
            0.40355831121840946, 
            0.8362950506470167, 
            -0.6123834058569794, 
            0.10975978464051363, 
            -0.7581226029813182, 
            -0.11096481569466336, 
            1.890863831512885, 
            -0.8660753428407426, 
            1.4159096484875422, 
            -0.5904226759277176, 
            0.16034260983153864, 
            -0.33452163315363287, 
            -0.46004952217348, 
            0.2538699536634737, 
            -1.1888167619765497, 
            0.8187597127310084, 
            -1.708322387645803, 
            1.1115635889478315, 
            -1.2372131564432083, 
            3.166968947760667, 
            -0.9601910199537912, 
            0.3862231511505769, 
            -1.6632090713773278, 
            0.7394596258556683, 
            0.4127691048046367, 
            0.1539721593184483, 
            -0.4648391298189883, 
            0.18978087625779572, 
            0.4206814743131255, 
            0.5940705847797529, 
            -1.5465836192863518, 
            0.806138909637431, 
            1.2631999596239878, 
            0.5587964292963731, 
            -0.09167993940363353, 
            -0.15532082802966937, 
            -0.23320891554349676, 
            -1.56893753634056, 
            -1.8127272612985788, 
            -0.47145908321979924, 
            -1.7807965248959978, 
            1.263854114855276, 
            0.34908130295041084, 
            -0.5939132161265922, 
            -0.6781399891018638, 
            -1.2155730916125282, 
            -1.357253161006163, 
            0.21868635877723858, 
            -1.3298445385767164, 
            -1.6103919492453953, 
            -0.858855583431072, 
            -0.16865313771520557, 
            -1.0361467350137656, 
            1.258962949348228, 
            1.8916695833504678, 
            -0.24052692425996772, 
            0.6858903504739453, 
            0.26443254043876874, 
            0.0020610080836775146, 
            0.03720564076010662, 
            -0.7382634114935094, 
            -0.060397451452787125, 
            -1.0897483731656972, 
            -0.8240150854568697, 
            0.31617142149922695, 
            -1.3059059785318345, 
            0.8956192532263826, 
            0.8569644958428131, 
            0.0973199958021904, 
            -0.351452664748533, 
            0.781401456851817, 
            1.2472918432729214, 
            1.5504262783266487, 
            1.5552345233198173, 
            -0.6872650856382236, 
            -0.09252624206938084, 
            0.8195705985004496, 
            0.8035295690264038, 
            0.005804714589356876, 
            0.25025154258167487, 
            -1.9330542429767015, 
            -0.9809315717698792, 
            0.3207745732316858, 
            2.93067145803874, 
            1.3459495521049873, 
            0.09681425022574196, 
            -0.6960981452850504, 
            -0.685109010915853, 
            0.2825824759816654, 
            0.976471733516322, 
            -0.2768262560565501, 
            0.7902942270257587, 
            -1.438453931509475, 
            -0.8938216839638166, 
            -1.8913916298035236, 
            -1.7680699943728417, 
            1.3344193864577332, 
            0.7880940029028102, 
            2.0568465951783286, 
            0.8655286773960826, 
            2.01081350608824, 
            -1.3787392792096658, 
            0.4251300536501136, 
            1.3888645485629791, 
            -0.7312767151602514, 
            -0.1786761678630481, 
            1.8162990521830407, 
            -0.6402558149132462, 
            -1.5030644273254714, 
            -2.827689417443069, 
            -0.6125618815320799, 
            1.6977738970808685, 
            -1.9094171921671088, 
            0.6865224079722638, 
            0.6111035402258743, 
            1.5110544143657265, 
            2.1568366059624857, 
            -0.39077587312790446, 
            -0.7277210429593007, 
            -1.5961804032744316, 
            -0.5091222614833568, 
            -1.393243594405148, 
            1.09092200885315, 
            -0.9514868788775318, 
            -1.3563212849281516, 
            1.3116285839216868, 
            0.4619093340167443, 
            0.41129593947175225, 
            -0.27822771642524274, 
            0.08548843208808977, 
            -0.751505059964782, 
            -1.1401703363208937, 
            -0.481901351838224, 
            -0.43273226468109116, 
            0.061348593611657294, 
            -1.4623194123179877, 
            -0.30442339364593657, 
            -0.1303377731766381, 
            -0.8501952979182859, 
            -0.1214332557538526, 
            0.7206770652046803, 
            0.8652786042729685, 
            -0.4516294050340226, 
            -0.6811789054298826, 
            1.6282107159833583, 
            -0.08208956766070945, 
            -0.6182155565628956, 
            -0.5363344986047556, 
            -1.0131499628351641, 
            -1.068163362010948, 
            0.23851926737755075, 
            -1.8212561841983361, 
            -0.5137286812905614, 
            1.6514494244698423, 
            -0.08947797178020393, 
            -0.4484141292258193, 
            -1.3913597538356857, 
            1.4830484866443037, 
            -0.6313621932903163, 
            -0.09734588844746317, 
            -0.14722246360274377, 
            -0.26189055546855516, 
            -0.31225133941253436, 
            -0.6852950087706033, 
            0.17371210372436416, 
            -0.32391964566948334, 
            0.5635627630680257, 
            0.5095263802462326, 
            -0.1905596007303254, 
            0.4277507957341246, 
            0.6844150525247172, 
            1.3982104832327906, 
            -1.3099218570954414, 
            -0.7878387280917122, 
            0.3997158981207854, 
            0.3184469311145446, 
            0.18082008146619874, 
            0.561606196730405, 
            0.7980231922424287, 
            -0.960969924928801, 
            -1.9560190704671738, 
            -1.6939889460921078, 
            1.9796522083244705, 
            -1.9481902705015335, 
            -0.3083038214549511, 
            0.1476040444949052, 
            1.7847470946915895, 
            0.3600959107937291, 
            1.595275070532878, 
            -0.0659333113998695, 
            -1.2161811037927253, 
            -1.0355827503170187, 
            0.3716706039634162, 
            0.6270823718319957, 
            -1.1281617544899034, 
            -1.2728557820376054, 
            -1.1403693727921862, 
            0.8777244456867558, 
            1.03972724513143, 
            0.45205585319654845, 
            1.129903242885435, 
            0.1254138992907756, 
            -0.8987721113473655, 
            1.8868482656833756, 
            1.4012785840016337, 
            -0.8835981577031763, 
            0.7175676620599619, 
            -1.2397934528120182, 
            1.0715131573626644, 
            -1.341717106636777, 
            0.07726703725305376, 
            0.7124975354996351, 
            0.34999883198150905, 
            -0.7811306837044265, 
            2.5640710636353576, 
            0.6691660906365959, 
            0.9090243191595292, 
            1.0986246603710523, 
            -0.10055618342292574, 
            2.0784897896112997, 
            -1.0567079452533246, 
            -0.6717177818397703, 
            0.608929684822497, 
            -0.9622543999581071, 
            0.3182075076758327, 
            0.1648173816777637, 
            -0.31625249212966894, 
            -0.23721735098064292, 
            0.10257242490613364
        ], 
        [
            1.6110060128232844, 
            0.6510782015429916, 
            -0.7514239403491867, 
            1.4870015046377063, 
            -0.4635928090599549, 
            -1.008239491780641, 
            -1.4055860839838479, 
            0.003524635403592845, 
            -1.2898258938006468, 
            1.5871808970844934, 
            -1.5874209696941672, 
            0.3407091231504563, 
            -0.14654644235144254, 
            0.8801018591032783, 
            0.2542810421158913, 
            0.47346030243792664, 
            0.5849065585268461, 
            -0.5757951881798047, 
            2.3822731070898384, 
            0.6396163208802081, 
            0.783754955536287, 
            0.5435134589252592, 
            0.08103482053855078, 
            -1.8252317444894903, 
            -0.6138705936163574, 
            -0.07163425796724006, 
            1.0098533455876186, 
            0.660352700660279, 
            -0.570769581399507, 
            -0.4522076797883755, 
            0.7117153530151523, 
            0.09902439390264889, 
            1.719859977072298, 
            0.9218975132523621, 
            1.890541996817454, 
            0.996499026030231, 
            0.791733214798528, 
            -1.3584580524543775, 
            0.06184094880156373, 
            0.7966528072635414, 
            0.017029516336232835, 
            -0.4621517906705858, 
            -1.1219144351892427, 
            -0.8444003902710224, 
            0.9879115121121008, 
            0.2514170185645231, 
            0.8967813140276611, 
            0.8215110972086802, 
            0.6009938529268974, 
            -1.1272883762776853, 
            0.4683967808657645, 
            0.7283078682908201, 
            1.3055654511366073, 
            0.44694578517543493, 
            0.48493467478466534, 
            -0.07387715268166026, 
            0.775103286705214, 
            0.12808258848868503, 
            0.8358008127066132, 
            0.37173589302432675, 
            -1.0153318581831088, 
            -3.2433609262472904, 
            0.8040070993892282, 
            -0.12324985156833544, 
            0.5783658446738708, 
            0.24336576212668917, 
            -0.7705555501219422, 
            1.175317951171402, 
            -0.1195778952505185, 
            -1.226362981826658, 
            0.09362353780236815, 
            -0.4964851538995293, 
            -0.11523422997058365, 
            -1.8379669287296536, 
            -1.535755032450055, 
            0.1962152755635274, 
            0.1326458999146547, 
            -1.399367093128569, 
            0.2552265718467812, 
            0.11357104399943067, 
            -1.3801393910365465, 
            1.139171703008602, 
            0.717677776286432, 
            -1.4382979522769777, 
            0.4007422940235395, 
            0.5941693068206152, 
            -0.13659143435096757, 
            1.6140476575788107, 
            -1.0473592674580299, 
            0.6565149445184869, 
            1.438815335858169, 
            -1.3529915052872699, 
            -0.10478416259768575, 
            -0.13388962186034203, 
            2.138556511887539, 
            1.4538546641874934, 
            1.7350813953179949, 
            0.837072318481632, 
            -0.8092881085663336, 
            -0.6230616904135091, 
            0.3917446688318215, 
            1.7327682443921424, 
            -0.4152251828710851, 
            1.2679738663573075, 
            -0.4703638063692692, 
            0.3573348825484256, 
            -0.20854135567462453, 
            -0.35195348756026, 
            -0.3482968941416926, 
            0.5775402290374625, 
            -1.1218825262242489, 
            0.04865596389121342, 
            0.8382885583518375, 
            -1.320950810922052, 
            1.6894175425656843, 
            1.0541320711477173, 
            1.2092167242265073, 
            -0.06031503543610111, 
